################################################################################
# Neural network connection values (weights and biases).
################################################################################
# Col  Name       Description
################################################################################
# 1    connection Neural network connection value.
# 2    t          Connection type (a = weight, b = bias).
# 3    index      Index enumerating weights.
# 4    l_s        Starting point layer (end point layer for biases).
# 5    n_s        Starting point neuron in starting layer (end point neuron for biases).
# 6    l_e        End point layer.
# 7    n_e        End point neuron in end layer.
################################################################################
#                      1 2         3     4     5     6     7
#             connection t     index   l_s   n_s   l_e   n_e
############################################################
  3.9887869461510866E-01 a         1     0     1     1     1
  4.5462893101545343E-01 a         2     0     1     1     2
 -3.1659863297073032E-01 a         3     0     1     1     3
 -3.2258173737566537E-02 a         4     0     1     1     4
 -1.1864485712025437E-01 a         5     0     1     1     5
 -4.7076999051306197E-02 a         6     0     1     1     6
  3.4252725024088393E-01 a         7     0     1     1     7
  6.2397283164800199E-01 a         8     0     1     1     8
  1.6980815996187362E-02 a         9     0     1     1     9
  1.2086108770795155E-01 a        10     0     1     1    10
 -1.0455602424725301E-02 a        11     0     1     1    11
  1.5847014089699357E-01 a        12     0     1     1    12
  4.7069098125079417E-01 a        13     0     1     1    13
 -8.0272194965611288E-01 a        14     0     1     1    14
  1.9715864874204780E-01 a        15     0     1     1    15
  5.7657654712104656E-02 a        16     0     1     1    16
  2.6187292952653807E-01 a        17     0     1     1    17
 -1.7882425278310118E-01 a        18     0     1     1    18
 -3.5891388935137186E-01 a        19     0     1     1    19
  1.5213288677774453E-01 a        20     0     1     1    20
 -1.0847332776964722E-01 a        21     0     2     1     1
  3.1475752051094247E-01 a        22     0     2     1     2
 -3.0662287589184561E-01 a        23     0     2     1     3
 -2.5831786255922934E-01 a        24     0     2     1     4
 -2.9955706397676540E-01 a        25     0     2     1     5
  2.6342342886950898E-01 a        26     0     2     1     6
  1.3593147954938559E-01 a        27     0     2     1     7
  1.1273913170713919E-01 a        28     0     2     1     8
  4.5937190419041080E-01 a        29     0     2     1     9
  3.2769566607165335E-01 a        30     0     2     1    10
  4.2678646949081911E-01 a        31     0     2     1    11
 -8.9112453534736805E-02 a        32     0     2     1    12
  1.7854697400623423E-01 a        33     0     2     1    13
 -2.0114475188546713E-01 a        34     0     2     1    14
  1.6253075030601305E-01 a        35     0     2     1    15
  2.8292480538689251E-02 a        36     0     2     1    16
  9.7103552047896682E-02 a        37     0     2     1    17
 -2.6765085487911183E-01 a        38     0     2     1    18
 -9.7851618840191001E-02 a        39     0     2     1    19
  7.2211402803099095E-02 a        40     0     2     1    20
 -2.1152435622109200E-01 a        41     0     3     1     1
  5.6324044985357362E-02 a        42     0     3     1     2
 -1.6979746774133891E-01 a        43     0     3     1     3
 -2.1961063458515992E-01 a        44     0     3     1     4
 -2.6612882003967736E-01 a        45     0     3     1     5
 -3.1496363831505869E-01 a        46     0     3     1     6
  1.6920780984850226E-01 a        47     0     3     1     7
 -1.1989969527314638E-01 a        48     0     3     1     8
  1.2369817783519024E-01 a        49     0     3     1     9
  8.9744942604949654E-02 a        50     0     3     1    10
  4.0264900963970791E-02 a        51     0     3     1    11
  2.3155787684706619E-01 a        52     0     3     1    12
  1.3973098939466915E-02 a        53     0     3     1    13
  1.4962867534007596E-01 a        54     0     3     1    14
  7.7447767433741072E-02 a        55     0     3     1    15
 -4.3957706170195225E-02 a        56     0     3     1    16
  9.1298149860050498E-02 a        57     0     3     1    17
  2.3522115352129302E-01 a        58     0     3     1    18
  2.6629041954674866E-02 a        59     0     3     1    19
 -1.5612855217553853E-01 a        60     0     3     1    20
 -1.9663287822313277E-01 a        61     0     4     1     1
 -1.1413145681038786E-01 a        62     0     4     1     2
 -4.8128221034487317E-01 a        63     0     4     1     3
  3.7565585734401091E-01 a        64     0     4     1     4
  3.3352745292981364E-02 a        65     0     4     1     5
 -2.0711722407059169E-01 a        66     0     4     1     6
  1.5090473808667818E-01 a        67     0     4     1     7
 -9.0418718421289665E-02 a        68     0     4     1     8
  4.0455098952075530E-01 a        69     0     4     1     9
 -3.1256618290200311E-01 a        70     0     4     1    10
  5.7690099979032213E-03 a        71     0     4     1    11
  6.6990877219749279E-02 a        72     0     4     1    12
 -4.1467509139998626E-01 a        73     0     4     1    13
  2.9317921949035958E-01 a        74     0     4     1    14
  8.9751167549801045E-02 a        75     0     4     1    15
  2.6083064087521446E-01 a        76     0     4     1    16
 -8.2937231746153361E-02 a        77     0     4     1    17
  1.8067656516523933E-01 a        78     0     4     1    18
  2.2760004392789027E-01 a        79     0     4     1    19
 -3.9524034506754076E-02 a        80     0     4     1    20
 -4.2709026485003265E-01 a        81     0     5     1     1
  4.9437288639905630E-01 a        82     0     5     1     2
 -5.4644514878080908E-01 a        83     0     5     1     3
  9.3922377402027002E-01 a        84     0     5     1     4
 -1.8179931808045258E-01 a        85     0     5     1     5
 -6.6495373361157761E-01 a        86     0     5     1     6
 -3.4587340013426920E-01 a        87     0     5     1     7
 -2.8956720486973762E-03 a        88     0     5     1     8
  6.8625997406384309E-01 a        89     0     5     1     9
 -4.2519469436920604E-01 a        90     0     5     1    10
 -5.2574933533708335E-01 a        91     0     5     1    11
  2.6758283397073268E-01 a        92     0     5     1    12
  5.5514983185134661E-02 a        93     0     5     1    13
  4.8506726696924124E-01 a        94     0     5     1    14
 -5.9440902765701770E-02 a        95     0     5     1    15
  7.0558891240614235E-02 a        96     0     5     1    16
  1.7890320897610790E-01 a        97     0     5     1    17
  1.3491988487473222E-01 a        98     0     5     1    18
  3.3981156011235569E-01 a        99     0     5     1    19
 -1.8093654840307680E-01 a       100     0     5     1    20
  3.3004987012620429E-01 a       101     0     6     1     1
 -3.1245735777508871E-01 a       102     0     6     1     2
  8.4539204138441904E-02 a       103     0     6     1     3
 -1.6114492979576733E-01 a       104     0     6     1     4
  2.4239550993080558E-01 a       105     0     6     1     5
  2.7817917518245899E-01 a       106     0     6     1     6
 -8.6714644940656935E-02 a       107     0     6     1     7
 -9.3804160518283108E-02 a       108     0     6     1     8
 -1.0786711141484359E-01 a       109     0     6     1     9
 -2.1641331411198983E-01 a       110     0     6     1    10
 -7.2989321202518304E-02 a       111     0     6     1    11
 -2.2440708460145387E-03 a       112     0     6     1    12
 -3.9386887729731090E-01 a       113     0     6     1    13
  1.6878808665808834E-01 a       114     0     6     1    14
  4.6487262473710478E-01 a       115     0     6     1    15
 -2.0904283487988509E-01 a       116     0     6     1    16
 -5.0012985418668032E-01 a       117     0     6     1    17
 -1.6485331001334999E-01 a       118     0     6     1    18
  3.6866210641189606E-01 a       119     0     6     1    19
 -3.6012984857241437E-01 a       120     0     6     1    20
  3.1165082202609240E-01 a       121     0     7     1     1
 -4.3502203354270347E-01 a       122     0     7     1     2
  4.9975771071936975E-01 a       123     0     7     1     3
  6.1960091857664615E-02 a       124     0     7     1     4
  3.0330019771464267E-01 a       125     0     7     1     5
  5.0267560156544489E-01 a       126     0     7     1     6
 -1.2799480378109965E-01 a       127     0     7     1     7
 -6.0038402905283983E-01 a       128     0     7     1     8
 -5.8781842125736050E-01 a       129     0     7     1     9
 -3.0556532164214406E-01 a       130     0     7     1    10
 -5.2143324549779968E-01 a       131     0     7     1    11
 -9.7917073306567987E-02 a       132     0     7     1    12
 -1.2991522797562546E-01 a       133     0     7     1    13
  8.1761535189120826E-02 a       134     0     7     1    14
  2.1467647934532691E-01 a       135     0     7     1    15
  4.5748056197825841E-02 a       136     0     7     1    16
 -7.8818765617140762E-01 a       137     0     7     1    17
  1.5596630430818448E-01 a       138     0     7     1    18
 -5.7881903150157274E-02 a       139     0     7     1    19
 -1.0327419660148220E+00 a       140     0     7     1    20
  2.3604255208371699E-02 a       141     0     8     1     1
  4.8238938253339810E-02 a       142     0     8     1     2
  7.7568905723882065E-01 a       143     0     8     1     3
 -4.8139457893194743E-01 a       144     0     8     1     4
  4.9774365776724844E-01 a       145     0     8     1     5
 -1.0727595315054182E-01 a       146     0     8     1     6
  1.9656433801645747E-02 a       147     0     8     1     7
  5.3213587610316426E-01 a       148     0     8     1     8
 -5.6676185903428411E-01 a       149     0     8     1     9
  5.2423208413769873E-01 a       150     0     8     1    10
  1.0141737025967221E+00 a       151     0     8     1    11
 -1.0927887108374963E-01 a       152     0     8     1    12
  4.2880690380234487E-01 a       153     0     8     1    13
 -2.3385149592735405E-01 a       154     0     8     1    14
 -9.0894054317385925E-02 a       155     0     8     1    15
 -3.0821747969997720E-01 a       156     0     8     1    16
  9.1197465997129190E-01 a       157     0     8     1    17
  2.8456381342182785E-01 a       158     0     8     1    18
 -3.7069097972094278E-01 a       159     0     8     1    19
  1.0089163487366124E+00 a       160     0     8     1    20
  2.7867690164799291E-01 a       161     0     9     1     1
  4.9504071172639308E-01 a       162     0     9     1     2
  7.8000330030376125E-02 a       163     0     9     1     3
  4.1586902973502121E-02 a       164     0     9     1     4
 -4.0003843817803482E-02 a       165     0     9     1     5
 -2.1184706980825330E-01 a       166     0     9     1     6
  2.8837079057736337E-01 a       167     0     9     1     7
  2.2809089129790391E-01 a       168     0     9     1     8
  3.0183220699521657E-01 a       169     0     9     1     9
  3.4089823764408153E-02 a       170     0     9     1    10
  1.0707983282513615E-01 a       171     0     9     1    11
  1.0348678284152274E-01 a       172     0     9     1    12
  7.4551194348526764E-02 a       173     0     9     1    13
  2.1865049753792826E-01 a       174     0     9     1    14
  6.0052615041821945E-02 a       175     0     9     1    15
  5.9587232716513128E-01 a       176     0     9     1    16
 -8.5818711885895627E-02 a       177     0     9     1    17
 -4.8357901216370908E-01 a       178     0     9     1    18
 -4.6588863695618532E-01 a       179     0     9     1    19
  6.1093315493340494E-01 a       180     0     9     1    20
 -5.2335089906346006E-02 a       181     0    10     1     1
 -6.1615935328928818E-02 a       182     0    10     1     2
 -3.4037781027761854E-01 a       183     0    10     1     3
 -1.9502173904327907E-01 a       184     0    10     1     4
 -2.8548875039740790E-01 a       185     0    10     1     5
 -1.9507598587953581E-01 a       186     0    10     1     6
  2.9325761182086807E-01 a       187     0    10     1     7
  3.1314392530582341E-01 a       188     0    10     1     8
 -1.2559951519087154E-01 a       189     0    10     1     9
  5.3200310795985695E-02 a       190     0    10     1    10
  1.1485276758142719E-01 a       191     0    10     1    11
  1.8628735796341001E-01 a       192     0    10     1    12
 -6.7712454798281349E-02 a       193     0    10     1    13
 -2.7681093947222152E-01 a       194     0    10     1    14
  1.5027410580333569E-01 a       195     0    10     1    15
  9.7476292944630019E-02 a       196     0    10     1    16
 -4.8771602957325477E-01 a       197     0    10     1    17
 -3.2167188021228582E-01 a       198     0    10     1    18
 -2.9663043385675397E-01 a       199     0    10     1    19
  1.6496048600455937E-01 a       200     0    10     1    20
  1.6606199186477907E-01 a       201     0    11     1     1
 -4.8067167164744982E-02 a       202     0    11     1     2
 -2.7710998796891810E-02 a       203     0    11     1     3
 -8.3433837980563225E-02 a       204     0    11     1     4
  2.8835839675979066E-02 a       205     0    11     1     5
 -6.7777101127679262E-02 a       206     0    11     1     6
  2.8268636761681135E-02 a       207     0    11     1     7
  1.4516299820314557E-01 a       208     0    11     1     8
 -3.4661806481935165E-01 a       209     0    11     1     9
 -3.6587448992137717E-01 a       210     0    11     1    10
  6.1680345064733320E-02 a       211     0    11     1    11
  3.3370670156355697E-01 a       212     0    11     1    12
  6.1426413994375838E-02 a       213     0    11     1    13
 -2.9064395390533937E-01 a       214     0    11     1    14
 -5.8625918193243448E-02 a       215     0    11     1    15
 -3.8166489477774131E-02 a       216     0    11     1    16
 -3.0379259575008222E-01 a       217     0    11     1    17
 -3.0431550457212481E-01 a       218     0    11     1    18
 -2.8951007909290544E-01 a       219     0    11     1    19
 -1.9186395018342051E-01 a       220     0    11     1    20
 -1.8623634006012477E-01 a       221     0    12     1     1
 -3.5996403864387050E-01 a       222     0    12     1     2
 -3.0737259964405828E-01 a       223     0    12     1     3
 -3.1736302907223479E-01 a       224     0    12     1     4
  1.8655596318836246E-01 a       225     0    12     1     5
  1.5264260892457165E-02 a       226     0    12     1     6
  6.6941206046758290E-03 a       227     0    12     1     7
 -1.7048875809208330E-01 a       228     0    12     1     8
  1.3806396953971009E-01 a       229     0    12     1     9
  1.2390013365890475E-01 a       230     0    12     1    10
 -4.9156280163551908E-01 a       231     0    12     1    11
  2.5423800090732712E-01 a       232     0    12     1    12
  1.0049869339401367E-01 a       233     0    12     1    13
 -1.6765929138932570E-01 a       234     0    12     1    14
 -1.0272454325909681E-01 a       235     0    12     1    15
 -2.9200228718683947E-02 a       236     0    12     1    16
  2.9198463764970967E-01 a       237     0    12     1    17
 -2.1241021532094430E-02 a       238     0    12     1    18
  4.4248136224432161E-01 a       239     0    12     1    19
 -1.2651013308367914E-01 a       240     0    12     1    20
 -6.0924804566770463E-01 a       241     0    13     1     1
  4.1746743917771063E-02 a       242     0    13     1     2
 -1.7236461162819579E-02 a       243     0    13     1     3
  3.2070030013586620E-01 a       244     0    13     1     4
 -1.5384979501810258E-02 a       245     0    13     1     5
 -3.1654123937143108E-01 a       246     0    13     1     6
  3.7534823381567134E-01 a       247     0    13     1     7
  3.4613259257510892E-01 a       248     0    13     1     8
  7.1657790739477374E-03 a       249     0    13     1     9
 -3.4628626800141227E-01 a       250     0    13     1    10
  1.1955842747593261E-02 a       251     0    13     1    11
 -4.3177412479333438E-01 a       252     0    13     1    12
 -3.0918976668305553E-01 a       253     0    13     1    13
  4.4687042543109229E-01 a       254     0    13     1    14
  2.3246545491655379E-01 a       255     0    13     1    15
 -2.2896883870949078E-01 a       256     0    13     1    16
 -1.6211301061940858E-01 a       257     0    13     1    17
  7.1367326304904152E-02 a       258     0    13     1    18
  2.3053848544083833E-01 a       259     0    13     1    19
  4.2064208356164007E-01 a       260     0    13     1    20
 -1.6140913246622240E-01 a       261     0    14     1     1
 -8.2031093019275497E-02 a       262     0    14     1     2
  1.1625685830164692E-01 a       263     0    14     1     3
 -2.0038327834279870E-01 a       264     0    14     1     4
  4.5467394022983521E-01 a       265     0    14     1     5
  3.3454224344518357E-01 a       266     0    14     1     6
 -2.0451797384536827E-01 a       267     0    14     1     7
 -1.5006003778192190E-01 a       268     0    14     1     8
 -9.0949995436202552E-02 a       269     0    14     1     9
 -4.6019644720661229E-01 a       270     0    14     1    10
 -2.4088184723071057E-01 a       271     0    14     1    11
 -4.4309940733678588E-01 a       272     0    14     1    12
 -5.3665970476268299E-01 a       273     0    14     1    13
  5.9309814865451164E-02 a       274     0    14     1    14
  1.4796137531170225E-01 a       275     0    14     1    15
 -5.4326942423930691E-01 a       276     0    14     1    16
 -2.7316846901400393E-01 a       277     0    14     1    17
  4.9165402806334239E-02 a       278     0    14     1    18
  1.2215952985037334E-01 a       279     0    14     1    19
 -6.0048523467578933E-02 a       280     0    14     1    20
  5.5237006390716359E-01 a       281     0    15     1     1
  6.4411556106865303E-02 a       282     0    15     1     2
  9.3640159083690805E-02 a       283     0    15     1     3
 -6.6021352085692958E-02 a       284     0    15     1     4
  1.2854891466362336E-01 a       285     0    15     1     5
 -4.4307039785477106E-02 a       286     0    15     1     6
 -4.2217720443946916E-01 a       287     0    15     1     7
  1.5668380275886018E-01 a       288     0    15     1     8
 -3.3674076478327070E-01 a       289     0    15     1     9
  4.0526120396669724E-02 a       290     0    15     1    10
  6.6003049103553563E-02 a       291     0    15     1    11
  1.7251102243627822E-01 a       292     0    15     1    12
  2.7539761423555459E-01 a       293     0    15     1    13
 -6.4124662850836434E-01 a       294     0    15     1    14
 -1.7939012897594933E-01 a       295     0    15     1    15
  4.5750315021425181E-01 a       296     0    15     1    16
 -2.7829969009442540E-01 a       297     0    15     1    17
 -6.8334356782932357E-02 a       298     0    15     1    18
 -5.9704713837814349E-01 a       299     0    15     1    19
  6.4085464388170688E-01 a       300     0    15     1    20
  3.1904477892586819E-01 a       301     0    16     1     1
 -2.2682149657633738E-01 a       302     0    16     1     2
 -2.5648254631182643E-01 a       303     0    16     1     3
 -5.5740649259822233E-03 a       304     0    16     1     4
  2.6646114637910515E-02 a       305     0    16     1     5
  1.9638150326981585E-01 a       306     0    16     1     6
 -7.4872007143238206E-01 a       307     0    16     1     7
 -2.3565983347740846E-01 a       308     0    16     1     8
 -3.2810070433080846E-01 a       309     0    16     1     9
 -2.2008784543605725E-01 a       310     0    16     1    10
  2.6593639126084206E-01 a       311     0    16     1    11
 -2.0045002949024662E-01 a       312     0    16     1    12
 -4.6665788056777097E-01 a       313     0    16     1    13
 -3.2928488494004171E-01 a       314     0    16     1    14
 -2.8422165295081186E-01 a       315     0    16     1    15
 -3.3992458529139770E-02 a       316     0    16     1    16
  1.0186966174323064E-01 a       317     0    16     1    17
  2.2250207214381156E-02 a       318     0    16     1    18
  2.2035864629265142E-01 a       319     0    16     1    19
  4.8220963448300402E-01 a       320     0    16     1    20
 -6.4355214972750086E-01 a       321     0    17     1     1
 -1.7366686966872322E-01 a       322     0    17     1     2
  7.8635238204007793E-02 a       323     0    17     1     3
 -1.8308990423785262E-01 a       324     0    17     1     4
  1.1133886196391360E+00 a       325     0    17     1     5
  3.8583425275756400E-01 a       326     0    17     1     6
  1.6220367476318611E+00 a       327     0    17     1     7
  1.2300062281625199E-01 a       328     0    17     1     8
  5.0867633664467571E-01 a       329     0    17     1     9
  3.8922982624915214E-01 a       330     0    17     1    10
  1.7615532748182736E-01 a       331     0    17     1    11
 -7.0395071050356783E-01 a       332     0    17     1    12
 -6.8760900213409054E-02 a       333     0    17     1    13
 -3.3124599287455347E-01 a       334     0    17     1    14
  5.2470343165477396E-01 a       335     0    17     1    15
  6.0936465788204375E-01 a       336     0    17     1    16
  1.2612303530597443E-01 a       337     0    17     1    17
  2.9864672552327420E-01 a       338     0    17     1    18
 -2.1694865997566090E-01 a       339     0    17     1    19
 -3.8258693790749587E-01 a       340     0    17     1    20
 -2.2008739447430037E-01 a       341     0    18     1     1
  3.1426043502785539E-01 a       342     0    18     1     2
  3.2394696975841569E-01 a       343     0    18     1     3
  2.1175250483548771E-01 a       344     0    18     1     4
 -5.0065852448884218E-01 a       345     0    18     1     5
 -5.6254271160948555E-01 a       346     0    18     1     6
 -1.9740271912886168E-01 a       347     0    18     1     7
 -1.0585453971289026E-01 a       348     0    18     1     8
  2.1183014636124581E-01 a       349     0    18     1     9
  7.0589934875011320E-02 a       350     0    18     1    10
 -1.3657216102278172E-01 a       351     0    18     1    11
  4.4083468391788355E-01 a       352     0    18     1    12
  1.9767699155851284E-01 a       353     0    18     1    13
  1.4359968314487839E-01 a       354     0    18     1    14
  2.1273900492678036E-01 a       355     0    18     1    15
 -2.6666963226293211E-01 a       356     0    18     1    16
  1.1862319024515602E-01 a       357     0    18     1    17
 -7.0224352875807339E-01 a       358     0    18     1    18
 -1.8166397067190238E-01 a       359     0    18     1    19
  1.9254608524931793E-01 a       360     0    18     1    20
  8.3062837631392650E-01 a       361     0    19     1     1
  1.3796529426602566E-01 a       362     0    19     1     2
 -3.3131842945825890E-01 a       363     0    19     1     3
 -8.2739411236837604E-02 a       364     0    19     1     4
 -8.5495634457565095E-01 a       365     0    19     1     5
 -4.5957916975633678E-01 a       366     0    19     1     6
 -7.7426896888780383E-01 a       367     0    19     1     7
  4.9670698895035670E-02 a       368     0    19     1     8
 -5.1949608847741879E-01 a       369     0    19     1     9
 -2.2704695053151200E-01 a       370     0    19     1    10
 -3.2740669942998768E-01 a       371     0    19     1    11
  6.8314000006186781E-01 a       372     0    19     1    12
  4.7107688816280696E-01 a       373     0    19     1    13
  5.8721814841331166E-01 a       374     0    19     1    14
 -1.8991688639265414E-01 a       375     0    19     1    15
 -3.8555435104365286E-02 a       376     0    19     1    16
 -2.0763191406927878E-01 a       377     0    19     1    17
  3.3863929517155822E-01 a       378     0    19     1    18
  1.0709403101954684E-01 a       379     0    19     1    19
  1.9602148302581943E-01 a       380     0    19     1    20
 -3.9384622524938212E-01 a       381     0    20     1     1
  5.5836573869264261E-01 a       382     0    20     1     2
 -1.7693965488645383E-01 a       383     0    20     1     3
  6.7408125986321940E-02 a       384     0    20     1     4
 -4.1363500322676089E-01 a       385     0    20     1     5
 -3.7432574471121594E-01 a       386     0    20     1     6
  6.3125800731987725E-01 a       387     0    20     1     7
  1.4523730638676835E-01 a       388     0    20     1     8
 -1.4475845759301083E-02 a       389     0    20     1     9
 -2.1085304018014794E-02 a       390     0    20     1    10
 -3.4187170701828451E-01 a       391     0    20     1    11
  1.5225903593943935E-01 a       392     0    20     1    12
  1.6133411150523441E-01 a       393     0    20     1    13
 -1.4095013828581973E-01 a       394     0    20     1    14
  2.9054766704217827E-01 a       395     0    20     1    15
 -4.0775206104940515E-01 a       396     0    20     1    16
 -4.7805237445923210E-01 a       397     0    20     1    17
 -7.3724314562824667E-01 a       398     0    20     1    18
 -4.2962142378639129E-01 a       399     0    20     1    19
 -7.4252313394922220E-01 a       400     0    20     1    20
  3.7560965406982096E-02 a       401     0    21     1     1
 -1.6478641359046647E-01 a       402     0    21     1     2
  1.2937448411682881E-01 a       403     0    21     1     3
  6.6312300091719900E-02 a       404     0    21     1     4
 -1.4663418538128781E-01 a       405     0    21     1     5
 -4.4638466670782956E-01 a       406     0    21     1     6
 -3.7603184477352697E-01 a       407     0    21     1     7
  3.0103723679555583E-01 a       408     0    21     1     8
 -3.0014334655179864E-01 a       409     0    21     1     9
 -3.5719250018285265E-01 a       410     0    21     1    10
  3.0293434773308314E-01 a       411     0    21     1    11
 -6.1101611793817130E-02 a       412     0    21     1    12
  7.2833770876037013E-02 a       413     0    21     1    13
  2.8493481492629685E-01 a       414     0    21     1    14
 -4.4473074725266365E-01 a       415     0    21     1    15
  3.9144062053607417E-02 a       416     0    21     1    16
  8.2646833839478115E-02 a       417     0    21     1    17
  4.4622116573100989E-01 a       418     0    21     1    18
 -5.4187504274262367E-02 a       419     0    21     1    19
 -2.9239140494484761E-01 a       420     0    21     1    20
  3.6885421421882575E-01 a       421     0    22     1     1
  3.8994991253802125E-01 a       422     0    22     1     2
 -1.5986515010059155E-01 a       423     0    22     1     3
 -5.5461231420021595E-01 a       424     0    22     1     4
  7.3915681718302276E-02 a       425     0    22     1     5
  8.3280214522624810E-02 a       426     0    22     1     6
  4.6671369193643214E-01 a       427     0    22     1     7
  1.7364395951977388E-01 a       428     0    22     1     8
  1.5950322316222582E-01 a       429     0    22     1     9
 -2.3978802437644262E-02 a       430     0    22     1    10
 -2.3059781827687850E-01 a       431     0    22     1    11
 -1.6008819194382382E-02 a       432     0    22     1    12
  2.3527552979919400E-01 a       433     0    22     1    13
 -2.8363176298850423E-01 a       434     0    22     1    14
 -3.5077782111839800E-01 a       435     0    22     1    15
 -6.2348217306086717E-01 a       436     0    22     1    16
 -5.4679862797654487E-02 a       437     0    22     1    17
 -3.8915978107375637E-01 a       438     0    22     1    18
  7.3461769534592436E-01 a       439     0    22     1    19
 -3.4273098890729486E-01 a       440     0    22     1    20
 -3.2355910748063577E-01 a       441     0    23     1     1
 -3.9280539488150773E-01 a       442     0    23     1     2
  4.3130785914309078E-01 a       443     0    23     1     3
 -4.7821887832829413E-01 a       444     0    23     1     4
  8.1715351727246310E-01 a       445     0    23     1     5
  2.2143669668941648E-01 a       446     0    23     1     6
  4.1594928355380412E-01 a       447     0    23     1     7
 -5.5148935974501823E-01 a       448     0    23     1     8
  4.3124868176569020E-01 a       449     0    23     1     9
  7.6807626541812635E-01 a       450     0    23     1    10
  5.1117051449091171E-02 a       451     0    23     1    11
 -2.6353887933195208E-01 a       452     0    23     1    12
  1.0338055277310002E-01 a       453     0    23     1    13
 -1.6536999799974644E-01 a       454     0    23     1    14
 -5.2707430897933927E-01 a       455     0    23     1    15
  3.2068647933061939E-01 a       456     0    23     1    16
  3.7154738255712888E-01 a       457     0    23     1    17
  2.7381373111542578E-01 a       458     0    23     1    18
  1.9489951726811752E-01 a       459     0    23     1    19
  2.7468649985651343E-02 a       460     0    23     1    20
  4.1313639396571189E-01 a       461     0    24     1     1
 -1.3209186193573508E-01 a       462     0    24     1     2
 -1.9286125300950609E-02 a       463     0    24     1     3
 -3.8795133856599558E-02 a       464     0    24     1     4
 -5.7525582018850241E-01 a       465     0    24     1     5
  7.9759817378433906E-03 a       466     0    24     1     6
  1.4493410182948593E-01 a       467     0    24     1     7
 -5.5473325128434525E-01 a       468     0    24     1     8
  5.0030259819454603E-01 a       469     0    24     1     9
  9.4474698770442356E-01 a       470     0    24     1    10
 -8.1465027274716190E-02 a       471     0    24     1    11
  3.1301498557442470E-01 a       472     0    24     1    12
  3.6083836087778876E-01 a       473     0    24     1    13
  7.0272024979472447E-01 a       474     0    24     1    14
  1.4001171546527613E-01 a       475     0    24     1    15
 -8.6706223268543992E-02 a       476     0    24     1    16
  6.8935987423009704E-01 a       477     0    24     1    17
 -2.8700060641215963E-01 a       478     0    24     1    18
  5.7016849418806770E-01 a       479     0    24     1    19
  1.3574642147938273E-01 a       480     0    24     1    20
  1.0757826250514968E-01 a       481     0    25     1     1
  3.1544397906457405E-01 a       482     0    25     1     2
 -2.0171588023138079E-01 a       483     0    25     1     3
  3.4990299940170122E-01 a       484     0    25     1     4
  5.2120990173694502E-02 a       485     0    25     1     5
 -4.2873135840617760E-01 a       486     0    25     1     6
  3.2849392066711933E-02 a       487     0    25     1     7
  4.5115106925851717E-01 a       488     0    25     1     8
  3.9302658293702403E-01 a       489     0    25     1     9
  1.2564131153483332E-01 a       490     0    25     1    10
  6.6794759843513740E-02 a       491     0    25     1    11
  6.2095286604826369E-02 a       492     0    25     1    12
  3.1219237337691552E-01 a       493     0    25     1    13
  4.6840513706456094E-01 a       494     0    25     1    14
 -9.1599329850378983E-02 a       495     0    25     1    15
 -3.3451450137603894E-02 a       496     0    25     1    16
  3.1939447475584481E-01 a       497     0    25     1    17
  1.1656740206107245E-01 a       498     0    25     1    18
  5.7951025993329519E-01 a       499     0    25     1    19
  4.1727665653051804E-01 a       500     0    25     1    20
 -3.0805692329360734E-01 a       501     0    26     1     1
 -1.6186099508787516E-01 a       502     0    26     1     2
 -1.2250018369037871E-01 a       503     0    26     1     3
  1.0767638508947108E+00 a       504     0    26     1     4
 -1.0207460808761279E+00 a       505     0    26     1     5
  1.4643614555100878E-01 a       506     0    26     1     6
  1.0905013156377044E-01 a       507     0    26     1     7
  4.6892262880028324E-01 a       508     0    26     1     8
 -7.6094894891928624E-02 a       509     0    26     1     9
 -3.4028990509965773E-01 a       510     0    26     1    10
  3.7421459109143662E-01 a       511     0    26     1    11
 -2.7832641644743744E-01 a       512     0    26     1    12
  4.1276113642289597E-01 a       513     0    26     1    13
  3.1724645743485524E-01 a       514     0    26     1    14
 -7.9477782154815713E-02 a       515     0    26     1    15
 -3.6886497839015936E-01 a       516     0    26     1    16
  2.8448209485067355E-01 a       517     0    26     1    17
 -1.7742711539427503E-01 a       518     0    26     1    18
 -1.6702642609589727E-01 a       519     0    26     1    19
  1.6029560059528372E-01 a       520     0    26     1    20
 -2.2544524910675165E-01 a       521     0    27     1     1
 -2.0306174241851382E-01 a       522     0    27     1     2
  3.2457531384029056E-02 a       523     0    27     1     3
 -2.7864942871251103E-02 a       524     0    27     1     4
 -2.6931113226258664E-02 a       525     0    27     1     5
  4.9273716159423853E-01 a       526     0    27     1     6
 -6.9745343593112741E-01 a       527     0    27     1     7
  6.4689020893105950E-02 a       528     0    27     1     8
 -2.2172498396327736E-01 a       529     0    27     1     9
 -1.1713325437005384E-01 a       530     0    27     1    10
 -2.9023527737868243E-01 a       531     0    27     1    11
  4.0828347562434586E-01 a       532     0    27     1    12
  1.5651403159918187E-01 a       533     0    27     1    13
  9.7932350986651748E-02 a       534     0    27     1    14
 -2.0684244667383714E-01 a       535     0    27     1    15
  3.7164568119065577E-01 a       536     0    27     1    16
 -4.6933726985139768E-01 a       537     0    27     1    17
  5.4397017669751424E-01 a       538     0    27     1    18
 -3.2280171910668082E-01 a       539     0    27     1    19
  1.0842152552152266E-01 a       540     0    27     1    20
  3.0195430573061347E-02 a       541     0    28     1     1
 -4.7260525409934216E-02 a       542     0    28     1     2
  4.1400439394606547E-01 a       543     0    28     1     3
  3.2548865834528989E-01 a       544     0    28     1     4
  6.6243528917328709E-02 a       545     0    28     1     5
  3.0449426298365362E-01 a       546     0    28     1     6
 -6.0297011477374700E-02 a       547     0    28     1     7
 -2.2139015587238162E-01 a       548     0    28     1     8
  6.6167134551234873E-03 a       549     0    28     1     9
  4.6243265107977424E-02 a       550     0    28     1    10
 -1.6262664206874874E-01 a       551     0    28     1    11
 -3.9488271843485356E-01 a       552     0    28     1    12
 -1.6651099966667332E-01 a       553     0    28     1    13
  5.7079035013647021E-02 a       554     0    28     1    14
  6.7732284393292900E-03 a       555     0    28     1    15
  1.7661935994507671E-01 a       556     0    28     1    16
 -2.1093817800159209E-01 a       557     0    28     1    17
 -1.6772860755256919E-01 a       558     0    28     1    18
 -1.1930077637828303E-01 a       559     0    28     1    19
 -1.4835369814336669E-01 a       560     0    28     1    20
  1.1694474316625778E-01 a       561     0    29     1     1
 -4.2953091113890057E-01 a       562     0    29     1     2
  5.0296431239089689E-01 a       563     0    29     1     3
  5.2418026739702361E-01 a       564     0    29     1     4
 -8.5549925577923069E-02 a       565     0    29     1     5
 -1.1721879100546270E-02 a       566     0    29     1     6
  6.4445590922179974E-01 a       567     0    29     1     7
  2.4486815495136452E-01 a       568     0    29     1     8
 -4.7275535729623830E-01 a       569     0    29     1     9
 -1.3678669353881046E-01 a       570     0    29     1    10
  1.2967454721069413E-01 a       571     0    29     1    11
 -1.3354073816625028E-01 a       572     0    29     1    12
  3.3981017221154836E-01 a       573     0    29     1    13
 -4.6644725266852272E-01 a       574     0    29     1    14
  3.7080207510429170E-01 a       575     0    29     1    15
 -3.9665165806115388E-01 a       576     0    29     1    16
 -1.9540591737893614E-02 a       577     0    29     1    17
  1.4185996855416183E-01 a       578     0    29     1    18
  3.1320203229487842E-01 a       579     0    29     1    19
  2.0869119832819383E-01 a       580     0    29     1    20
 -4.4195508501257197E-01 a       581     0    30     1     1
 -6.8118310374455027E-01 a       582     0    30     1     2
 -1.1482534976291373E-01 a       583     0    30     1     3
 -3.8857215278521862E-01 a       584     0    30     1     4
 -4.3176079226723768E-01 a       585     0    30     1     5
 -1.9192569188638445E-01 a       586     0    30     1     6
 -8.0809695553931055E-02 a       587     0    30     1     7
 -1.0501638473596317E-01 a       588     0    30     1     8
 -3.5115501530345267E-01 a       589     0    30     1     9
  2.6178762121836424E-01 a       590     0    30     1    10
 -3.3076524594868179E-01 a       591     0    30     1    11
  6.6763353098117456E-02 a       592     0    30     1    12
 -6.9841556289011641E-01 a       593     0    30     1    13
  1.3758730629773849E-01 a       594     0    30     1    14
 -6.5345048555854524E-01 a       595     0    30     1    15
 -1.7558875311084182E-01 a       596     0    30     1    16
 -3.9976200722881056E-01 a       597     0    30     1    17
 -7.8234112036041747E-01 a       598     0    30     1    18
 -2.7366772995946548E-01 a       599     0    30     1    19
  3.2116604573454355E-01 a       600     0    30     1    20
  4.3980890465511885E-01 a       601     0    31     1     1
  1.3239744722535821E-01 a       602     0    31     1     2
 -2.9323849193172685E-02 a       603     0    31     1     3
 -1.3431438660120523E-01 a       604     0    31     1     4
 -4.3022975884877418E-01 a       605     0    31     1     5
  5.3431501851238872E-01 a       606     0    31     1     6
  4.9487332250860666E-01 a       607     0    31     1     7
 -1.0114248382661393E+00 a       608     0    31     1     8
 -6.2543113829028696E-01 a       609     0    31     1     9
  4.8263605210283866E-01 a       610     0    31     1    10
 -8.6889032343542491E-02 a       611     0    31     1    11
 -7.3320190553822370E-02 a       612     0    31     1    12
  3.9470929603768051E-01 a       613     0    31     1    13
 -9.6017820143290955E-01 a       614     0    31     1    14
 -5.6153660247949294E-02 a       615     0    31     1    15
  5.1991874257501403E-01 a       616     0    31     1    16
  3.1560397285145959E-02 a       617     0    31     1    17
  4.7330894263036820E-02 a       618     0    31     1    18
  3.7531866168723516E-01 a       619     0    31     1    19
  5.5577454774994435E-02 a       620     0    31     1    20
 -2.7313370542499804E-01 a       621     0    32     1     1
 -1.4450615994116092E-01 a       622     0    32     1     2
 -4.7270347224553794E-01 a       623     0    32     1     3
  1.1116787184196704E-01 a       624     0    32     1     4
 -1.4913689307226306E-02 a       625     0    32     1     5
  3.9999216579075397E-01 a       626     0    32     1     6
 -4.8225185640588711E-02 a       627     0    32     1     7
  2.0283888861230970E-01 a       628     0    32     1     8
 -2.2531560873511103E-01 a       629     0    32     1     9
  1.8616376957387792E-01 a       630     0    32     1    10
  1.3130909850010919E-01 a       631     0    32     1    11
 -1.0742752623826037E-01 a       632     0    32     1    12
  3.4126610363598674E-02 a       633     0    32     1    13
  2.1087264607610104E-01 a       634     0    32     1    14
 -1.3417894102527717E-01 a       635     0    32     1    15
  6.5224242972955715E-01 a       636     0    32     1    16
  5.6452439590683889E-01 a       637     0    32     1    17
 -2.5524439886615041E-01 a       638     0    32     1    18
  2.9551355224583276E-01 a       639     0    32     1    19
  1.5967760812084253E-01 a       640     0    32     1    20
  1.7766704307444989E-01 a       641     0    33     1     1
  5.1189757892684629E-01 a       642     0    33     1     2
 -1.7906276001804616E-01 a       643     0    33     1     3
  2.0989393883985830E-01 a       644     0    33     1     4
 -2.2633099436223599E-02 a       645     0    33     1     5
 -1.3608840994803559E-01 a       646     0    33     1     6
 -4.6095445016637156E-02 a       647     0    33     1     7
  7.7559637271015047E-01 a       648     0    33     1     8
  7.5290319414186246E-01 a       649     0    33     1     9
 -3.2396785056674704E-01 a       650     0    33     1    10
  3.2260588017240732E-01 a       651     0    33     1    11
  1.5602092479961399E-01 a       652     0    33     1    12
 -1.3126993990572272E-01 a       653     0    33     1    13
  6.2061678352373273E-01 a       654     0    33     1    14
 -1.1436249528901780E-01 a       655     0    33     1    15
 -1.9921973616686817E-01 a       656     0    33     1    16
  1.5272691498759083E-01 a       657     0    33     1    17
 -2.7218876590891189E-01 a       658     0    33     1    18
 -2.6738998494101235E-01 a       659     0    33     1    19
 -5.7512471060636794E-01 a       660     0    33     1    20
 -2.4795637666267867E-01 a       661     0    34     1     1
 -3.1637159555608624E-01 a       662     0    34     1     2
 -3.3349230794103440E-01 a       663     0    34     1     3
  4.5467656008962964E-01 a       664     0    34     1     4
 -2.6018950055110835E-02 a       665     0    34     1     5
  2.2305823922113746E-01 a       666     0    34     1     6
  5.0536658802883085E-02 a       667     0    34     1     7
  9.6175705300239966E-01 a       668     0    34     1     8
  1.8124543282127056E-01 a       669     0    34     1     9
 -4.5106948524897783E-01 a       670     0    34     1    10
  9.3434108552837916E-02 a       671     0    34     1    11
 -3.2964658557510845E-01 a       672     0    34     1    12
 -2.2932979693331856E-01 a       673     0    34     1    13
  8.0490579042336696E-01 a       674     0    34     1    14
 -2.6756214092745628E-01 a       675     0    34     1    15
  5.8025384165104954E-01 a       676     0    34     1    16
  5.0706510928055193E-01 a       677     0    34     1    17
  2.0871226059503536E-01 a       678     0    34     1    18
  7.2418148007635214E-02 a       679     0    34     1    19
 -3.6710503169501335E-02 a       680     0    34     1    20
 -7.8366354684121800E-02 a       681     0    35     1     1
  1.9833706758988826E-01 a       682     0    35     1     2
  1.0348286767675341E+00 a       683     0    35     1     3
 -2.7873546392678422E-01 a       684     0    35     1     4
 -3.1877980939393658E-01 a       685     0    35     1     5
  5.0512058881570079E-02 a       686     0    35     1     6
  8.9420172668319420E-02 a       687     0    35     1     7
 -4.6528863539632503E-01 a       688     0    35     1     8
 -1.7849659032122944E-01 a       689     0    35     1     9
  2.8491952608197152E-01 a       690     0    35     1    10
  7.9295339492314654E-02 a       691     0    35     1    11
  2.3052102142237410E-01 a       692     0    35     1    12
  8.5836274654946809E-01 a       693     0    35     1    13
 -5.3744117443424388E-01 a       694     0    35     1    14
  7.3634452352993085E-01 a       695     0    35     1    15
 -6.6473168046851128E-01 a       696     0    35     1    16
 -6.4193533629861199E-01 a       697     0    35     1    17
  6.9889974738089097E-02 a       698     0    35     1    18
 -5.2360156501686399E-02 a       699     0    35     1    19
  4.9971918930310388E-02 a       700     0    35     1    20
  1.4909351073703871E+00 a       701     0    36     1     1
 -3.9569382246868318E-01 a       702     0    36     1     2
  2.4102927941628183E-01 a       703     0    36     1     3
  4.5621994595849308E-01 a       704     0    36     1     4
  2.7547613716916713E-01 a       705     0    36     1     5
  1.1474658501976855E-02 a       706     0    36     1     6
  1.7475088635716773E-01 a       707     0    36     1     7
 -1.5239454523821694E-01 a       708     0    36     1     8
  3.7281254030528133E-01 a       709     0    36     1     9
 -6.3615407716797456E-01 a       710     0    36     1    10
 -8.9721088454752074E-02 a       711     0    36     1    11
 -2.3105861914874598E-02 a       712     0    36     1    12
  2.6938595223681538E-01 a       713     0    36     1    13
 -2.3214378639502634E-01 a       714     0    36     1    14
 -1.2384919978850147E-01 a       715     0    36     1    15
  5.5358287222156216E-02 a       716     0    36     1    16
  1.9316938605572423E-01 a       717     0    36     1    17
  1.5742015319840821E+00 a       718     0    36     1    18
  3.2267588976531869E-01 a       719     0    36     1    19
 -3.6294905496183755E-01 a       720     0    36     1    20
  2.4560498858121563E-01 a       721     0    37     1     1
  1.0073497821505825E-01 a       722     0    37     1     2
 -3.4328066248559375E-01 a       723     0    37     1     3
 -4.6193386118022906E-01 a       724     0    37     1     4
  2.6540251384743002E-01 a       725     0    37     1     5
  4.7194381252871265E-01 a       726     0    37     1     6
  9.7125868925088552E-02 a       727     0    37     1     7
  3.2056526563423204E-01 a       728     0    37     1     8
 -2.1887780479303037E-01 a       729     0    37     1     9
 -1.0873077427556019E-01 a       730     0    37     1    10
 -5.4390258084497115E-02 a       731     0    37     1    11
  2.7690653248826236E-01 a       732     0    37     1    12
 -3.7706351088779599E-01 a       733     0    37     1    13
 -2.4852033031868187E-01 a       734     0    37     1    14
  1.4904632723635481E-02 a       735     0    37     1    15
 -2.1468461879420933E-01 a       736     0    37     1    16
  3.4480406078571391E-01 a       737     0    37     1    17
  4.0581229614728165E-01 a       738     0    37     1    18
 -2.5124688889263497E-01 a       739     0    37     1    19
 -2.8305995924236349E-01 a       740     0    37     1    20
 -3.6444943579435540E-01 a       741     0    38     1     1
 -6.0866355947181039E-02 a       742     0    38     1     2
 -3.7565171403628000E-01 a       743     0    38     1     3
 -2.7406555193232007E-01 a       744     0    38     1     4
  1.8465287667337324E-01 a       745     0    38     1     5
  1.4627287195471783E-01 a       746     0    38     1     6
 -7.0687841357849546E-01 a       747     0    38     1     7
 -1.0597140466840496E+00 a       748     0    38     1     8
 -4.9807512975875612E-01 a       749     0    38     1     9
 -3.4491537832644914E-01 a       750     0    38     1    10
 -1.1613108215934091E-01 a       751     0    38     1    11
  2.8489095167287232E-01 a       752     0    38     1    12
  7.5610173200799921E-02 a       753     0    38     1    13
 -9.6055671383502544E-02 a       754     0    38     1    14
 -1.4329228649880268E-01 a       755     0    38     1    15
  1.3274583026157896E-01 a       756     0    38     1    16
  4.7832147710382816E-01 a       757     0    38     1    17
  2.6723426656551080E-01 a       758     0    38     1    18
  5.9344609870091669E-01 a       759     0    38     1    19
 -6.1053706112408214E-02 a       760     0    38     1    20
 -6.2134310897461431E-01 a       761     0    39     1     1
  3.9125115641610919E-01 a       762     0    39     1     2
 -3.0548356803335264E-01 a       763     0    39     1     3
 -5.4287962300321635E-01 a       764     0    39     1     4
  1.8474307538316226E-01 a       765     0    39     1     5
 -7.6316472087282561E-03 a       766     0    39     1     6
  3.6418458925889805E-03 a       767     0    39     1     7
  3.4977816855263477E-01 a       768     0    39     1     8
 -2.3782600699240938E-01 a       769     0    39     1     9
  1.5318246075421652E-01 a       770     0    39     1    10
 -9.5362294825534114E-02 a       771     0    39     1    11
  3.7008841203719323E-01 a       772     0    39     1    12
 -5.4215464870473884E-01 a       773     0    39     1    13
 -5.2500766028847801E-01 a       774     0    39     1    14
  8.4260948378449566E-02 a       775     0    39     1    15
  2.6772039384408436E-01 a       776     0    39     1    16
  1.2563101895767004E-01 a       777     0    39     1    17
 -2.7165889121021874E-01 a       778     0    39     1    18
 -2.6977302138235637E-01 a       779     0    39     1    19
 -1.8179289150663414E-01 a       780     0    39     1    20
 -9.5904302550832796E-03 a       781     0    40     1     1
  1.4565505931869036E-01 a       782     0    40     1     2
  1.0972833926859075E-01 a       783     0    40     1     3
 -2.2138394893103486E-02 a       784     0    40     1     4
 -1.7805447255274526E-01 a       785     0    40     1     5
 -4.3112362978955354E-01 a       786     0    40     1     6
 -4.3211056262279064E-02 a       787     0    40     1     7
 -7.2759125019035498E-01 a       788     0    40     1     8
  3.7236187936463483E-01 a       789     0    40     1     9
  6.2792413248643542E-01 a       790     0    40     1    10
 -4.7295392544949993E-01 a       791     0    40     1    11
 -2.9477226576036264E-01 a       792     0    40     1    12
 -3.3016174079591287E-01 a       793     0    40     1    13
 -2.9681520728673777E-01 a       794     0    40     1    14
 -2.4150623481252301E-01 a       795     0    40     1    15
 -2.5415889803361530E-01 a       796     0    40     1    16
 -1.5489303441266034E-01 a       797     0    40     1    17
 -5.7218220853327972E-01 a       798     0    40     1    18
 -6.4116075621254853E-01 a       799     0    40     1    19
 -3.7024295225202186E-01 a       800     0    40     1    20
 -2.0522335064471270E-01 a       801     0    41     1     1
  2.5074900463038985E-01 a       802     0    41     1     2
  1.7595786385630394E-01 a       803     0    41     1     3
 -2.4380100954542627E-01 a       804     0    41     1     4
 -9.7307063718062511E-02 a       805     0    41     1     5
 -2.5090632264127494E-01 a       806     0    41     1     6
  6.9195710851900627E-02 a       807     0    41     1     7
 -9.0088653552306441E-02 a       808     0    41     1     8
  1.3892442133488497E-01 a       809     0    41     1     9
 -1.5388878533588779E-01 a       810     0    41     1    10
 -2.4529318998318124E-02 a       811     0    41     1    11
 -1.9082207808175131E-01 a       812     0    41     1    12
  3.3664457966514960E-02 a       813     0    41     1    13
  1.1779407347451636E-01 a       814     0    41     1    14
  1.7239199241682845E-01 a       815     0    41     1    15
  1.0407116202827317E-01 a       816     0    41     1    16
  9.0153872596515652E-02 a       817     0    41     1    17
  1.4441616739427872E-02 a       818     0    41     1    18
 -3.8422579019780259E-02 a       819     0    41     1    19
 -3.3833086121267347E-01 a       820     0    41     1    20
  1.1331404358613567E-02 a       821     0    42     1     1
  4.5402441194510246E-01 a       822     0    42     1     2
  4.8263382501467146E-02 a       823     0    42     1     3
 -2.3611920916184850E-01 a       824     0    42     1     4
 -1.3493726231745801E-01 a       825     0    42     1     5
 -1.4751638950898491E-01 a       826     0    42     1     6
 -1.0426233045051166E-01 a       827     0    42     1     7
  1.6640536987435059E-01 a       828     0    42     1     8
 -3.2456767546530985E-01 a       829     0    42     1     9
  1.6992760403090151E-01 a       830     0    42     1    10
 -4.0172840545709648E-01 a       831     0    42     1    11
  2.9216973121809903E-02 a       832     0    42     1    12
 -1.2041233943231311E-01 a       833     0    42     1    13
 -1.7993978447580883E-01 a       834     0    42     1    14
  2.1358636683040125E-01 a       835     0    42     1    15
  1.4169709627031032E-01 a       836     0    42     1    16
  1.4693145780549327E-01 a       837     0    42     1    17
 -2.5662777465408948E-01 a       838     0    42     1    18
 -1.1373787388884414E-01 a       839     0    42     1    19
 -2.8922885842842372E-01 a       840     0    42     1    20
  2.2796803726826667E-01 a       841     0    43     1     1
  1.4927354652279143E-01 a       842     0    43     1     2
 -3.7206574966440159E-01 a       843     0    43     1     3
  2.0248951118681296E-01 a       844     0    43     1     4
 -4.1030728231399105E-01 a       845     0    43     1     5
 -9.6773073168356594E-02 a       846     0    43     1     6
  5.9145299093916637E-01 a       847     0    43     1     7
  2.6161048575602153E-01 a       848     0    43     1     8
 -5.1288454131012857E-02 a       849     0    43     1     9
  2.1867087059836401E-01 a       850     0    43     1    10
  3.8065182128461175E-02 a       851     0    43     1    11
  1.4079426660263394E-01 a       852     0    43     1    12
 -9.3548360421929197E-02 a       853     0    43     1    13
 -2.8380214644105900E-01 a       854     0    43     1    14
 -1.1430355704613511E-01 a       855     0    43     1    15
 -8.6395858079927237E-02 a       856     0    43     1    16
 -4.5191378720026553E-03 a       857     0    43     1    17
 -2.3159931935298567E-01 a       858     0    43     1    18
 -1.3275228543775769E-01 a       859     0    43     1    19
  7.7589534879830807E-02 a       860     0    43     1    20
  3.1279268155676726E-01 a       861     0    44     1     1
 -9.8947821361316002E-01 a       862     0    44     1     2
 -2.7141451556478741E-01 a       863     0    44     1     3
  5.9157016566110465E-01 a       864     0    44     1     4
  4.0168987937438860E-01 a       865     0    44     1     5
  4.5903769847968900E-01 a       866     0    44     1     6
  3.9323864762497179E-01 a       867     0    44     1     7
 -7.9907762853739295E-02 a       868     0    44     1     8
  4.6385338745828469E-01 a       869     0    44     1     9
 -1.4425765199041959E-01 a       870     0    44     1    10
  4.2622121257696743E-01 a       871     0    44     1    11
 -5.7126382864790903E-01 a       872     0    44     1    12
  2.0044441719708117E-01 a       873     0    44     1    13
  3.4878170224236432E-01 a       874     0    44     1    14
 -1.5072615152082985E-01 a       875     0    44     1    15
  1.4360688547257103E-01 a       876     0    44     1    16
 -4.6083239178673130E-01 a       877     0    44     1    17
  1.3024430798516131E+00 a       878     0    44     1    18
  4.2829811462391376E-01 a       879     0    44     1    19
  7.8257014576231121E-01 a       880     0    44     1    20
 -8.2094198497672688E-01 a       881     0    45     1     1
 -4.1724109674646381E-01 a       882     0    45     1     2
  7.9061464838070683E-01 a       883     0    45     1     3
 -2.7099984844072722E-01 a       884     0    45     1     4
  9.8348003403486384E-01 a       885     0    45     1     5
  9.5118045791097908E-02 a       886     0    45     1     6
 -5.6502703234137008E-01 a       887     0    45     1     7
  2.0767989053106028E-01 a       888     0    45     1     8
  8.5223411349003075E-02 a       889     0    45     1     9
 -3.7507582763685050E-02 a       890     0    45     1    10
  9.0535764314395140E-01 a       891     0    45     1    11
 -9.7578794865400187E-01 a       892     0    45     1    12
 -1.0071917391399800E-01 a       893     0    45     1    13
 -5.5515422154838034E-01 a       894     0    45     1    14
  1.3966953544740318E-01 a       895     0    45     1    15
  1.3343313296331730E-01 a       896     0    45     1    16
 -6.2987450697359570E-01 a       897     0    45     1    17
 -5.2410133896368317E-02 a       898     0    45     1    18
 -1.3795572647074861E-01 a       899     0    45     1    19
 -2.6635285652461543E-01 a       900     0    45     1    20
  6.5605250676949567E-01 a       901     0    46     1     1
  4.5256236114553283E-01 a       902     0    46     1     2
 -6.2902523636826613E-01 a       903     0    46     1     3
 -2.1731769824483143E-02 a       904     0    46     1     4
 -8.4177369022725290E-01 a       905     0    46     1     5
 -3.3806192137986746E-01 a       906     0    46     1     6
  2.0001028721889627E-01 a       907     0    46     1     7
 -5.5093648961749626E-02 a       908     0    46     1     8
 -2.1952422372092117E-01 a       909     0    46     1     9
 -3.5514375330446629E-01 a       910     0    46     1    10
 -9.2951514279859676E-02 a       911     0    46     1    11
 -1.2684133608303957E-01 a       912     0    46     1    12
 -5.4386377994767776E-01 a       913     0    46     1    13
  6.9949452848836247E-01 a       914     0    46     1    14
  6.1115203106219096E-01 a       915     0    46     1    15
 -7.5018975168239910E-02 a       916     0    46     1    16
 -2.9060807042608688E-01 a       917     0    46     1    17
 -6.8250985629156669E-01 a       918     0    46     1    18
 -4.0740106783867441E-01 a       919     0    46     1    19
 -2.6016557406762764E-01 a       920     0    46     1    20
 -2.3246648684428736E-01 a       921     0    47     1     1
  2.4874164572365842E-01 a       922     0    47     1     2
 -1.3840374779825568E-01 a       923     0    47     1     3
 -1.9527894056500514E-01 a       924     0    47     1     4
 -2.3814029882958351E-01 a       925     0    47     1     5
  4.9860608413736618E-01 a       926     0    47     1     6
 -3.8450875219597480E-01 a       927     0    47     1     7
  4.4429318815050233E-03 a       928     0    47     1     8
 -1.8490024387645640E-01 a       929     0    47     1     9
 -1.0132969932563228E-02 a       930     0    47     1    10
 -4.7043378162425092E-01 a       931     0    47     1    11
  1.0318541373658665E+00 a       932     0    47     1    12
 -3.3699686738567453E-01 a       933     0    47     1    13
  7.8194233101593499E-02 a       934     0    47     1    14
  4.5291941359727311E-01 a       935     0    47     1    15
  8.7576847243916167E-01 a       936     0    47     1    16
  6.6621292377720742E-01 a       937     0    47     1    17
 -2.8370987748434284E-01 a       938     0    47     1    18
 -1.8157124221226029E-01 a       939     0    47     1    19
  2.7602239414814028E-01 a       940     0    47     1    20
 -2.4279416665840606E-01 a       941     0    48     1     1
 -3.1546298066442141E-01 a       942     0    48     1     2
  1.5592063844591786E-01 a       943     0    48     1     3
 -2.6026310828477733E-01 a       944     0    48     1     4
 -3.6579934092494110E-01 a       945     0    48     1     5
 -4.5191700960239206E-01 a       946     0    48     1     6
  3.6761771915489888E-01 a       947     0    48     1     7
  2.2965455773936227E-02 a       948     0    48     1     8
  1.0671150260228970E-01 a       949     0    48     1     9
 -1.1033468581743189E-01 a       950     0    48     1    10
  3.0090799342239381E-02 a       951     0    48     1    11
 -1.9056631610872135E-01 a       952     0    48     1    12
  6.9291597113403214E-01 a       953     0    48     1    13
 -2.4844357544802891E-02 a       954     0    48     1    14
 -1.8859978023715587E-01 a       955     0    48     1    15
 -5.1119227856096117E-01 a       956     0    48     1    16
 -3.4452021774056812E-01 a       957     0    48     1    17
 -7.3713630080670955E-01 a       958     0    48     1    18
  3.3743890195545057E-01 a       959     0    48     1    19
  2.8476401826857206E-01 a       960     0    48     1    20
 -1.4334797822285796E+00 a       961     0    49     1     1
 -5.9686598407289826E-01 a       962     0    49     1     2
  5.0666946691791559E-01 a       963     0    49     1     3
 -3.3139562243159298E-01 a       964     0    49     1     4
  6.9332816963126231E-01 a       965     0    49     1     5
 -5.2033828002160420E-01 a       966     0    49     1     6
  1.3688409302170352E-02 a       967     0    49     1     7
  9.1781645241119769E-01 a       968     0    49     1     8
  3.0623383603099463E-01 a       969     0    49     1     9
  1.0816406681465069E+00 a       970     0    49     1    10
 -2.3364711632355703E-01 a       971     0    49     1    11
  2.4242480269069908E-01 a       972     0    49     1    12
  1.3858949594126954E-01 a       973     0    49     1    13
  4.8136334399775976E-01 a       974     0    49     1    14
  5.9815560151709724E-01 a       975     0    49     1    15
 -2.2121428081695930E-02 a       976     0    49     1    16
 -8.7141429383990054E-02 a       977     0    49     1    17
  2.0792489179202400E-01 a       978     0    49     1    18
 -9.8137078609528505E-01 a       979     0    49     1    19
  2.7606245049879508E-01 a       980     0    49     1    20
  7.7256156235088880E-01 a       981     0    50     1     1
  1.0832749328900511E+00 a       982     0    50     1     2
 -6.1976937892072415E-01 a       983     0    50     1     3
  4.9105794630090244E-01 a       984     0    50     1     4
 -2.9843875916203799E-01 a       985     0    50     1     5
 -5.4412288663249109E-01 a       986     0    50     1     6
 -1.1032751973253645E-01 a       987     0    50     1     7
 -1.0474435254008732E+00 a       988     0    50     1     8
  3.1528984937331328E-01 a       989     0    50     1     9
 -7.2322517105142237E-01 a       990     0    50     1    10
  2.7233410725960816E-01 a       991     0    50     1    11
 -5.6508826300610138E-01 a       992     0    50     1    12
 -6.4785241882699007E-01 a       993     0    50     1    13
  1.7374187528501858E-01 a       994     0    50     1    14
 -1.1532257949445999E+00 a       995     0    50     1    15
 -7.1272131076988454E-01 a       996     0    50     1    16
 -6.4937129357132606E-01 a       997     0    50     1    17
  7.0502319032364624E-01 a       998     0    50     1    18
  9.4032920701716205E-01 a       999     0    50     1    19
  4.7702352428488215E-01 a      1000     0    50     1    20
  2.8365312564994249E-01 a      1001     0    51     1     1
 -1.0251878981563876E-01 a      1002     0    51     1     2
  3.1608846580710143E-01 a      1003     0    51     1     3
 -1.6686816302785047E-02 a      1004     0    51     1     4
  7.3965253281557217E-02 a      1005     0    51     1     5
 -1.6941000579935500E-01 a      1006     0    51     1     6
 -5.8020789299612296E-02 a      1007     0    51     1     7
  8.3339865066104690E-02 a      1008     0    51     1     8
  9.4441094533480374E-02 a      1009     0    51     1     9
  1.2394021723422644E-01 a      1010     0    51     1    10
  2.0315518995516171E-01 a      1011     0    51     1    11
  5.7815363512630391E-02 a      1012     0    51     1    12
  1.4686570196006646E-01 a      1013     0    51     1    13
  8.1482545841520732E-02 a      1014     0    51     1    14
 -2.0269970489438527E-01 a      1015     0    51     1    15
 -2.7351690180370009E-01 a      1016     0    51     1    16
 -2.7155894152950709E-03 a      1017     0    51     1    17
  6.9742349651227942E-02 a      1018     0    51     1    18
 -4.2845702460634233E-01 a      1019     0    51     1    19
 -2.6206624822112906E-01 a      1020     0    51     1    20
 -4.7143085246777616E-01 b      1021     1     1
  1.3946771147300252E-01 b      1022     1     2
 -4.5626712721617901E-01 b      1023     1     3
 -8.2470541474768729E-03 b      1024     1     4
 -4.6784967462160615E-01 b      1025     1     5
 -1.8911300466723102E-01 b      1026     1     6
  3.6536625921878713E-01 b      1027     1     7
  4.7458286513014902E-01 b      1028     1     8
 -3.0174255626377011E-01 b      1029     1     9
 -4.4689049840628425E-01 b      1030     1    10
  1.2557935607388337E-01 b      1031     1    11
 -3.0299861684399615E-01 b      1032     1    12
  2.0839161960757502E-01 b      1033     1    13
  1.6182915832912154E-01 b      1034     1    14
  1.1016782588054704E-01 b      1035     1    15
  3.4087752187438721E-03 b      1036     1    16
 -1.8162908784345277E-01 b      1037     1    17
 -2.6850036501703151E-01 b      1038     1    18
 -5.4415875409227121E-01 b      1039     1    19
  1.4749249408196599E-01 b      1040     1    20
 -3.3434022292038812E-01 a      1041     1     1     2     1
  4.8419474652495895E-02 a      1042     1     1     2     2
  1.2383234153003486E-01 a      1043     1     1     2     3
 -2.7258940717701768E-01 a      1044     1     1     2     4
 -5.9377228467701659E-01 a      1045     1     1     2     5
 -1.3493043800215510E-01 a      1046     1     1     2     6
  2.9020903919099578E-01 a      1047     1     1     2     7
  5.0617322952799038E-01 a      1048     1     1     2     8
  3.6328117432934187E-01 a      1049     1     1     2     9
  5.9665313885881521E-01 a      1050     1     1     2    10
  1.5190854407749993E-01 a      1051     1     1     2    11
  4.8625299723467175E-01 a      1052     1     1     2    12
  5.7814448271226893E-01 a      1053     1     1     2    13
  8.4272504723673758E-01 a      1054     1     1     2    14
  4.6253935079467906E-01 a      1055     1     1     2    15
  5.6551606343127753E-02 a      1056     1     1     2    16
  2.4164379815316134E-01 a      1057     1     1     2    17
  1.7540114705944682E-01 a      1058     1     1     2    18
 -8.7112018146855796E-01 a      1059     1     1     2    19
 -5.5920570331025488E-01 a      1060     1     1     2    20
 -1.5743696360777845E-01 a      1061     1     2     2     1
 -3.1056125603812978E-01 a      1062     1     2     2     2
 -4.1527433502640965E-01 a      1063     1     2     2     3
  7.7730249069214684E-03 a      1064     1     2     2     4
  5.9862251130901538E-02 a      1065     1     2     2     5
  3.5279583225723471E-01 a      1066     1     2     2     6
  1.8345483688741393E-01 a      1067     1     2     2     7
  4.2492637378667003E-01 a      1068     1     2     2     8
  5.3876833342543687E-02 a      1069     1     2     2     9
  1.1330438258434922E-01 a      1070     1     2     2    10
  7.7836510384894694E-03 a      1071     1     2     2    11
  3.8118962470396794E-01 a      1072     1     2     2    12
  2.1471371764230751E-01 a      1073     1     2     2    13
  1.1306444704322721E-01 a      1074     1     2     2    14
 -1.6345122705473843E-02 a      1075     1     2     2    15
 -3.2309961743278948E-01 a      1076     1     2     2    16
  5.0698315504157665E-01 a      1077     1     2     2    17
  1.3435085539777489E-01 a      1078     1     2     2    18
  2.2529788741612997E-01 a      1079     1     2     2    19
 -2.5112034274435263E-01 a      1080     1     2     2    20
 -5.0238611128329802E-01 a      1081     1     3     2     1
  2.0799421652425462E-01 a      1082     1     3     2     2
 -2.6776652312269072E-01 a      1083     1     3     2     3
 -4.2560128363253991E-01 a      1084     1     3     2     4
  1.5022134420874070E-01 a      1085     1     3     2     5
 -4.5709546750500089E-02 a      1086     1     3     2     6
 -3.2469957695410767E-01 a      1087     1     3     2     7
  6.6783014268360474E-02 a      1088     1     3     2     8
 -1.4216388821805759E-01 a      1089     1     3     2     9
  2.1218126100645263E-01 a      1090     1     3     2    10
  2.8663804137735456E-02 a      1091     1     3     2    11
 -1.7875110750324055E-01 a      1092     1     3     2    12
  8.1532888823521432E-01 a      1093     1     3     2    13
 -6.1441146720154893E-01 a      1094     1     3     2    14
 -3.2420415817424547E-01 a      1095     1     3     2    15
  4.8290385246443124E-01 a      1096     1     3     2    16
  1.9016236464874558E-02 a      1097     1     3     2    17
 -1.7452599024316681E-01 a      1098     1     3     2    18
  5.3175874674678436E-01 a      1099     1     3     2    19
  1.0740691159593349E-01 a      1100     1     3     2    20
 -1.4831697747673648E-02 a      1101     1     4     2     1
 -2.6779651945546767E-02 a      1102     1     4     2     2
 -4.2584468721210589E-01 a      1103     1     4     2     3
 -1.8096382707368705E-01 a      1104     1     4     2     4
 -2.5504640173998522E-01 a      1105     1     4     2     5
  7.6284525768458300E-01 a      1106     1     4     2     6
 -4.8996561079534523E-01 a      1107     1     4     2     7
 -1.8278549335488631E-01 a      1108     1     4     2     8
  2.7056861722902342E-01 a      1109     1     4     2     9
 -3.2788424168363950E-01 a      1110     1     4     2    10
 -1.5433104057095987E-01 a      1111     1     4     2    11
  3.5171858861134642E-01 a      1112     1     4     2    12
  2.5172753313325957E-01 a      1113     1     4     2    13
  9.4856089944061403E-02 a      1114     1     4     2    14
 -4.4441419649969360E-01 a      1115     1     4     2    15
 -2.4264309469472184E-01 a      1116     1     4     2    16
  1.3658222052272337E-01 a      1117     1     4     2    17
 -3.6616775725990848E-02 a      1118     1     4     2    18
 -3.9472407390327063E-01 a      1119     1     4     2    19
 -3.2139714319107317E-02 a      1120     1     4     2    20
 -2.3874742968751357E-03 a      1121     1     5     2     1
 -8.1055882094263776E-01 a      1122     1     5     2     2
  4.0797553754092192E-02 a      1123     1     5     2     3
 -2.0049218857755466E-01 a      1124     1     5     2     4
 -1.9387680153175774E-01 a      1125     1     5     2     5
  8.9010346115191796E-01 a      1126     1     5     2     6
 -4.7268112116922989E-01 a      1127     1     5     2     7
 -9.9690626988062317E-02 a      1128     1     5     2     8
 -3.6452106438917015E-01 a      1129     1     5     2     9
  7.5143351747435277E-02 a      1130     1     5     2    10
  1.8020291614867728E-01 a      1131     1     5     2    11
 -4.1381954691136336E-01 a      1132     1     5     2    12
  4.4516402696572943E-01 a      1133     1     5     2    13
 -8.5693136729168373E-01 a      1134     1     5     2    14
 -2.1923130998838483E-01 a      1135     1     5     2    15
  5.8612850620849555E-01 a      1136     1     5     2    16
  2.2858650254447016E-01 a      1137     1     5     2    17
  7.3507637989900870E-02 a      1138     1     5     2    18
  7.4742755177412290E-01 a      1139     1     5     2    19
 -1.9634049377514948E-01 a      1140     1     5     2    20
 -1.1195303184555555E-01 a      1141     1     6     2     1
 -4.7667391062804640E-02 a      1142     1     6     2     2
 -3.5290037818368264E-01 a      1143     1     6     2     3
  3.2357865784402484E-01 a      1144     1     6     2     4
 -3.5376784219784996E-01 a      1145     1     6     2     5
 -2.6009411342115413E-01 a      1146     1     6     2     6
  5.0016932061559061E-01 a      1147     1     6     2     7
 -1.6836560164064998E-01 a      1148     1     6     2     8
  5.8526366026048965E-02 a      1149     1     6     2     9
 -6.1034151158652616E-01 a      1150     1     6     2    10
  5.9388631111340906E-01 a      1151     1     6     2    11
 -1.0697875284334600E-01 a      1152     1     6     2    12
 -2.9643285478900050E-01 a      1153     1     6     2    13
  1.5123309910611926E-02 a      1154     1     6     2    14
  2.7863323134536711E-01 a      1155     1     6     2    15
 -2.4046831297336224E-01 a      1156     1     6     2    16
 -2.0180407602956568E-01 a      1157     1     6     2    17
 -1.0555956112693273E-02 a      1158     1     6     2    18
  1.6063199521242497E-01 a      1159     1     6     2    19
  4.3518031628085846E-01 a      1160     1     6     2    20
 -3.6205452251800402E-01 a      1161     1     7     2     1
 -3.4987137037849841E-01 a      1162     1     7     2     2
 -1.1493838215525908E-01 a      1163     1     7     2     3
  2.3765053105354653E-01 a      1164     1     7     2     4
 -4.0894406086486679E-01 a      1165     1     7     2     5
  2.6903827060662561E-01 a      1166     1     7     2     6
 -1.1358470355154865E-02 a      1167     1     7     2     7
 -2.5336406680726015E-01 a      1168     1     7     2     8
 -5.8063337543074071E-02 a      1169     1     7     2     9
  4.4262180242711094E-03 a      1170     1     7     2    10
  6.2892951730666535E-01 a      1171     1     7     2    11
 -1.0274714280629276E+00 a      1172     1     7     2    12
  5.9686311137358283E-01 a      1173     1     7     2    13
 -4.8095436527733965E-01 a      1174     1     7     2    14
  2.4138106816600530E-01 a      1175     1     7     2    15
  2.8182906710753347E-01 a      1176     1     7     2    16
  9.7317236360919032E-02 a      1177     1     7     2    17
 -2.5948141449968276E-01 a      1178     1     7     2    18
  4.8173542432890815E-01 a      1179     1     7     2    19
  5.9575884543264024E-01 a      1180     1     7     2    20
 -6.7709482120160314E-01 a      1181     1     8     2     1
 -1.5593666249935936E-01 a      1182     1     8     2     2
  2.2433109206545254E-01 a      1183     1     8     2     3
 -6.5384338364775085E-01 a      1184     1     8     2     4
 -1.4912968881566332E-01 a      1185     1     8     2     5
  5.1598313128622109E-01 a      1186     1     8     2     6
  6.4155562439450209E-01 a      1187     1     8     2     7
  3.3745484388051888E-01 a      1188     1     8     2     8
 -2.0374860138325072E-02 a      1189     1     8     2     9
  1.8122807164097371E-01 a      1190     1     8     2    10
 -5.1962181936623009E-01 a      1191     1     8     2    11
  4.1581033132036488E-01 a      1192     1     8     2    12
 -5.2450238055614468E-02 a      1193     1     8     2    13
 -4.0062411607623855E-01 a      1194     1     8     2    14
 -5.7048017490458547E-01 a      1195     1     8     2    15
 -6.7993160912816941E-01 a      1196     1     8     2    16
 -7.9335973111589475E-01 a      1197     1     8     2    17
 -3.7771329290417466E-01 a      1198     1     8     2    18
 -3.7414822945197906E-01 a      1199     1     8     2    19
 -1.7740228061867119E-01 a      1200     1     8     2    20
 -7.4446245869798289E-01 a      1201     1     9     2     1
  7.7735608365739020E-02 a      1202     1     9     2     2
  4.5263350027362703E-01 a      1203     1     9     2     3
 -3.3879455693064048E-01 a      1204     1     9     2     4
 -1.0920028425775115E-01 a      1205     1     9     2     5
 -3.6909147941445196E-02 a      1206     1     9     2     6
 -3.4582693944716236E-01 a      1207     1     9     2     7
 -2.2047085258006871E-01 a      1208     1     9     2     8
  2.3428754374319512E-02 a      1209     1     9     2     9
 -5.2445908137487141E-01 a      1210     1     9     2    10
 -1.1480229072022038E-01 a      1211     1     9     2    11
  5.4149013965920624E-02 a      1212     1     9     2    12
  2.5998231181017933E-01 a      1213     1     9     2    13
  2.8607925163925335E-01 a      1214     1     9     2    14
 -4.5065875332206691E-02 a      1215     1     9     2    15
  7.5951242934614291E-02 a      1216     1     9     2    16
 -2.8222086153138082E-01 a      1217     1     9     2    17
 -9.4433459325890742E-02 a      1218     1     9     2    18
  3.0463462894720689E-01 a      1219     1     9     2    19
  6.7930475918174049E-01 a      1220     1     9     2    20
 -5.8292129315958363E-01 a      1221     1    10     2     1
  5.4569906651882760E-01 a      1222     1    10     2     2
  3.5275464333679535E-02 a      1223     1    10     2     3
 -4.2102025738859772E-01 a      1224     1    10     2     4
  5.0488608343841890E-01 a      1225     1    10     2     5
  1.5470320422765005E-01 a      1226     1    10     2     6
 -6.0124452939272577E-01 a      1227     1    10     2     7
 -8.6059007171692969E-01 a      1228     1    10     2     8
 -1.2411056868112456E-01 a      1229     1    10     2     9
 -7.8733127691303483E-03 a      1230     1    10     2    10
  4.3571127556831069E-01 a      1231     1    10     2    11
  1.0448264350853492E-01 a      1232     1    10     2    12
 -4.3399737293403168E-01 a      1233     1    10     2    13
 -2.6707390866299457E-01 a      1234     1    10     2    14
 -1.5958939474312892E-01 a      1235     1    10     2    15
 -4.0949721298147485E-01 a      1236     1    10     2    16
 -2.2041211920901305E-01 a      1237     1    10     2    17
 -2.7542422766969715E-01 a      1238     1    10     2    18
  7.7445577482065842E-01 a      1239     1    10     2    19
  4.2817674228826708E-01 a      1240     1    10     2    20
 -4.9355320872420111E-01 a      1241     1    11     2     1
  6.5391502451429884E-02 a      1242     1    11     2     2
  4.9223229719152550E-01 a      1243     1    11     2     3
  3.7026974327148082E-01 a      1244     1    11     2     4
 -4.0323172755617503E-01 a      1245     1    11     2     5
 -3.2047811435992951E-01 a      1246     1    11     2     6
 -3.5202257878266009E-02 a      1247     1    11     2     7
  2.1715373538094188E-01 a      1248     1    11     2     8
  1.3994722331269653E-02 a      1249     1    11     2     9
 -3.4729475578327862E-01 a      1250     1    11     2    10
 -2.8528406864560435E-01 a      1251     1    11     2    11
 -4.1227410009629961E-01 a      1252     1    11     2    12
 -3.1509497529668273E-01 a      1253     1    11     2    13
 -3.5351280015358019E-02 a      1254     1    11     2    14
  4.2128056803931252E-01 a      1255     1    11     2    15
  5.5190597773245489E-02 a      1256     1    11     2    16
  3.5723857196426700E-01 a      1257     1    11     2    17
  6.4695304889107560E-02 a      1258     1    11     2    18
  4.8590615631588802E-01 a      1259     1    11     2    19
  5.5942042751307564E-01 a      1260     1    11     2    20
  2.5754875034845670E-01 a      1261     1    12     2     1
  4.1008684034372495E-01 a      1262     1    12     2     2
 -4.5160534283946846E-01 a      1263     1    12     2     3
 -2.8191071618351876E-01 a      1264     1    12     2     4
  6.4158264237358653E-01 a      1265     1    12     2     5
 -6.9851669300248853E-01 a      1266     1    12     2     6
  2.0204602468773736E-01 a      1267     1    12     2     7
  6.2176352759594572E-02 a      1268     1    12     2     8
  4.0990914591948924E-02 a      1269     1    12     2     9
  8.0126571817468989E-02 a      1270     1    12     2    10
  1.7634685069657999E-02 a      1271     1    12     2    11
 -1.9081688146109485E-02 a      1272     1    12     2    12
 -1.3745017411761568E-01 a      1273     1    12     2    13
 -4.7370859523513981E-01 a      1274     1    12     2    14
 -1.9893220480600263E-01 a      1275     1    12     2    15
  4.0988880280896023E-01 a      1276     1    12     2    16
  1.9670297811251847E-01 a      1277     1    12     2    17
  2.4038564678590507E-01 a      1278     1    12     2    18
 -6.8281604294976594E-02 a      1279     1    12     2    19
 -4.5130208361051283E-01 a      1280     1    12     2    20
 -1.1916749103314368E-01 a      1281     1    13     2     1
  1.2316410326755572E-01 a      1282     1    13     2     2
 -3.3296027822566904E-01 a      1283     1    13     2     3
 -2.6362337586122997E-02 a      1284     1    13     2     4
  5.8736779381965481E-03 a      1285     1    13     2     5
 -2.7895749263586456E-01 a      1286     1    13     2     6
  3.0045902101955879E-01 a      1287     1    13     2     7
 -2.7127032115789035E-01 a      1288     1    13     2     8
  5.2258524763802564E-02 a      1289     1    13     2     9
  1.6427653061465544E-01 a      1290     1    13     2    10
  5.4224914817475378E-01 a      1291     1    13     2    11
  8.0198161355659797E-02 a      1292     1    13     2    12
 -2.8909236463636273E-01 a      1293     1    13     2    13
  8.1996402966210885E-02 a      1294     1    13     2    14
  1.1046896889540041E-01 a      1295     1    13     2    15
 -2.7591862378444015E-01 a      1296     1    13     2    16
 -2.3063518725810897E-01 a      1297     1    13     2    17
  7.0427054468588754E-02 a      1298     1    13     2    18
  3.4274023009515919E-01 a      1299     1    13     2    19
  2.5860723461131574E-01 a      1300     1    13     2    20
  3.8296281242116981E-01 a      1301     1    14     2     1
 -2.2509044678277626E-01 a      1302     1    14     2     2
 -9.6495026775482773E-02 a      1303     1    14     2     3
 -1.9901107945723340E-01 a      1304     1    14     2     4
  6.2829488121801147E-01 a      1305     1    14     2     5
  2.3950328345723118E-01 a      1306     1    14     2     6
 -7.4067729095548471E-03 a      1307     1    14     2     7
  1.5150136884716392E-01 a      1308     1    14     2     8
  2.7276877582325776E-01 a      1309     1    14     2     9
 -5.4052272855099677E-02 a      1310     1    14     2    10
 -1.8869511602624167E-01 a      1311     1    14     2    11
 -1.2021383755173186E-01 a      1312     1    14     2    12
 -2.0002368559180153E-01 a      1313     1    14     2    13
  5.6707772206626672E-01 a      1314     1    14     2    14
  8.1040357608392649E-02 a      1315     1    14     2    15
 -1.0372806851573720E-01 a      1316     1    14     2    16
 -2.2269064047592949E-03 a      1317     1    14     2    17
 -2.0848240448006169E-01 a      1318     1    14     2    18
 -4.6483412753928821E-01 a      1319     1    14     2    19
  5.8897002895796115E-02 a      1320     1    14     2    20
 -1.0777285791092975E-01 a      1321     1    15     2     1
  6.7325456496510061E-02 a      1322     1    15     2     2
 -1.9828783466589295E-01 a      1323     1    15     2     3
  1.6116245549913655E-01 a      1324     1    15     2     4
  2.0030081487818496E-01 a      1325     1    15     2     5
 -5.4780095466678436E-01 a      1326     1    15     2     6
  2.2793899602810272E-01 a      1327     1    15     2     7
 -1.6042740415487644E-01 a      1328     1    15     2     8
 -4.8634060024277270E-01 a      1329     1    15     2     9
  7.6312363358024626E-01 a      1330     1    15     2    10
  5.8289163143806566E-01 a      1331     1    15     2    11
 -6.3378513493532965E-03 a      1332     1    15     2    12
 -5.0632061763171365E-01 a      1333     1    15     2    13
  4.1643527558474053E-01 a      1334     1    15     2    14
  1.9051155969209715E-01 a      1335     1    15     2    15
  1.9795589984473028E-01 a      1336     1    15     2    16
 -2.7902117826377293E-01 a      1337     1    15     2    17
 -2.5697170845419781E-01 a      1338     1    15     2    18
 -1.2894655914441945E-02 a      1339     1    15     2    19
  6.0516864985380514E-01 a      1340     1    15     2    20
  1.5332823175066113E-01 a      1341     1    16     2     1
  4.0136923868076130E-02 a      1342     1    16     2     2
 -1.9388608061690429E-01 a      1343     1    16     2     3
 -4.8734073950766205E-02 a      1344     1    16     2     4
  1.1667426728047718E-01 a      1345     1    16     2     5
 -1.8726949268667309E-01 a      1346     1    16     2     6
 -2.3527616231133952E-01 a      1347     1    16     2     7
  1.4557885850873076E-01 a      1348     1    16     2     8
  3.4063202485035099E-01 a      1349     1    16     2     9
 -4.4031756886088830E-01 a      1350     1    16     2    10
 -6.0987104213623777E-01 a      1351     1    16     2    11
  9.7579522053461099E-01 a      1352     1    16     2    12
 -2.7227294850197070E-01 a      1353     1    16     2    13
 -6.4089870580251618E-01 a      1354     1    16     2    14
 -4.1979220957887009E-01 a      1355     1    16     2    15
  2.1719494768480885E-01 a      1356     1    16     2    16
  3.0894974385761048E-01 a      1357     1    16     2    17
 -2.1130872913660340E-02 a      1358     1    16     2    18
  2.3751590838744707E-01 a      1359     1    16     2    19
  1.5857974962510019E-01 a      1360     1    16     2    20
  4.5962810960328539E-02 a      1361     1    17     2     1
 -2.5694208003357427E-01 a      1362     1    17     2     2
  6.2020550705814104E-01 a      1363     1    17     2     3
 -2.1243843685951602E-01 a      1364     1    17     2     4
  3.1911507326567667E-01 a      1365     1    17     2     5
 -5.1455340836045838E-01 a      1366     1    17     2     6
  6.3624601573412665E-01 a      1367     1    17     2     7
  2.3668393486929409E-01 a      1368     1    17     2     8
  8.1655787496326140E-02 a      1369     1    17     2     9
  2.5005162500888317E-01 a      1370     1    17     2    10
 -3.0498483556407874E-01 a      1371     1    17     2    11
 -3.2932660424649202E-01 a      1372     1    17     2    12
 -1.2496662668175730E-01 a      1373     1    17     2    13
 -2.3387063519784509E-01 a      1374     1    17     2    14
  1.6313476112591294E-01 a      1375     1    17     2    15
  1.0271227878135096E+00 a      1376     1    17     2    16
 -3.2308629458509325E-01 a      1377     1    17     2    17
 -2.5239562589768755E-01 a      1378     1    17     2    18
  5.6197025262193334E-01 a      1379     1    17     2    19
  1.0751936673962852E-01 a      1380     1    17     2    20
 -1.3033598623633214E-01 a      1381     1    18     2     1
 -3.3158911267291459E-02 a      1382     1    18     2     2
  9.9305610774794925E-02 a      1383     1    18     2     3
  1.8952532693819854E-01 a      1384     1    18     2     4
 -3.1333530475813348E-01 a      1385     1    18     2     5
 -9.0349473819524240E-02 a      1386     1    18     2     6
  6.4297938714301284E-02 a      1387     1    18     2     7
  1.4385777981263728E-01 a      1388     1    18     2     8
 -3.4631749506274623E-01 a      1389     1    18     2     9
 -8.5826404059914119E-01 a      1390     1    18     2    10
  1.8217901093546382E-01 a      1391     1    18     2    11
 -3.5691141531595710E-01 a      1392     1    18     2    12
  2.6891964118052482E-02 a      1393     1    18     2    13
  3.9275827079599440E-01 a      1394     1    18     2    14
  2.3557035653782096E-01 a      1395     1    18     2    15
  2.8933470583246385E-01 a      1396     1    18     2    16
  9.7175594452661745E-02 a      1397     1    18     2    17
  6.2329672478739795E-01 a      1398     1    18     2    18
 -9.0633434596351514E-01 a      1399     1    18     2    19
 -1.2747095526175667E-01 a      1400     1    18     2    20
 -3.5128654439211848E-01 a      1401     1    19     2     1
 -2.7478897529318402E-01 a      1402     1    19     2     2
  9.3356012440942548E-02 a      1403     1    19     2     3
  6.6636063784752630E-01 a      1404     1    19     2     4
 -4.3908603441732436E-01 a      1405     1    19     2     5
  2.0449319736770635E-01 a      1406     1    19     2     6
 -5.8566821440106089E-02 a      1407     1    19     2     7
  2.9237912536690634E-02 a      1408     1    19     2     8
  4.6837029743158504E-01 a      1409     1    19     2     9
  2.6498662933663164E-01 a      1410     1    19     2    10
 -2.8518237998492890E-01 a      1411     1    19     2    11
  5.0619591760237870E-01 a      1412     1    19     2    12
  2.6209328194344833E-01 a      1413     1    19     2    13
 -1.0205974366268321E-01 a      1414     1    19     2    14
  2.4807716015606873E-01 a      1415     1    19     2    15
  2.4823213288944507E-01 a      1416     1    19     2    16
  2.8952859353781141E-01 a      1417     1    19     2    17
  3.2046246342644247E-01 a      1418     1    19     2    18
 -1.1862965235460490E+00 a      1419     1    19     2    19
 -3.5176016095435758E-01 a      1420     1    19     2    20
 -4.9954687774799567E-01 a      1421     1    20     2     1
  1.3056195732558004E-01 a      1422     1    20     2     2
  3.4430854395883759E-01 a      1423     1    20     2     3
  4.9778450717380129E-02 a      1424     1    20     2     4
  3.6491229014796295E-01 a      1425     1    20     2     5
 -2.6198304771379083E-01 a      1426     1    20     2     6
  2.3648179510505701E-01 a      1427     1    20     2     7
  3.3896646372852995E-01 a      1428     1    20     2     8
  1.3221587893038905E-01 a      1429     1    20     2     9
 -2.9210812361065602E-01 a      1430     1    20     2    10
 -4.7102230932096228E-01 a      1431     1    20     2    11
 -9.5099726756563849E-02 a      1432     1    20     2    12
 -2.3238689461087036E-01 a      1433     1    20     2    13
  4.6372329833934789E-01 a      1434     1    20     2    14
  1.8978816527879433E-01 a      1435     1    20     2    15
 -2.8243574438752646E-02 a      1436     1    20     2    16
 -9.4489890444384939E-02 a      1437     1    20     2    17
  3.5153227968553236E-01 a      1438     1    20     2    18
 -2.5072531382453561E-01 a      1439     1    20     2    19
  2.3468081890164386E-01 a      1440     1    20     2    20
 -5.4055713059656041E-01 b      1441     2     1
  5.3555709337347623E-01 b      1442     2     2
 -6.2669983397104190E-01 b      1443     2     3
  2.6920066675396315E-01 b      1444     2     4
 -7.0683699017372592E-01 b      1445     2     5
  5.7139874872069607E-01 b      1446     2     6
  2.8534838529763074E-01 b      1447     2     7
  5.2022491531882453E-01 b      1448     2     8
 -8.8686897360380790E-01 b      1449     2     9
  1.3023865838329635E-01 b      1450     2    10
 -4.2105441055498150E-01 b      1451     2    11
  1.4633778063910091E-01 b      1452     2    12
 -3.9676911367870521E-01 b      1453     2    13
  9.3927769967992281E-01 b      1454     2    14
 -4.8528037200212443E-01 b      1455     2    15
  1.4098588484988735E-02 b      1456     2    16
  1.0898178304432335E-02 b      1457     2    17
 -4.9675977279510525E-03 b      1458     2    18
 -4.9958414427652420E-01 b      1459     2    19
  4.0062603105312400E-01 b      1460     2    20
 -6.2308488072317036E-01 a      1461     2     1     3     1
 -9.1576054611475877E-01 a      1462     2     2     3     1
  6.1355496788398212E-01 a      1463     2     3     3     1
 -1.5015608739549618E-01 a      1464     2     4     3     1
  9.9700420522632038E-01 a      1465     2     5     3     1
 -9.6891619852392841E-01 a      1466     2     6     3     1
 -7.9905880271953633E-01 a      1467     2     7     3     1
 -1.0573825773963716E+00 a      1468     2     8     3     1
  9.9441786876485949E-01 a      1469     2     9     3     1
  4.2216500382134287E-02 a      1470     2    10     3     1
  6.1380949821416386E-01 a      1471     2    11     3     1
  5.2808982884612110E-01 a      1472     2    12     3     1
  8.6706030746730767E-01 a      1473     2    13     3     1
 -1.0795332640892510E+00 a      1474     2    14     3     1
  1.0706863662994675E+00 a      1475     2    15     3     1
 -4.1516865245514828E-01 a      1476     2    16     3     1
  1.8320064433515071E-01 a      1477     2    17     3     1
 -2.4760925662813311E-02 a      1478     2    18     3     1
 -1.7457918961606986E-01 a      1479     2    19     3     1
 -6.7754057634139109E-01 a      1480     2    20     3     1
 -6.0665166906705692E-01 b      1481     3     1
