################################################################################
# Neural network connection values (weights and biases).
################################################################################
# Col  Name       Description
################################################################################
# 1    connection Neural network connection value.
# 2    t          Connection type (a = weight, b = bias).
# 3    index      Index enumerating weights.
# 4    l_s        Starting point layer (end point layer for biases).
# 5    n_s        Starting point neuron in starting layer (end point neuron for biases).
# 6    l_e        End point layer.
# 7    n_e        End point neuron in end layer.
################################################################################
#                      1 2         3     4     5     6     7
#             connection t     index   l_s   n_s   l_e   n_e
############################################################
 -2.2548787696349887E-01 a         1     0     1     1     1
 -5.6913682805749677E-01 a         2     0     1     1     2
  4.1852029250266526E-01 a         3     0     1     1     3
  5.0380173345270084E-02 a         4     0     1     1     4
 -9.7126543701984119E-02 a         5     0     1     1     5
  2.4598981923246391E-05 a         6     0     1     1     6
  2.2901255660027091E-02 a         7     0     1     1     7
 -2.4205579403306807E-01 a         8     0     1     1     8
 -4.8358576681513263E-02 a         9     0     1     1     9
  5.6640108992806470E-02 a        10     0     1     1    10
 -2.8583587193561140E-02 a        11     0     1     1    11
 -2.3689187577297577E-01 a        12     0     1     1    12
  1.9619015717984398E-01 a        13     0     1     1    13
 -3.6518807414256865E-02 a        14     0     1     1    14
  1.0751526108471852E-01 a        15     0     1     1    15
 -4.8314610071228198E-02 a        16     0     1     1    16
  2.5241666692655718E-01 a        17     0     1     1    17
 -6.9948326148426984E-02 a        18     0     1     1    18
 -2.6909491210478070E-01 a        19     0     1     1    19
 -2.3005129932717031E-01 a        20     0     1     1    20
  3.0635835397158268E-02 a        21     0     2     1     1
 -4.3075442152173552E-03 a        22     0     2     1     2
  1.7736505624856111E-01 a        23     0     2     1     3
  2.0304778641018204E-01 a        24     0     2     1     4
  1.5614879283634014E-01 a        25     0     2     1     5
  5.0836562145219762E-02 a        26     0     2     1     6
  3.7105043562212597E-01 a        27     0     2     1     7
  3.2682280717383416E-01 a        28     0     2     1     8
 -7.3243691858721927E-02 a        29     0     2     1     9
 -7.5264488122087109E-02 a        30     0     2     1    10
  7.9766959685694486E-02 a        31     0     2     1    11
 -2.5380487951764530E-01 a        32     0     2     1    12
  4.0432162430692875E-01 a        33     0     2     1    13
 -3.5380066738471605E-02 a        34     0     2     1    14
 -2.2191780848854500E-01 a        35     0     2     1    15
  3.6334226639645174E-02 a        36     0     2     1    16
  1.2540260381741081E-01 a        37     0     2     1    17
  2.7041762417529674E-01 a        38     0     2     1    18
 -1.6606856728371017E-01 a        39     0     2     1    19
 -1.3082647255338850E-01 a        40     0     2     1    20
  9.9343347945850605E-02 a        41     0     3     1     1
 -5.7400444155333963E-02 a        42     0     3     1     2
  3.1660865775957531E-01 a        43     0     3     1     3
  9.5364141333093483E-02 a        44     0     3     1     4
  2.4913141829504859E-01 a        45     0     3     1     5
  4.2925276777612776E-03 a        46     0     3     1     6
 -7.2160710754183913E-02 a        47     0     3     1     7
 -1.9727250614708899E-01 a        48     0     3     1     8
 -2.8939702725608907E-01 a        49     0     3     1     9
 -4.9592392049515800E-02 a        50     0     3     1    10
  9.5861541889995280E-02 a        51     0     3     1    11
 -1.7007847784734886E-01 a        52     0     3     1    12
  3.9803342949048257E-03 a        53     0     3     1    13
 -2.0508970450515505E-02 a        54     0     3     1    14
  2.1951120418170061E-01 a        55     0     3     1    15
 -7.2454367540799106E-02 a        56     0     3     1    16
  1.1643499055465589E-01 a        57     0     3     1    17
 -1.2535524992337921E-02 a        58     0     3     1    18
 -3.2135922788015014E-01 a        59     0     3     1    19
  1.2985781463951218E-02 a        60     0     3     1    20
  1.9266260749498137E-02 a        61     0     4     1     1
  4.6759055663107514E-02 a        62     0     4     1     2
 -2.0740517875195696E-01 a        63     0     4     1     3
  1.5552003624166755E-01 a        64     0     4     1     4
  1.6858861198755626E-01 a        65     0     4     1     5
  1.5015888915064077E-01 a        66     0     4     1     6
 -2.3057291533811033E-01 a        67     0     4     1     7
 -1.6025424139038072E-01 a        68     0     4     1     8
 -4.9355658445156089E-02 a        69     0     4     1     9
  1.4473769702184330E-01 a        70     0     4     1    10
 -3.4260656666645634E-01 a        71     0     4     1    11
  2.4514508815805267E-01 a        72     0     4     1    12
 -2.8827032355770382E-01 a        73     0     4     1    13
  1.7639567831123767E-01 a        74     0     4     1    14
  3.6156618705938431E-01 a        75     0     4     1    15
 -2.0830983921621266E-01 a        76     0     4     1    16
 -3.6332700752360177E-02 a        77     0     4     1    17
 -1.8808713618180914E-01 a        78     0     4     1    18
 -7.2652134522576892E-02 a        79     0     4     1    19
 -2.6037982813933680E-01 a        80     0     4     1    20
  2.1961705369601436E-01 a        81     0     5     1     1
 -6.8503585147343324E-02 a        82     0     5     1     2
  1.8641939358519172E-01 a        83     0     5     1     3
 -4.8801462612124541E-01 a        84     0     5     1     4
 -4.3959555433178504E-02 a        85     0     5     1     5
  7.4289605638613240E-02 a        86     0     5     1     6
 -5.0083896835423569E-01 a        87     0     5     1     7
 -3.1754416832453010E-02 a        88     0     5     1     8
  3.5121473834161851E-02 a        89     0     5     1     9
  2.4110058995476968E-01 a        90     0     5     1    10
 -1.6881798060552872E-01 a        91     0     5     1    11
  1.2652688312810492E-01 a        92     0     5     1    12
  1.4294375565000916E-01 a        93     0     5     1    13
 -7.8444425411390503E-02 a        94     0     5     1    14
  2.4754314862371601E-01 a        95     0     5     1    15
 -1.3562079852618480E-02 a        96     0     5     1    16
 -1.2783439532319915E-01 a        97     0     5     1    17
  1.4236185699888473E-01 a        98     0     5     1    18
 -8.9992804879010877E-03 a        99     0     5     1    19
  1.4033508734188752E-01 a       100     0     5     1    20
  2.3071334839090213E-01 a       101     0     6     1     1
  2.0170706815724782E-01 a       102     0     6     1     2
 -3.8784264716514311E-01 a       103     0     6     1     3
  3.0047915241299150E-01 a       104     0     6     1     4
  2.7685396478513336E-01 a       105     0     6     1     5
  2.7048230505026711E-02 a       106     0     6     1     6
  1.6634110550263981E-01 a       107     0     6     1     7
  1.9732887235551255E-01 a       108     0     6     1     8
  8.8663135113551436E-02 a       109     0     6     1     9
  2.7283143813140159E-01 a       110     0     6     1    10
 -5.8882770292121064E-02 a       111     0     6     1    11
  3.7934886034026460E-01 a       112     0     6     1    12
 -3.5501528920513992E-01 a       113     0     6     1    13
 -2.8368643183864944E-01 a       114     0     6     1    14
 -9.0569576604841315E-02 a       115     0     6     1    15
 -7.0350526540161731E-02 a       116     0     6     1    16
  2.1805226532465979E-01 a       117     0     6     1    17
  2.1656731604295118E-01 a       118     0     6     1    18
  2.3669171852194745E-01 a       119     0     6     1    19
  1.4824423829921965E-01 a       120     0     6     1    20
  8.9624435571407743E-02 a       121     0     7     1     1
  4.1692495065128336E-02 a       122     0     7     1     2
 -3.8750342868077731E-01 a       123     0     7     1     3
  5.1752440116902255E-02 a       124     0     7     1     4
 -2.6241865478843429E-01 a       125     0     7     1     5
 -2.2778247332574683E-01 a       126     0     7     1     6
 -1.6067476176170431E-01 a       127     0     7     1     7
  2.5561727218326058E-01 a       128     0     7     1     8
  1.9406654023849723E-01 a       129     0     7     1     9
  7.7150887745406127E-02 a       130     0     7     1    10
 -2.0562012584951483E-01 a       131     0     7     1    11
 -2.3073150045440632E-01 a       132     0     7     1    12
 -7.3280994128718480E-01 a       133     0     7     1    13
  2.2372865908315168E-01 a       134     0     7     1    14
 -3.5802728697718922E-01 a       135     0     7     1    15
 -2.2170338829890029E-01 a       136     0     7     1    16
 -8.2030426567638048E-01 a       137     0     7     1    17
 -1.4908877457915531E-01 a       138     0     7     1    18
  3.5890866098593766E-01 a       139     0     7     1    19
 -1.6910824230561930E-01 a       140     0     7     1    20
 -2.7620762485652378E-01 a       141     0     8     1     1
  3.5331985237015906E-01 a       142     0     8     1     2
  1.3003989455991122E-01 a       143     0     8     1     3
  2.9857000459302799E-02 a       144     0     8     1     4
 -5.2672894845226625E-01 a       145     0     8     1     5
 -2.2164820454619144E-01 a       146     0     8     1     6
  2.1981381614600251E-01 a       147     0     8     1     7
  7.0694647954666165E-02 a       148     0     8     1     8
 -1.1010882685132642E-01 a       149     0     8     1     9
 -5.6563729295008147E-01 a       150     0     8     1    10
  5.8177702546407939E-01 a       151     0     8     1    11
 -2.6540222051612589E-01 a       152     0     8     1    12
  1.7951293577300770E-01 a       153     0     8     1    13
  1.6161476563072649E-01 a       154     0     8     1    14
 -2.6586405396791185E-01 a       155     0     8     1    15
 -4.5946624723801505E-01 a       156     0     8     1    16
  3.0285349453263466E-01 a       157     0     8     1    17
 -7.3040656072681909E-01 a       158     0     8     1    18
 -2.7127664843713822E-01 a       159     0     8     1    19
  2.4229985730725226E-01 a       160     0     8     1    20
  7.8068717314609593E-01 a       161     0     9     1     1
 -8.0098410540643997E-02 a       162     0     9     1     2
  3.3558743373644084E-01 a       163     0     9     1     3
 -3.0686333781124669E-01 a       164     0     9     1     4
 -7.9400579140930655E-02 a       165     0     9     1     5
 -4.1878390761707065E-03 a       166     0     9     1     6
 -8.0010906557991002E-01 a       167     0     9     1     7
 -1.1520132595779837E+00 a       168     0     9     1     8
  4.9309712872796302E-01 a       169     0     9     1     9
  5.9142034639249730E-01 a       170     0     9     1    10
 -1.2250614058528392E-01 a       171     0     9     1    11
  5.7329100672764026E-02 a       172     0     9     1    12
 -3.3829070445732384E-02 a       173     0     9     1    13
  4.7293244047850325E-01 a       174     0     9     1    14
  3.6671567721053483E-02 a       175     0     9     1    15
 -6.8741899806744788E-01 a       176     0     9     1    16
 -2.9724189425164510E-01 a       177     0     9     1    17
  5.7688311655550113E-02 a       178     0     9     1    18
  2.9187298383357724E-01 a       179     0     9     1    19
 -2.4056627309429143E-01 a       180     0     9     1    20
 -1.9005862854887048E-01 a       181     0    10     1     1
  8.1192434390261836E-01 a       182     0    10     1     2
  1.5991159414479286E-01 a       183     0    10     1     3
  1.8102575001690432E-01 a       184     0    10     1     4
  3.6832251847862452E-01 a       185     0    10     1     5
  8.0384015649436147E-01 a       186     0    10     1     6
  6.7118936761929970E-01 a       187     0    10     1     7
  1.4657348354863757E+00 a       188     0    10     1     8
  5.7229281481301442E-01 a       189     0    10     1     9
 -6.3817603765690767E-01 a       190     0    10     1    10
 -6.2889203718960382E-02 a       191     0    10     1    11
  1.0149289894586280E+00 a       192     0    10     1    12
  1.2724103946750276E-01 a       193     0    10     1    13
 -1.0853439475588009E+00 a       194     0    10     1    14
  1.1947332846346387E-01 a       195     0    10     1    15
 -4.5073135291286967E-02 a       196     0    10     1    16
  9.0448315795805823E-01 a       197     0    10     1    17
 -5.0968855032236171E-01 a       198     0    10     1    18
  3.4229464081221050E-01 a       199     0    10     1    19
  8.3939764011199636E-01 a       200     0    10     1    20
  1.6834914401704620E-03 a       201     0    11     1     1
 -3.4336139063620341E-01 a       202     0    11     1     2
  5.1216925250273965E-02 a       203     0    11     1     3
  2.7432209863191920E-01 a       204     0    11     1     4
 -1.1998891381490719E-01 a       205     0    11     1     5
 -1.6590645966807119E-01 a       206     0    11     1     6
 -2.0245803282027489E-01 a       207     0    11     1     7
  2.7724757139509582E-01 a       208     0    11     1     8
 -4.7083861184937037E-01 a       209     0    11     1     9
 -3.3279245437098565E-01 a       210     0    11     1    10
 -3.7273436944793364E-01 a       211     0    11     1    11
 -5.4653126695214338E-01 a       212     0    11     1    12
  2.9706488436142953E-01 a       213     0    11     1    13
 -3.4280778961054970E-01 a       214     0    11     1    14
 -4.1876302068932536E-01 a       215     0    11     1    15
 -4.5980515265471161E-01 a       216     0    11     1    16
  9.2996669991096455E-03 a       217     0    11     1    17
  5.0801163380002334E-01 a       218     0    11     1    18
 -1.2581224583291375E-01 a       219     0    11     1    19
  6.9234403076283372E-03 a       220     0    11     1    20
 -3.0502129556168972E-01 a       221     0    12     1     1
 -7.4389022838968422E-01 a       222     0    12     1     2
  9.8185169297176955E-01 a       223     0    12     1     3
 -1.4408910447525074E+00 a       224     0    12     1     4
 -4.8870747387866653E-01 a       225     0    12     1     5
 -5.9287123627001470E-01 a       226     0    12     1     6
 -3.9189119967481645E-01 a       227     0    12     1     7
 -1.5684089487757538E-01 a       228     0    12     1     8
  2.2192500189060602E-01 a       229     0    12     1     9
  1.6420691947233013E-01 a       230     0    12     1    10
  7.1454908562909969E-01 a       231     0    12     1    11
 -7.7977279918088926E-01 a       232     0    12     1    12
 -1.0255789059157118E-02 a       233     0    12     1    13
  4.9823482787899737E-01 a       234     0    12     1    14
  3.1058358130906610E-01 a       235     0    12     1    15
  6.2533804771518264E-01 a       236     0    12     1    16
 -8.0811141510080420E-01 a       237     0    12     1    17
 -5.0689959529151973E-01 a       238     0    12     1    18
 -3.9331895681782159E-01 a       239     0    12     1    19
  1.2522160488902279E-01 a       240     0    12     1    20
  2.1438729031876572E-01 a       241     0    13     1     1
  1.3857311826111882E-01 a       242     0    13     1     2
 -4.1572228240235354E-01 a       243     0    13     1     3
 -2.4331512552124443E-01 a       244     0    13     1     4
 -8.7514288438125282E-02 a       245     0    13     1     5
 -2.8146776388333905E-01 a       246     0    13     1     6
 -5.7770116663722826E-01 a       247     0    13     1     7
 -6.0956549212501787E-01 a       248     0    13     1     8
 -3.7318033253883098E-01 a       249     0    13     1     9
  2.6383544309599483E-01 a       250     0    13     1    10
  4.2532173928097944E-01 a       251     0    13     1    11
 -3.5866432335521492E-01 a       252     0    13     1    12
 -7.4482046732895091E-01 a       253     0    13     1    13
 -7.5577548911294173E-02 a       254     0    13     1    14
 -3.3035905479804911E-01 a       255     0    13     1    15
  8.0864523200297245E-01 a       256     0    13     1    16
 -6.3673075156759418E-01 a       257     0    13     1    17
  7.9149687583109096E-01 a       258     0    13     1    18
  6.4348251682304192E-01 a       259     0    13     1    19
 -7.0263347413631896E-02 a       260     0    13     1    20
 -1.3077001131907129E-01 a       261     0    14     1     1
 -7.5168431838166783E-01 a       262     0    14     1     2
 -1.0983424054371489E+00 a       263     0    14     1     3
  2.5923788964866940E-01 a       264     0    14     1     4
  3.9306732762563035E-01 a       265     0    14     1     5
 -3.4124679932438984E-01 a       266     0    14     1     6
  1.2820897047369240E+00 a       267     0    14     1     7
  3.6234314419204122E-01 a       268     0    14     1     8
 -7.9269762874578542E-02 a       269     0    14     1     9
  1.5246677912554921E-01 a       270     0    14     1    10
 -5.0906475563759712E-01 a       271     0    14     1    11
  1.9052409870525711E-01 a       272     0    14     1    12
  2.5185553528824028E-01 a       273     0    14     1    13
 -7.2948869495823104E-02 a       274     0    14     1    14
 -1.2697473264232196E-02 a       275     0    14     1    15
 -6.5732033618480123E-02 a       276     0    14     1    16
  4.9980689699732861E-01 a       277     0    14     1    17
  7.4422347296103319E-01 a       278     0    14     1    18
 -4.7427134194632714E-01 a       279     0    14     1    19
 -2.1140300158948419E-01 a       280     0    14     1    20
 -8.1624607453942366E-01 a       281     0    15     1     1
 -4.7632234810957125E-01 a       282     0    15     1     2
  1.2261246815397200E+00 a       283     0    15     1     3
 -1.9984635144151255E-01 a       284     0    15     1     4
 -2.2496100099852934E-01 a       285     0    15     1     5
  1.6637569856905433E-02 a       286     0    15     1     6
  2.7918789781831227E-01 a       287     0    15     1     7
 -2.5515021169922780E-01 a       288     0    15     1     8
 -7.1629286290167557E-02 a       289     0    15     1     9
  7.3725148796256620E-02 a       290     0    15     1    10
 -2.7450339842458577E-01 a       291     0    15     1    11
 -4.5956652425902877E-01 a       292     0    15     1    12
  1.4266527798401593E-01 a       293     0    15     1    13
  2.6093263154389756E-01 a       294     0    15     1    14
  1.1958177386479946E-01 a       295     0    15     1    15
 -8.1641842196615438E-02 a       296     0    15     1    16
  1.2608724259873183E-01 a       297     0    15     1    17
  2.0129105671918276E-02 a       298     0    15     1    18
 -2.1694295759053142E-02 a       299     0    15     1    19
  3.1541532545811754E-02 a       300     0    15     1    20
  4.5045065365303932E-01 a       301     0    16     1     1
  2.5540387830579447E-01 a       302     0    16     1     2
 -6.6601677541662171E-02 a       303     0    16     1     3
 -2.7069781683728531E-03 a       304     0    16     1     4
  2.9107423903914459E-01 a       305     0    16     1     5
 -3.1977254215777538E-02 a       306     0    16     1     6
  3.6218668296717577E-01 a       307     0    16     1     7
  4.6013512317469307E-02 a       308     0    16     1     8
  1.0473269035703445E+00 a       309     0    16     1     9
  3.8747824615704402E-01 a       310     0    16     1    10
  1.4294618202347109E-01 a       311     0    16     1    11
 -8.2705974141130711E-01 a       312     0    16     1    12
 -8.0814486370017136E-01 a       313     0    16     1    13
 -8.8382945663172141E-01 a       314     0    16     1    14
 -5.3158747067331735E-01 a       315     0    16     1    15
  2.6777986440527207E-01 a       316     0    16     1    16
  8.7065496285880853E-02 a       317     0    16     1    17
  2.0991088506812422E-01 a       318     0    16     1    18
  1.1179780467999352E+00 a       319     0    16     1    19
 -5.4657693901380078E-01 a       320     0    16     1    20
 -1.9789207213715129E-01 a       321     0    17     1     1
 -4.0880609401541437E-02 a       322     0    17     1     2
 -1.0053257861055138E+00 a       323     0    17     1     3
  1.2514349482458134E+00 a       324     0    17     1     4
 -4.4932768388385620E-02 a       325     0    17     1     5
  5.4629165571864713E-01 a       326     0    17     1     6
 -1.0358992257173949E+00 a       327     0    17     1     7
 -5.9466290147559464E-01 a       328     0    17     1     8
 -5.1970744333957453E-01 a       329     0    17     1     9
 -1.3664771291314104E+00 a       330     0    17     1    10
 -6.3450573345200756E-01 a       331     0    17     1    11
  1.3897311351243968E+00 a       332     0    17     1    12
  4.5097742874628138E-01 a       333     0    17     1    13
  7.7625851470372265E-01 a       334     0    17     1    14
  1.0613011496609910E+00 a       335     0    17     1    15
 -6.7066060427163565E-02 a       336     0    17     1    16
  6.2173801763019032E-01 a       337     0    17     1    17
  1.9225586626775992E-01 a       338     0    17     1    18
 -5.1603466946321941E-01 a       339     0    17     1    19
 -1.5545860404934834E-02 a       340     0    17     1    20
 -6.8728885529714401E-01 a       341     0    18     1     1
 -5.0522519941933142E-01 a       342     0    18     1     2
  4.6231119263762177E-01 a       343     0    18     1     3
 -1.1638092556728392E+00 a       344     0    18     1     4
  5.8109019440362586E-01 a       345     0    18     1     5
 -1.2416246369821554E-01 a       346     0    18     1     6
  1.3226092250375426E-01 a       347     0    18     1     7
  5.1759005601687602E-01 a       348     0    18     1     8
  4.9516791259176365E-02 a       349     0    18     1     9
  4.9788300275875486E-01 a       350     0    18     1    10
 -7.3218699944983645E-02 a       351     0    18     1    11
  5.3817809441925679E-01 a       352     0    18     1    12
  9.5542005394288188E-01 a       353     0    18     1    13
 -1.8190888161338162E-01 a       354     0    18     1    14
 -6.1041153749838906E-01 a       355     0    18     1    15
 -1.2311297288680842E+00 a       356     0    18     1    16
 -6.7240150825840794E-01 a       357     0    18     1    17
 -1.0578829630793496E+00 a       358     0    18     1    18
 -2.9733976964523878E-01 a       359     0    18     1    19
 -2.9689658496914031E-02 a       360     0    18     1    20
  7.5969390487428612E-01 a       361     0    19     1     1
  1.4468531499696230E-01 a       362     0    19     1     2
  4.8619749308648876E-03 a       363     0    19     1     3
  4.7464970031700504E-01 a       364     0    19     1     4
 -4.5960187807078334E-01 a       365     0    19     1     5
 -1.8334080974393796E-01 a       366     0    19     1     6
 -3.1574883347915100E-01 a       367     0    19     1     7
 -1.6943758305289561E-01 a       368     0    19     1     8
  1.0070361615828410E-01 a       369     0    19     1     9
 -3.1778098222363138E-01 a       370     0    19     1    10
 -4.6641307619212430E-01 a       371     0    19     1    11
 -5.2841014082656734E-01 a       372     0    19     1    12
 -3.7953863564379708E-01 a       373     0    19     1    13
 -5.2031976746769404E-01 a       374     0    19     1    14
  1.5215802694621797E-01 a       375     0    19     1    15
 -3.2509609418493052E-01 a       376     0    19     1    16
  2.0971916882499952E-01 a       377     0    19     1    17
 -3.3587919761475393E-01 a       378     0    19     1    18
 -4.9236765704528523E-01 a       379     0    19     1    19
  1.0239635057641756E+00 a       380     0    19     1    20
  1.0061048423096050E-01 a       381     0    20     1     1
  5.3640949808589644E-01 a       382     0    20     1     2
 -3.2851110625330621E-01 a       383     0    20     1     3
 -2.7995708893844912E-02 a       384     0    20     1     4
 -2.4798875409331181E-01 a       385     0    20     1     5
  1.8538064311384983E-01 a       386     0    20     1     6
 -3.9646401648058549E-01 a       387     0    20     1     7
 -2.2052906676733733E-01 a       388     0    20     1     8
 -3.0350630523889416E-01 a       389     0    20     1     9
 -3.4252430149373142E-01 a       390     0    20     1    10
  9.3328311211405390E-01 a       391     0    20     1    11
 -3.0228026374090888E-01 a       392     0    20     1    12
 -1.5114594613863441E-01 a       393     0    20     1    13
 -9.9112256800680587E-02 a       394     0    20     1    14
  6.8045368429057074E-01 a       395     0    20     1    15
  2.4663664715102807E-01 a       396     0    20     1    16
  3.4668505622036588E-01 a       397     0    20     1    17
  3.4063416571386257E-01 a       398     0    20     1    18
 -1.3814333006462812E-01 a       399     0    20     1    19
 -3.3231680107139250E-01 a       400     0    20     1    20
 -4.7766438635547420E-01 a       401     0    21     1     1
  2.6294644532189310E-01 a       402     0    21     1     2
 -4.7338033413465780E-01 a       403     0    21     1     3
 -5.1519168716763997E-01 a       404     0    21     1     4
 -2.7172716156916826E-01 a       405     0    21     1     5
  1.3784723363665166E-01 a       406     0    21     1     6
  2.0409598781552324E-01 a       407     0    21     1     7
 -4.8356662002518397E-01 a       408     0    21     1     8
  3.1303514055707615E-01 a       409     0    21     1     9
  4.6699224096440076E-02 a       410     0    21     1    10
 -1.1861498184313927E-01 a       411     0    21     1    11
 -1.1601642500279211E-02 a       412     0    21     1    12
  2.1528373191233074E-01 a       413     0    21     1    13
  3.1264557101866858E-01 a       414     0    21     1    14
  6.5212731673909327E-02 a       415     0    21     1    15
  3.5679340261639975E-01 a       416     0    21     1    16
 -1.7309603817138083E-01 a       417     0    21     1    17
  3.1365662352034157E-01 a       418     0    21     1    18
  8.9297826222840104E-01 a       419     0    21     1    19
 -2.5887328475883054E-01 a       420     0    21     1    20
  9.0849651988864216E-02 a       421     0    22     1     1
  8.2531027960081701E-02 a       422     0    22     1     2
  7.1423479495860032E-02 a       423     0    22     1     3
  2.2631569818643124E-01 a       424     0    22     1     4
 -7.0686556571927697E-02 a       425     0    22     1     5
 -7.2619581591827258E-03 a       426     0    22     1     6
 -3.4322900186133692E-01 a       427     0    22     1     7
 -2.7667924425229329E-03 a       428     0    22     1     8
  1.4468071481658978E-01 a       429     0    22     1     9
  1.7542091494490675E-01 a       430     0    22     1    10
  2.8096875205174254E-01 a       431     0    22     1    11
  2.4089724307256991E-01 a       432     0    22     1    12
 -1.5736594767406162E-01 a       433     0    22     1    13
 -4.0477026732963678E-01 a       434     0    22     1    14
  3.6874965546936872E-01 a       435     0    22     1    15
  7.7085813274207979E-02 a       436     0    22     1    16
  4.5403663396360916E-01 a       437     0    22     1    17
 -1.3821027421734469E-01 a       438     0    22     1    18
 -7.1886713674127675E-02 a       439     0    22     1    19
  3.4653421549019364E-01 a       440     0    22     1    20
  1.3982862511607215E-02 a       441     0    23     1     1
  2.3841605749627678E-01 a       442     0    23     1     2
  3.4419524489979203E-02 a       443     0    23     1     3
 -1.6209287550560375E-01 a       444     0    23     1     4
 -1.0798311112389251E-01 a       445     0    23     1     5
 -4.5034809464866793E-02 a       446     0    23     1     6
  6.4712780341400811E-01 a       447     0    23     1     7
 -2.0760675143192733E-01 a       448     0    23     1     8
  1.4534084770816322E-01 a       449     0    23     1     9
 -2.3546955549942350E-01 a       450     0    23     1    10
  5.9956170615724724E-01 a       451     0    23     1    11
 -7.3194828265526549E-02 a       452     0    23     1    12
 -1.2612635963962010E-01 a       453     0    23     1    13
  1.1987623711087564E-01 a       454     0    23     1    14
 -3.2905097645378212E-01 a       455     0    23     1    15
 -8.7754527481109637E-02 a       456     0    23     1    16
 -2.0516802304263976E-01 a       457     0    23     1    17
  3.2305960349480051E-01 a       458     0    23     1    18
  1.6485050916370558E-01 a       459     0    23     1    19
 -1.5856912061672220E-02 a       460     0    23     1    20
  9.7620051127328453E-02 a       461     0    24     1     1
 -2.4922895702039974E-01 a       462     0    24     1     2
 -1.1289345281226401E-01 a       463     0    24     1     3
 -4.9878223280704841E-02 a       464     0    24     1     4
 -8.3777018014030244E-02 a       465     0    24     1     5
  3.4826725456690305E-01 a       466     0    24     1     6
  4.5367041527917334E-01 a       467     0    24     1     7
  1.7297442937284868E-01 a       468     0    24     1     8
 -1.4171043424996507E-01 a       469     0    24     1     9
  5.7943188782322914E-02 a       470     0    24     1    10
  2.6181733912499927E-01 a       471     0    24     1    11
  8.8555305843892127E-03 a       472     0    24     1    12
 -3.1459247333208720E-02 a       473     0    24     1    13
  2.2557214228044609E-01 a       474     0    24     1    14
 -2.5788520140799642E-01 a       475     0    24     1    15
 -2.6062986938211652E-01 a       476     0    24     1    16
  1.7869443395793136E-01 a       477     0    24     1    17
  1.4848189620956087E-01 a       478     0    24     1    18
 -7.0805824693430275E-02 a       479     0    24     1    19
  6.2403745871396998E-01 a       480     0    24     1    20
 -2.3361845372306367E-01 a       481     0    25     1     1
  2.9292094197037527E-01 a       482     0    25     1     2
  1.7782529386639618E-02 a       483     0    25     1     3
 -2.9294752880647018E-01 a       484     0    25     1     4
 -3.1629663723125667E-01 a       485     0    25     1     5
 -5.7447352266874374E-01 a       486     0    25     1     6
 -2.4520722474667536E-01 a       487     0    25     1     7
  3.2654766157409837E-01 a       488     0    25     1     8
  1.5256463472926883E-02 a       489     0    25     1     9
 -9.0365902249965735E-01 a       490     0    25     1    10
 -8.4624239270680479E-01 a       491     0    25     1    11
  7.9079971522445469E-01 a       492     0    25     1    12
 -1.7117093462267211E-01 a       493     0    25     1    13
  1.5233236302452799E-01 a       494     0    25     1    14
  8.9058462554858686E-01 a       495     0    25     1    15
  1.0266463526474348E+00 a       496     0    25     1    16
 -3.0185174477572441E-01 a       497     0    25     1    17
 -2.9167087105107675E-01 a       498     0    25     1    18
  1.3143237436236943E-01 a       499     0    25     1    19
 -9.7984861805535794E-01 a       500     0    25     1    20
 -1.7399681782283467E-02 a       501     0    26     1     1
 -8.0541366360817462E-02 a       502     0    26     1     2
  2.8035498858944238E-02 a       503     0    26     1     3
 -8.5402636681605276E-02 a       504     0    26     1     4
  1.6098292204798071E-02 a       505     0    26     1     5
 -1.5891797597009927E-01 a       506     0    26     1     6
 -3.2649909261854648E-01 a       507     0    26     1     7
  2.9461272810291450E-01 a       508     0    26     1     8
  4.4459127872770932E-01 a       509     0    26     1     9
 -3.7920246445796574E-01 a       510     0    26     1    10
 -4.6836625826466272E-01 a       511     0    26     1    11
  3.6424405118016673E-01 a       512     0    26     1    12
  1.0020954372830924E-01 a       513     0    26     1    13
  1.6319713424189913E-01 a       514     0    26     1    14
  3.8636955059252692E-01 a       515     0    26     1    15
  1.8693364993873349E-01 a       516     0    26     1    16
  3.6726209994775785E-02 a       517     0    26     1    17
 -3.3294910783259074E-01 a       518     0    26     1    18
 -8.5504394000107641E-03 a       519     0    26     1    19
  1.4065493152625269E-01 a       520     0    26     1    20
  1.9093314137978964E-01 a       521     0    27     1     1
 -8.6726290393749161E-01 a       522     0    27     1     2
 -6.2010233720888937E-02 a       523     0    27     1     3
  2.8516478893918829E-01 a       524     0    27     1     4
  6.6241227401898117E-01 a       525     0    27     1     5
  3.6767162317673191E-01 a       526     0    27     1     6
 -2.8033540223276931E-02 a       527     0    27     1     7
 -2.8189436330281475E-01 a       528     0    27     1     8
 -1.9896872205690475E-01 a       529     0    27     1     9
  7.8188941792841127E-01 a       530     0    27     1    10
  1.6065789866524360E-01 a       531     0    27     1    11
 -8.5807545658954576E-01 a       532     0    27     1    12
  5.6823999231768230E-01 a       533     0    27     1    13
 -4.7691584298186090E-01 a       534     0    27     1    14
 -3.4063987234148552E-01 a       535     0    27     1    15
 -4.4995306296588494E-01 a       536     0    27     1    16
  2.2676891099982172E-01 a       537     0    27     1    17
  2.2247872758665688E-01 a       538     0    27     1    18
  1.8927588240705029E-01 a       539     0    27     1    19
  6.9150392943822470E-01 a       540     0    27     1    20
 -4.0096183071034563E-01 a       541     0    28     1     1
  7.9641062405175350E-02 a       542     0    28     1     2
 -7.9432060258163864E-02 a       543     0    28     1     3
 -3.2248674076254502E-01 a       544     0    28     1     4
 -5.7786126455566156E-01 a       545     0    28     1     5
 -1.5244333188198428E-01 a       546     0    28     1     6
 -1.6971049734614368E-01 a       547     0    28     1     7
 -5.8660268652108827E-01 a       548     0    28     1     8
  4.5617007290412509E-01 a       549     0    28     1     9
  8.8828780381595751E-01 a       550     0    28     1    10
 -5.6343941551166643E-01 a       551     0    28     1    11
 -5.1261105753670366E-01 a       552     0    28     1    12
  4.0887791972850218E-01 a       553     0    28     1    13
  3.0604126527959447E-01 a       554     0    28     1    14
  5.3721435335980217E-01 a       555     0    28     1    15
 -6.3557984711935367E-01 a       556     0    28     1    16
 -9.6449471288912314E-01 a       557     0    28     1    17
  3.6939949848136666E-01 a       558     0    28     1    18
  5.4136998576057094E-01 a       559     0    28     1    19
 -1.4574369272606505E-01 a       560     0    28     1    20
 -1.9246346577027645E-01 a       561     0    29     1     1
  6.8148543063329486E-02 a       562     0    29     1     2
  1.9966215482607361E-01 a       563     0    29     1     3
  3.0658736082482180E-02 a       564     0    29     1     4
 -4.4110514443482006E-03 a       565     0    29     1     5
  2.0821085789847094E-01 a       566     0    29     1     6
 -1.9388455726838746E-01 a       567     0    29     1     7
 -7.3522610668815713E-02 a       568     0    29     1     8
  2.4649983717412069E-01 a       569     0    29     1     9
  3.3930300742341230E-01 a       570     0    29     1    10
  5.9486140722565847E-02 a       571     0    29     1    11
  1.0279098286044178E-01 a       572     0    29     1    12
  3.1480494370456275E-03 a       573     0    29     1    13
  1.6127578275513377E-01 a       574     0    29     1    14
  6.7912029631880241E-02 a       575     0    29     1    15
  1.6159884928833237E-01 a       576     0    29     1    16
  6.0116755386742859E-01 a       577     0    29     1    17
 -3.9474044776782236E-01 a       578     0    29     1    18
 -6.1363983263149191E-01 a       579     0    29     1    19
 -7.1037733423504015E-02 a       580     0    29     1    20
  2.7640324130370719E-01 a       581     0    30     1     1
 -2.1902874329753455E-01 a       582     0    30     1     2
  3.7795855034991127E-01 a       583     0    30     1     3
 -5.5707929728223825E-02 a       584     0    30     1     4
 -1.6724188038551760E-01 a       585     0    30     1     5
  5.1106015557473272E-01 a       586     0    30     1     6
  3.5109128496918124E-01 a       587     0    30     1     7
  1.6816806276632507E-01 a       588     0    30     1     8
  2.9717791530888676E-01 a       589     0    30     1     9
 -2.9973316145725465E-01 a       590     0    30     1    10
  3.3822450428566131E-01 a       591     0    30     1    11
 -5.3754298545142042E-02 a       592     0    30     1    12
 -2.0063149492635629E-02 a       593     0    30     1    13
 -2.8359183807008309E-01 a       594     0    30     1    14
 -2.6861675753341679E-01 a       595     0    30     1    15
 -3.2410511171198769E-01 a       596     0    30     1    16
  7.3389700724564344E-01 a       597     0    30     1    17
  9.4932490330733010E-01 a       598     0    30     1    18
  3.0127266816321779E-01 a       599     0    30     1    19
 -4.9217665701092461E-01 a       600     0    30     1    20
  2.2216560089513676E-01 a       601     0    31     1     1
 -3.1917754186562342E-01 a       602     0    31     1     2
 -2.7813377805639111E-01 a       603     0    31     1     3
  4.9089481842458743E-01 a       604     0    31     1     4
  3.5662879285007210E-01 a       605     0    31     1     5
  2.6001429916917279E-01 a       606     0    31     1     6
 -3.2840601494913763E-01 a       607     0    31     1     7
  2.6369576584069071E-01 a       608     0    31     1     8
  8.5758479279584632E-02 a       609     0    31     1     9
 -3.6958745575961210E-01 a       610     0    31     1    10
  4.1976884356612637E-01 a       611     0    31     1    11
  7.6435215407322543E-01 a       612     0    31     1    12
 -5.3408778289618675E-01 a       613     0    31     1    13
 -1.8291273221710200E-01 a       614     0    31     1    14
 -2.6324474655539015E-01 a       615     0    31     1    15
  3.7988391006549238E-01 a       616     0    31     1    16
  1.0764351379080290E+00 a       617     0    31     1    17
  3.0345037957331172E-01 a       618     0    31     1    18
 -7.2292874260441398E-01 a       619     0    31     1    19
  3.5630250202714553E-01 a       620     0    31     1    20
  3.4926034779751808E-01 a       621     0    32     1     1
 -9.6811722155002056E-02 a       622     0    32     1     2
  9.9171900397949278E-02 a       623     0    32     1     3
 -3.6546240091801402E-01 a       624     0    32     1     4
  2.1539252558429584E-01 a       625     0    32     1     5
 -4.0224314516218933E-02 a       626     0    32     1     6
  1.6825701370946658E-01 a       627     0    32     1     7
 -3.4387426130371761E-02 a       628     0    32     1     8
  5.7461940994937302E-02 a       629     0    32     1     9
  1.8253496387748674E-01 a       630     0    32     1    10
 -3.3554894790421386E-01 a       631     0    32     1    11
  5.2901129156763882E-01 a       632     0    32     1    12
 -7.9261068570613963E-03 a       633     0    32     1    13
  5.6206869820854266E-01 a       634     0    32     1    14
 -1.4761790994230928E-01 a       635     0    32     1    15
  1.5364227579649603E-01 a       636     0    32     1    16
 -5.7573393620367797E-01 a       637     0    32     1    17
 -5.1167406391278836E-01 a       638     0    32     1    18
  6.6622838815378213E-02 a       639     0    32     1    19
 -8.1657667759398103E-02 a       640     0    32     1    20
  2.7993565206355470E-01 a       641     0    33     1     1
 -1.5273322724802627E-01 a       642     0    33     1     2
 -1.2223687545329633E-01 a       643     0    33     1     3
  2.3567617591708373E-01 a       644     0    33     1     4
  4.2205375327012978E-01 a       645     0    33     1     5
  2.6117980537846586E-01 a       646     0    33     1     6
  3.8605325663046336E-01 a       647     0    33     1     7
 -3.7513045099768760E-01 a       648     0    33     1     8
  6.3814608897501224E-01 a       649     0    33     1     9
  2.3530260022262023E-01 a       650     0    33     1    10
 -5.8062713251076292E-01 a       651     0    33     1    11
 -1.8504808771942430E-01 a       652     0    33     1    12
  1.2671356002952780E-01 a       653     0    33     1    13
  6.4696169234695078E-01 a       654     0    33     1    14
 -1.6350397976636552E-01 a       655     0    33     1    15
  3.4603957187132370E-02 a       656     0    33     1    16
 -2.2851681879003699E-01 a       657     0    33     1    17
 -4.1273324547387052E-01 a       658     0    33     1    18
 -1.4609237161854643E-01 a       659     0    33     1    19
  4.3681849644728188E-01 a       660     0    33     1    20
 -2.8089288555842997E-02 a       661     0    34     1     1
 -1.5192749677228737E-01 a       662     0    34     1     2
  5.8101825262394331E-02 a       663     0    34     1     3
  3.5257706780929876E-01 a       664     0    34     1     4
 -3.8446474738046599E-01 a       665     0    34     1     5
  4.3014039082291733E-01 a       666     0    34     1     6
  3.5162615668172880E-04 a       667     0    34     1     7
  2.9950850836065257E-01 a       668     0    34     1     8
 -4.8143398415851801E-01 a       669     0    34     1     9
  3.0294056597169294E-01 a       670     0    34     1    10
  3.1958642099963380E-02 a       671     0    34     1    11
 -6.9258014436795981E-02 a       672     0    34     1    12
 -7.1288503183179308E-02 a       673     0    34     1    13
 -1.6590499699922046E-01 a       674     0    34     1    14
  6.5596147913311600E-02 a       675     0    34     1    15
 -6.2099461192370253E-02 a       676     0    34     1    16
  7.1990052498467044E-02 a       677     0    34     1    17
 -6.1455082318240227E-02 a       678     0    34     1    18
  8.1268157091673635E-02 a       679     0    34     1    19
 -4.7140103520098942E-01 a       680     0    34     1    20
  8.1128251209544616E-02 a       681     0    35     1     1
  1.1328535556991859E+00 a       682     0    35     1     2
  4.8430347849968641E-01 a       683     0    35     1     3
  2.8293901818139417E-02 a       684     0    35     1     4
  4.7765745003950483E-01 a       685     0    35     1     5
  1.4564064172583840E-01 a       686     0    35     1     6
 -4.9423393642426544E-01 a       687     0    35     1     7
 -7.7112033597093987E-01 a       688     0    35     1     8
 -4.0856959640802598E-01 a       689     0    35     1     9
 -5.7615658535671455E-01 a       690     0    35     1    10
 -4.3178055082999667E-01 a       691     0    35     1    11
  6.0561392818600834E-01 a       692     0    35     1    12
 -9.8900757211521473E-01 a       693     0    35     1    13
 -4.8435156233621973E-01 a       694     0    35     1    14
 -3.4258232340123818E-01 a       695     0    35     1    15
 -1.0606735177858272E-01 a       696     0    35     1    16
  1.1371081996380936E-01 a       697     0    35     1    17
 -8.7638647700975469E-01 a       698     0    35     1    18
  3.6858528921055556E-01 a       699     0    35     1    19
 -3.3135787537535710E-01 a       700     0    35     1    20
 -2.4673674145511811E-02 a       701     0    36     1     1
 -1.6002715421263558E-01 a       702     0    36     1     2
 -1.9993007260099374E-01 a       703     0    36     1     3
 -2.7965510864114956E-01 a       704     0    36     1     4
 -3.1733275822752360E-01 a       705     0    36     1     5
 -1.3905541105243668E-01 a       706     0    36     1     6
 -3.3202950521158812E-02 a       707     0    36     1     7
 -4.6438905611579727E-02 a       708     0    36     1     8
  2.3683721688003534E-01 a       709     0    36     1     9
 -1.5473375671276227E-01 a       710     0    36     1    10
  4.0095048481191226E-01 a       711     0    36     1    11
 -8.9087299896666181E-02 a       712     0    36     1    12
  3.5525573086286844E-01 a       713     0    36     1    13
  1.6584198339389300E-01 a       714     0    36     1    14
  4.9480121126016968E-01 a       715     0    36     1    15
  3.0472294242352599E-01 a       716     0    36     1    16
  1.4913268979935631E-02 a       717     0    36     1    17
  6.1850762220462119E-01 a       718     0    36     1    18
 -4.7364734016736285E-02 a       719     0    36     1    19
  3.2391965621977087E-01 a       720     0    36     1    20
 -3.5205233260554886E-02 a       721     0    37     1     1
  3.0809634197854185E-01 a       722     0    37     1     2
 -3.0549538244988972E-01 a       723     0    37     1     3
  2.1686304133483297E-02 a       724     0    37     1     4
  9.1153614488876419E-02 a       725     0    37     1     5
 -5.8704806920049835E-01 a       726     0    37     1     6
 -3.1757074451972228E-01 a       727     0    37     1     7
  2.9570937634186778E-01 a       728     0    37     1     8
 -3.4170072262102819E-01 a       729     0    37     1     9
 -4.5555813588026761E-01 a       730     0    37     1    10
  1.1275916804586360E-01 a       731     0    37     1    11
 -1.9341810326332403E-02 a       732     0    37     1    12
 -1.7669889389109736E-01 a       733     0    37     1    13
 -3.1221017551202906E-01 a       734     0    37     1    14
  2.5907377688177496E-01 a       735     0    37     1    15
 -1.7468164564765798E-01 a       736     0    37     1    16
 -4.3899208154228320E-01 a       737     0    37     1    17
  4.8215743910738146E-01 a       738     0    37     1    18
  7.7644969203724504E-02 a       739     0    37     1    19
 -2.5775112189488308E-01 a       740     0    37     1    20
 -8.6326251391990266E-02 a       741     0    38     1     1
 -1.8699978693632066E-01 a       742     0    38     1     2
 -4.6384348878226828E-01 a       743     0    38     1     3
 -2.0410004741855550E-01 a       744     0    38     1     4
  1.3988891648604368E-01 a       745     0    38     1     5
 -7.8860515562141242E-02 a       746     0    38     1     6
  2.2063811628855387E-01 a       747     0    38     1     7
 -1.7652333895059397E-01 a       748     0    38     1     8
 -2.9400740037379813E-01 a       749     0    38     1     9
  3.4748934869066572E-01 a       750     0    38     1    10
  3.1922752103479751E-01 a       751     0    38     1    11
 -5.4432184203729961E-01 a       752     0    38     1    12
  4.9158197307173701E-01 a       753     0    38     1    13
  1.3022897386326790E-01 a       754     0    38     1    14
 -2.7753844616311252E-02 a       755     0    38     1    15
  2.9620018920486080E-01 a       756     0    38     1    16
  3.1376067826609244E-01 a       757     0    38     1    17
 -3.9459451651084837E-01 a       758     0    38     1    18
 -1.7287853486807039E-01 a       759     0    38     1    19
  9.8578001636164550E-02 a       760     0    38     1    20
 -5.0935825412344948E-01 a       761     0    39     1     1
  7.8462052826146689E-01 a       762     0    39     1     2
 -1.0725188020348517E-01 a       763     0    39     1     3
 -3.0244264809831090E-01 a       764     0    39     1     4
 -4.1328891944731572E-01 a       765     0    39     1     5
  1.7535396272609255E-01 a       766     0    39     1     6
  7.8451095470463716E-01 a       767     0    39     1     7
 -2.3462225696222908E-01 a       768     0    39     1     8
 -2.7194608428452621E-01 a       769     0    39     1     9
 -7.7043466593446486E-01 a       770     0    39     1    10
  8.6406197558029008E-01 a       771     0    39     1    11
  5.8419395644138394E-01 a       772     0    39     1    12
 -6.1256849912289957E-01 a       773     0    39     1    13
 -2.8616257773104897E-01 a       774     0    39     1    14
  1.6228032480340571E-01 a       775     0    39     1    15
  2.9436100915880281E-01 a       776     0    39     1    16
 -4.4539055944352746E-01 a       777     0    39     1    17
  4.1255229113259245E-01 a       778     0    39     1    18
 -5.4503949761475723E-01 a       779     0    39     1    19
  7.5691731537826035E-01 a       780     0    39     1    20
 -1.4921975650171027E-01 a       781     0    40     1     1
  2.6956843967201893E-01 a       782     0    40     1     2
  4.9017805872440501E-01 a       783     0    40     1     3
 -4.2660711559628806E-01 a       784     0    40     1     4
  5.6081149832070587E-01 a       785     0    40     1     5
 -3.3424681499802066E-02 a       786     0    40     1     6
 -3.1729691437143770E-01 a       787     0    40     1     7
  2.9330591601923106E-01 a       788     0    40     1     8
 -4.2349678414142708E-02 a       789     0    40     1     9
  1.3473305147497602E-01 a       790     0    40     1    10
 -1.2570174697059993E-02 a       791     0    40     1    11
 -2.4187160254276152E-01 a       792     0    40     1    12
  5.8959165569464134E-01 a       793     0    40     1    13
  8.3031365372715671E-01 a       794     0    40     1    14
 -8.7415144531158770E-02 a       795     0    40     1    15
  2.6083595979579749E-01 a       796     0    40     1    16
  7.3187011435578075E-01 a       797     0    40     1    17
 -5.2422724587881031E-01 a       798     0    40     1    18
 -5.7184186238618895E-01 a       799     0    40     1    19
 -2.9549535761758022E-01 a       800     0    40     1    20
 -5.9843486053744910E-01 a       801     0    41     1     1
  2.3535863835552770E-02 a       802     0    41     1     2
 -7.2632334129618104E-01 a       803     0    41     1     3
 -3.9825556212451091E-01 a       804     0    41     1     4
  1.9965851929496714E-01 a       805     0    41     1     5
 -6.0199973364557058E-01 a       806     0    41     1     6
  5.1422557990311468E-01 a       807     0    41     1     7
 -8.0097645947276412E-03 a       808     0    41     1     8
 -4.7933757218580658E-01 a       809     0    41     1     9
 -5.8241131738251983E-01 a       810     0    41     1    10
  6.3753852369789782E-02 a       811     0    41     1    11
  9.6048115999711053E-02 a       812     0    41     1    12
 -5.3678320733390050E-01 a       813     0    41     1    13
 -2.1200869778415295E-02 a       814     0    41     1    14
 -1.3076445926023436E-01 a       815     0    41     1    15
  2.1954192270646924E-01 a       816     0    41     1    16
 -3.0868397174718670E-01 a       817     0    41     1    17
 -1.5887282610377826E-01 a       818     0    41     1    18
  4.2519083879784425E-01 a       819     0    41     1    19
 -1.1155400018721510E-02 a       820     0    41     1    20
  3.3399445015375195E-01 a       821     0    42     1     1
  4.3050073827872060E-01 a       822     0    42     1     2
  1.0796643245901576E-01 a       823     0    42     1     3
 -8.9115318108857311E-02 a       824     0    42     1     4
 -4.2184731650321605E-01 a       825     0    42     1     5
 -2.4230512567700130E-01 a       826     0    42     1     6
  3.8370225404729769E-01 a       827     0    42     1     7
  3.9343569861792266E-01 a       828     0    42     1     8
  2.2598825524266225E-01 a       829     0    42     1     9
 -3.0845062901594850E-01 a       830     0    42     1    10
 -6.7771194898288367E-02 a       831     0    42     1    11
 -2.0523820724654537E-01 a       832     0    42     1    12
  1.9977211829379637E-01 a       833     0    42     1    13
  4.8009516886842289E-03 a       834     0    42     1    14
  2.4974116875280664E-01 a       835     0    42     1    15
  6.2802938905225680E-01 a       836     0    42     1    16
 -7.7330732086127685E-01 a       837     0    42     1    17
  2.8011126619103077E-01 a       838     0    42     1    18
  6.8003004428570890E-01 a       839     0    42     1    19
 -6.5432795958954204E-01 a       840     0    42     1    20
  3.2180062692687228E-01 a       841     0    43     1     1
 -6.9402653922071222E-01 a       842     0    43     1     2
 -2.9285633752352463E-01 a       843     0    43     1     3
  1.2290363710848293E+00 a       844     0    43     1     4
 -3.0794657982490853E-01 a       845     0    43     1     5
 -1.4090697327945023E-01 a       846     0    43     1     6
 -8.3265238728574664E-02 a       847     0    43     1     7
  5.4958467375755138E-01 a       848     0    43     1     8
  2.4715700625804857E-01 a       849     0    43     1     9
  8.3973270542364364E-01 a       850     0    43     1    10
  5.4214872591158336E-01 a       851     0    43     1    11
  6.3887817580372097E-01 a       852     0    43     1    12
 -6.2284094753475117E-01 a       853     0    43     1    13
 -1.5996363748186190E-02 a       854     0    43     1    14
 -4.3324466351149438E-01 a       855     0    43     1    15
 -7.1765471024349670E-01 a       856     0    43     1    16
  5.5285626797076082E-01 a       857     0    43     1    17
 -2.4486342389908045E-01 a       858     0    43     1    18
  5.9608374112472740E-01 a       859     0    43     1    19
  6.4976166283658110E-01 a       860     0    43     1    20
  5.4923042316136102E-02 a       861     0    44     1     1
 -2.1667749677664858E-01 a       862     0    44     1     2
  2.4581558948340593E-01 a       863     0    44     1     3
 -2.8590954381570133E-01 a       864     0    44     1     4
 -9.9459195289385557E-02 a       865     0    44     1     5
  4.0244785439353137E-01 a       866     0    44     1     6
 -2.0938454054399694E-01 a       867     0    44     1     7
  1.3259949856269765E-01 a       868     0    44     1     8
  3.8883608360111749E-01 a       869     0    44     1     9
  5.5971610020123908E-01 a       870     0    44     1    10
 -6.6626015927240378E-01 a       871     0    44     1    11
 -2.6838603966433539E-01 a       872     0    44     1    12
  2.9796354109468576E-01 a       873     0    44     1    13
 -5.4050189134350834E-01 a       874     0    44     1    14
 -1.1709393482938434E-01 a       875     0    44     1    15
 -5.6431781656313673E-01 a       876     0    44     1    16
 -2.4047465272814270E-01 a       877     0    44     1    17
  3.7014916770618089E-01 a       878     0    44     1    18
 -7.9733645832488187E-01 a       879     0    44     1    19
 -1.7397924111081672E-01 a       880     0    44     1    20
  1.6061672318350353E-01 a       881     0    45     1     1
 -3.6043728010067944E-01 a       882     0    45     1     2
 -5.6738532778982043E-01 a       883     0    45     1     3
  6.7117476923949793E-01 a       884     0    45     1     4
  5.7910067188996228E-01 a       885     0    45     1     5
  2.0459182797813541E-01 a       886     0    45     1     6
 -4.6386883489626679E-01 a       887     0    45     1     7
  3.7470991920019203E-01 a       888     0    45     1     8
  1.4054115186691468E-01 a       889     0    45     1     9
  3.4978807903434517E-01 a       890     0    45     1    10
 -4.2737397445903463E-01 a       891     0    45     1    11
  2.7238378804046653E-01 a       892     0    45     1    12
  1.1115307014838867E-01 a       893     0    45     1    13
 -9.1051340502821723E-02 a       894     0    45     1    14
 -6.3965591983585468E-01 a       895     0    45     1    15
  6.0324162500634881E-01 a       896     0    45     1    16
  1.4617640433278551E+00 a       897     0    45     1    17
 -5.9245914201866223E-01 a       898     0    45     1    18
 -1.4173777037422388E+00 a       899     0    45     1    19
  1.0768216744668915E+00 a       900     0    45     1    20
  2.0527946492922419E-01 a       901     0    46     1     1
  4.7140871610595270E-01 a       902     0    46     1     2
  4.4770176936053951E-01 a       903     0    46     1     3
 -6.6568543521336154E-01 a       904     0    46     1     4
 -5.2181948016224222E-01 a       905     0    46     1     5
  1.6328574219249345E-01 a       906     0    46     1     6
 -2.8407703282382490E-01 a       907     0    46     1     7
 -1.2489178896040201E+00 a       908     0    46     1     8
 -9.8402336134430113E-01 a       909     0    46     1     9
  2.3661231894270646E-01 a       910     0    46     1    10
 -1.2901352202556599E-01 a       911     0    46     1    11
 -1.0142804444472999E+00 a       912     0    46     1    12
  4.6062669731423017E-01 a       913     0    46     1    13
 -4.1998388096767197E-01 a       914     0    46     1    14
  3.7521883943921619E-01 a       915     0    46     1    15
 -2.1888676569141252E-01 a       916     0    46     1    16
 -1.8123279265014194E+00 a       917     0    46     1    17
  6.0984413844462659E-01 a       918     0    46     1    18
  1.5046974083607276E+00 a       919     0    46     1    19
 -9.8818055146135975E-01 a       920     0    46     1    20
  1.5521320151165721E-01 b       921     1     1
 -5.9907039406585774E-02 b       922     1     2
 -1.6635691408723718E-01 b       923     1     3
 -1.9041871555657275E-01 b       924     1     4
 -1.5349256196144900E-01 b       925     1     5
 -6.7657619065630573E-02 b       926     1     6
  8.8737233499809914E-02 b       927     1     7
 -1.5301967576236988E-01 b       928     1     8
  2.1412611818923397E-01 b       929     1     9
  3.1194668840169130E-02 b       930     1    10
  2.9049580612264397E-03 b       931     1    11
  2.6138851350685638E-01 b       932     1    12
  3.7677222693887003E-01 b       933     1    13
 -1.5184199270018789E-01 b       934     1    14
  1.9797639991561972E-01 b       935     1    15
  4.2327734909406572E-01 b       936     1    16
  2.4780210430716090E-01 b       937     1    17
  3.1939631714864122E-02 b       938     1    18
 -1.3688435031322188E-01 b       939     1    19
 -1.1405537920002630E-03 b       940     1    20
 -5.0460855935593608E-02 a       941     1     1     2     1
  8.9919231734642932E-02 a       942     1     1     2     2
 -5.5032023075151293E-01 a       943     1     1     2     3
 -9.0244066813807089E-02 a       944     1     1     2     4
 -3.4100626363845898E-01 a       945     1     1     2     5
 -5.5616640474268575E-01 a       946     1     1     2     6
  2.5544980596356109E-01 a       947     1     1     2     7
 -6.9846168850783719E-01 a       948     1     1     2     8
 -8.5170841793718519E-03 a       949     1     1     2     9
 -1.4314891448966133E-01 a       950     1     1     2    10
 -1.1014324862115966E-02 a       951     1     1     2    11
 -1.9333048335251862E-01 a       952     1     1     2    12
  2.8570074160904696E-01 a       953     1     1     2    13
 -1.5157860538601900E-01 a       954     1     1     2    14
 -2.8733156993236403E-01 a       955     1     1     2    15
 -1.5712679874518770E-01 a       956     1     1     2    16
  2.2986324981378998E-02 a       957     1     1     2    17
  2.1436491851583067E-01 a       958     1     1     2    18
  1.2439958966730789E-01 a       959     1     1     2    19
  1.1944252076186071E-01 a       960     1     1     2    20
 -1.5912412051265706E-01 a       961     1     2     2     1
 -2.5278002654245868E-01 a       962     1     2     2     2
 -1.7407974614500715E-01 a       963     1     2     2     3
  2.6611361932016314E-01 a       964     1     2     2     4
 -1.3830133926783406E-01 a       965     1     2     2     5
 -4.7644171854369581E-02 a       966     1     2     2     6
 -2.1765380641236101E-01 a       967     1     2     2     7
  1.0766530392787441E-01 a       968     1     2     2     8
  2.7644710333128053E-01 a       969     1     2     2     9
  3.1638631138990858E-01 a       970     1     2     2    10
 -8.1915144168418511E-02 a       971     1     2     2    11
 -2.1016757345725379E-01 a       972     1     2     2    12
  7.9825330144645057E-01 a       973     1     2     2    13
  2.0814951883761407E-01 a       974     1     2     2    14
  2.5018340940626521E-01 a       975     1     2     2    15
 -2.5403526756464162E-01 a       976     1     2     2    16
  3.7336637129481304E-01 a       977     1     2     2    17
  3.5798294109305595E-01 a       978     1     2     2    18
  1.7784565749105533E-02 a       979     1     2     2    19
 -6.8632696171514174E-01 a       980     1     2     2    20
  2.7260753797933335E-01 a       981     1     3     2     1
  3.7949010365575564E-01 a       982     1     3     2     2
  7.6636234191033895E-02 a       983     1     3     2     3
  9.1218797312397043E-02 a       984     1     3     2     4
  3.0130422818520819E-01 a       985     1     3     2     5
 -3.4623813455340630E-02 a       986     1     3     2     6
 -4.0125879950528015E-01 a       987     1     3     2     7
  1.4756079767271802E-02 a       988     1     3     2     8
  1.0911199413340254E-01 a       989     1     3     2     9
 -2.6269159871344228E-01 a       990     1     3     2    10
 -5.1617276670469031E-02 a       991     1     3     2    11
  2.4451450181686696E-01 a       992     1     3     2    12
 -5.9408474850950843E-01 a       993     1     3     2    13
  3.8211195518532942E-01 a       994     1     3     2    14
  1.1773614194185786E+00 a       995     1     3     2    15
  2.8111000515162760E-01 a       996     1     3     2    16
 -6.1040989886309016E-01 a       997     1     3     2    17
  3.7812461522617510E-02 a       998     1     3     2    18
 -2.0431014304643424E-01 a       999     1     3     2    19
  2.2814413571194170E-01 a      1000     1     3     2    20
  1.5744727528084124E-01 a      1001     1     4     2     1
 -7.2832284324062069E-01 a      1002     1     4     2     2
  6.8396981578395710E-01 a      1003     1     4     2     3
  5.0624954807137512E-01 a      1004     1     4     2     4
 -1.0563668980173854E-02 a      1005     1     4     2     5
  5.9542292077395875E-01 a      1006     1     4     2     6
  1.4155431157305262E-01 a      1007     1     4     2     7
  2.7602811784796094E-01 a      1008     1     4     2     8
  3.1645761563145591E-01 a      1009     1     4     2     9
 -3.6424802845339377E-01 a      1010     1     4     2    10
 -8.5329042130811231E-02 a      1011     1     4     2    11
  6.8481191184159495E-03 a      1012     1     4     2    12
  2.1087776362512220E-01 a      1013     1     4     2    13
 -1.8556714224827595E-01 a      1014     1     4     2    14
 -4.9453319976327759E-01 a      1015     1     4     2    15
  3.6684715496724435E-01 a      1016     1     4     2    16
  5.3987185663911130E-01 a      1017     1     4     2    17
 -3.6915548740626658E-01 a      1018     1     4     2    18
 -5.7041579649474972E-01 a      1019     1     4     2    19
  4.8893224989674806E-02 a      1020     1     4     2    20
 -1.9033800219363803E-01 a      1021     1     5     2     1
 -3.1781044308568113E-01 a      1022     1     5     2     2
 -8.4779082944185694E-02 a      1023     1     5     2     3
  3.9421635959535634E-01 a      1024     1     5     2     4
  2.6994097703299136E-01 a      1025     1     5     2     5
  3.3120660390169637E-01 a      1026     1     5     2     6
 -2.9178659841111876E-01 a      1027     1     5     2     7
 -2.1032729586718357E-01 a      1028     1     5     2     8
 -3.1389014587941760E-01 a      1029     1     5     2     9
 -8.9556804651942046E-02 a      1030     1     5     2    10
  2.8016323941092419E-01 a      1031     1     5     2    11
  1.9189425128015886E-01 a      1032     1     5     2    12
 -2.1018418398308497E-01 a      1033     1     5     2    13
  2.3788322131131925E-01 a      1034     1     5     2    14
  2.8186564799286012E-01 a      1035     1     5     2    15
  1.7445785623420432E-02 a      1036     1     5     2    16
  4.3003714186337960E-01 a      1037     1     5     2    17
  4.4383178168830606E-01 a      1038     1     5     2    18
 -2.6198811677184297E-01 a      1039     1     5     2    19
 -2.4565293249870065E-01 a      1040     1     5     2    20
 -3.9748187477017732E-01 a      1041     1     6     2     1
 -2.5327833669447918E-02 a      1042     1     6     2     2
  4.9898681068612266E-01 a      1043     1     6     2     3
  2.6478680031780066E-01 a      1044     1     6     2     4
  7.3531260945310312E-03 a      1045     1     6     2     5
  6.8257411554399783E-01 a      1046     1     6     2     6
 -3.5664397334460080E-01 a      1047     1     6     2     7
 -2.4098197943631833E-01 a      1048     1     6     2     8
  1.0637206841689827E-01 a      1049     1     6     2     9
 -3.4018735525699606E-01 a      1050     1     6     2    10
  3.0913020026503254E-02 a      1051     1     6     2    11
 -5.3166523566113656E-02 a      1052     1     6     2    12
 -5.7317928174024452E-02 a      1053     1     6     2    13
  5.4146891778836814E-01 a      1054     1     6     2    14
  8.7922860277844384E-01 a      1055     1     6     2    15
 -2.3685595258986289E-01 a      1056     1     6     2    16
  5.1785412798411357E-01 a      1057     1     6     2    17
  1.5341890008232489E-01 a      1058     1     6     2    18
 -1.0739244663924645E-01 a      1059     1     6     2    19
 -1.0767312118080549E-01 a      1060     1     6     2    20
 -1.3788816181524122E-01 a      1061     1     7     2     1
  3.2270723927312006E-01 a      1062     1     7     2     2
  4.1154550886937491E-01 a      1063     1     7     2     3
 -1.4887872428284610E-01 a      1064     1     7     2     4
 -6.1428820497100045E-01 a      1065     1     7     2     5
 -5.5785751272988171E-01 a      1066     1     7     2     6
 -2.4366340954468763E-01 a      1067     1     7     2     7
 -1.9321916088499327E-02 a      1068     1     7     2     8
  4.2576927879612164E-01 a      1069     1     7     2     9
  4.1478423844894885E-01 a      1070     1     7     2    10
  2.9437010088706117E-01 a      1071     1     7     2    11
 -1.0125389529995662E-02 a      1072     1     7     2    12
 -6.5555042782436193E-02 a      1073     1     7     2    13
 -1.2246564013592100E-01 a      1074     1     7     2    14
  2.8496070515809024E-01 a      1075     1     7     2    15
  2.0750374899533430E-01 a      1076     1     7     2    16
  5.5564587395303577E-01 a      1077     1     7     2    17
 -1.2149252079622373E-01 a      1078     1     7     2    18
  5.2763578827795599E-01 a      1079     1     7     2    19
  1.5487934584102095E-01 a      1080     1     7     2    20
  2.5380616988104412E-02 a      1081     1     8     2     1
 -3.2832761051603215E-01 a      1082     1     8     2     2
 -5.3245263126480213E-01 a      1083     1     8     2     3
 -3.3622019658493381E-02 a      1084     1     8     2     4
  3.5684188229046565E-01 a      1085     1     8     2     5
 -4.2558074093110848E-01 a      1086     1     8     2     6
 -2.2989021233513474E-01 a      1087     1     8     2     7
  1.8463650957283581E-01 a      1088     1     8     2     8
 -5.1920102779011101E-01 a      1089     1     8     2     9
 -1.4093622440900205E-01 a      1090     1     8     2    10
  1.1989130745498774E-01 a      1091     1     8     2    11
  7.2008167320528849E-01 a      1092     1     8     2    12
  2.4038332994077732E-01 a      1093     1     8     2    13
 -2.6976066229811652E-01 a      1094     1     8     2    14
  1.9887937425025301E-01 a      1095     1     8     2    15
  7.2961627753612576E-02 a      1096     1     8     2    16
  4.7278945167726727E-01 a      1097     1     8     2    17
  1.7292667745995505E-01 a      1098     1     8     2    18
  8.0064601498792576E-01 a      1099     1     8     2    19
 -1.1613671777375503E-01 a      1100     1     8     2    20
 -1.7703622353144111E-01 a      1101     1     9     2     1
 -3.3655464351973130E-01 a      1102     1     9     2     2
 -4.5055329114545561E-01 a      1103     1     9     2     3
  6.4722381701816600E-01 a      1104     1     9     2     4
  3.3589100711350089E-01 a      1105     1     9     2     5
  6.6155057120076899E-01 a      1106     1     9     2     6
  2.1025586561152207E-01 a      1107     1     9     2     7
  7.7299196342159027E-01 a      1108     1     9     2     8
  5.2840023297231031E-01 a      1109     1     9     2     9
  2.2398743326267201E-01 a      1110     1     9     2    10
  2.8511225507462379E-01 a      1111     1     9     2    11
  6.5227417668480103E-01 a      1112     1     9     2    12
 -1.3126377482617410E-01 a      1113     1     9     2    13
 -2.5782971953079542E-01 a      1114     1     9     2    14
  3.5717166997082367E-01 a      1115     1     9     2    15
  1.7341301386176577E-01 a      1116     1     9     2    16
 -2.5952345723180142E-01 a      1117     1     9     2    17
 -1.8902374081825535E-01 a      1118     1     9     2    18
 -8.5814721888231069E-02 a      1119     1     9     2    19
  4.3275621081947740E-01 a      1120     1     9     2    20
 -2.8710276852025735E-01 a      1121     1    10     2     1
 -5.9964877000192296E-01 a      1122     1    10     2     2
 -4.3173059551642251E-01 a      1123     1    10     2     3
 -1.2570645240994283E-01 a      1124     1    10     2     4
  4.8218690765604100E-01 a      1125     1    10     2     5
  2.4947213010917565E-01 a      1126     1    10     2     6
  3.3908202170035390E-01 a      1127     1    10     2     7
 -8.5765604360303371E-01 a      1128     1    10     2     8
 -3.9998950907407810E-01 a      1129     1    10     2     9
  3.1088881991711803E-01 a      1130     1    10     2    10
  2.1341163806980731E-01 a      1131     1    10     2    11
 -6.3771675785498383E-01 a      1132     1    10     2    12
 -3.6615463046067498E-01 a      1133     1    10     2    13
  1.8944099682870977E-01 a      1134     1    10     2    14
  2.3353249272709645E-01 a      1135     1    10     2    15
  1.8414570696968499E-01 a      1136     1    10     2    16
 -5.9777219845379814E-01 a      1137     1    10     2    17
  9.4356770781051397E-02 a      1138     1    10     2    18
  3.5159743796389177E-02 a      1139     1    10     2    19
 -3.3197869170520922E-01 a      1140     1    10     2    20
  4.3160307102276901E-01 a      1141     1    11     2     1
 -3.7182176651881294E-01 a      1142     1    11     2     2
  8.0340963882886279E-02 a      1143     1    11     2     3
  9.6883120910068232E-02 a      1144     1    11     2     4
 -3.6887373092536291E-01 a      1145     1    11     2     5
  5.7111268475994945E-02 a      1146     1    11     2     6
  3.9142099205519643E-02 a      1147     1    11     2     7
  3.0003945362696816E-01 a      1148     1    11     2     8
 -4.0660583744866384E-02 a      1149     1    11     2     9
  1.0523290846276147E-01 a      1150     1    11     2    10
  3.9673614528984696E-01 a      1151     1    11     2    11
 -2.5792223565855077E-01 a      1152     1    11     2    12
 -5.3717903771646458E-01 a      1153     1    11     2    13
  4.6390919349763815E-01 a      1154     1    11     2    14
 -2.2829165432856666E-01 a      1155     1    11     2    15
 -8.2847021119883707E-02 a      1156     1    11     2    16
  2.0717173398980410E-01 a      1157     1    11     2    17
 -3.4144981232846133E-01 a      1158     1    11     2    18
  2.1150078251628943E-01 a      1159     1    11     2    19
  2.6292545529306732E-01 a      1160     1    11     2    20
 -2.7067708794664136E-01 a      1161     1    12     2     1
  2.7261890225458785E-01 a      1162     1    12     2     2
 -5.8488323103411824E-03 a      1163     1    12     2     3
  5.0313994713233090E-01 a      1164     1    12     2     4
 -6.3725545272351525E-01 a      1165     1    12     2     5
  6.6643590594512181E-01 a      1166     1    12     2     6
  3.5762753032367683E-01 a      1167     1    12     2     7
 -2.6931389528972693E-01 a      1168     1    12     2     8
  2.2751162096220390E-01 a      1169     1    12     2     9
  3.2492716823433876E-01 a      1170     1    12     2    10
  2.9709584931475241E-01 a      1171     1    12     2    11
  7.5367903459943897E-01 a      1172     1    12     2    12
  9.7144908589508222E-02 a      1173     1    12     2    13
 -1.0166955874630224E+00 a      1174     1    12     2    14
 -3.1133800725841598E-01 a      1175     1    12     2    15
 -1.9140326623232246E-01 a      1176     1    12     2    16
  6.3681293542213335E-01 a      1177     1    12     2    17
 -1.0796507556421663E-01 a      1178     1    12     2    18
 -2.4804569523943523E-01 a      1179     1    12     2    19
  1.1612975701779850E-01 a      1180     1    12     2    20
 -5.6940582047785870E-01 a      1181     1    13     2     1
  3.1975785767892922E-01 a      1182     1    13     2     2
  4.8222688705494715E-01 a      1183     1    13     2     3
  7.3433503827053312E-02 a      1184     1    13     2     4
  3.5027249364678353E-01 a      1185     1    13     2     5
 -3.8159944957163383E-01 a      1186     1    13     2     6
 -2.3138696626125090E-02 a      1187     1    13     2     7
  3.2205904620771847E-01 a      1188     1    13     2     8
 -5.6027628667434874E-02 a      1189     1    13     2     9
  1.3529491654617545E-02 a      1190     1    13     2    10
 -5.8528082406105963E-01 a      1191     1    13     2    11
  3.6942308264540846E-01 a      1192     1    13     2    12
  6.7256730377574148E-01 a      1193     1    13     2    13
 -2.3241599164096841E-01 a      1194     1    13     2    14
  7.8396390978056688E-02 a      1195     1    13     2    15
 -2.1567323943482805E-02 a      1196     1    13     2    16
  2.2790742351050622E-01 a      1197     1    13     2    17
 -8.0197839384799074E-02 a      1198     1    13     2    18
 -3.3992357397160644E-01 a      1199     1    13     2    19
 -1.7070499407731032E-01 a      1200     1    13     2    20
 -4.9737334145195805E-01 a      1201     1    14     2     1
  1.4375720825933369E-01 a      1202     1    14     2     2
 -1.3769043189883878E-01 a      1203     1    14     2     3
  5.4236552512504803E-02 a      1204     1    14     2     4
  1.0681965500096720E+00 a      1205     1    14     2     5
  3.4453011397213545E-01 a      1206     1    14     2     6
  1.7028880447823036E-01 a      1207     1    14     2     7
 -4.0188619902620965E-01 a      1208     1    14     2     8
  8.9915714644369024E-02 a      1209     1    14     2     9
 -2.6524902468616585E-01 a      1210     1    14     2    10
 -2.3070129804885711E-01 a      1211     1    14     2    11
 -1.7141492896024188E-01 a      1212     1    14     2    12
 -2.9645397579120808E-01 a      1213     1    14     2    13
  9.4899292318020592E-02 a      1214     1    14     2    14
 -3.8095891278141875E-01 a      1215     1    14     2    15
  2.8667964995461254E-01 a      1216     1    14     2    16
 -3.7498979633997653E-01 a      1217     1    14     2    17
 -7.4058798610638674E-02 a      1218     1    14     2    18
 -4.9356447191907488E-01 a      1219     1    14     2    19
  4.3248415505918031E-01 a      1220     1    14     2    20
 -2.3584555822247297E-01 a      1221     1    15     2     1
  1.7073858854357421E-01 a      1222     1    15     2     2
  2.3864616597258834E-01 a      1223     1    15     2     3
  1.1403216532187803E-01 a      1224     1    15     2     4
 -4.5125706317042502E-01 a      1225     1    15     2     5
 -2.8347494335988460E-01 a      1226     1    15     2     6
 -4.7830285107693810E-01 a      1227     1    15     2     7
  4.9043363043658439E-01 a      1228     1    15     2     8
  7.5474319006977639E-02 a      1229     1    15     2     9
  4.3290599423088916E-01 a      1230     1    15     2    10
 -3.2361326016936870E-01 a      1231     1    15     2    11
  5.7495470072192537E-02 a      1232     1    15     2    12
  3.4195804844475514E-01 a      1233     1    15     2    13
 -3.9372915230021371E-01 a      1234     1    15     2    14
 -4.0120289663733849E-01 a      1235     1    15     2    15
 -2.5182141452104850E-01 a      1236     1    15     2    16
  8.5612852411308490E-02 a      1237     1    15     2    17
 -3.1169552800359523E-01 a      1238     1    15     2    18
  4.8739246503897125E-03 a      1239     1    15     2    19
  9.9327196455769318E-03 a      1240     1    15     2    20
  2.7038023304039344E-01 a      1241     1    16     2     1
  1.6529793851980606E-01 a      1242     1    16     2     2
 -1.4481486104544304E-02 a      1243     1    16     2     3
  2.5186484208954307E-02 a      1244     1    16     2     4
 -1.1790183122463886E-01 a      1245     1    16     2     5
 -1.0655465277594471E-01 a      1246     1    16     2     6
 -3.4661008828830789E-02 a      1247     1    16     2     7
  7.3253578320749774E-02 a      1248     1    16     2     8
 -8.0107903877559158E-02 a      1249     1    16     2     9
 -1.1993172227614415E-02 a      1250     1    16     2    10
  1.1068456743724588E-02 a      1251     1    16     2    11
  1.7678426924959609E-01 a      1252     1    16     2    12
 -3.7398972622525911E-01 a      1253     1    16     2    13
 -2.7566366475128024E-01 a      1254     1    16     2    14
 -9.5925287525920763E-02 a      1255     1    16     2    15
 -6.7007149797573010E-02 a      1256     1    16     2    16
  7.6507898007814592E-03 a      1257     1    16     2    17
  9.9885620565023939E-02 a      1258     1    16     2    18
  1.1686445075041565E-01 a      1259     1    16     2    19
 -1.2353421174923118E-01 a      1260     1    16     2    20
  4.4946805290974123E-01 a      1261     1    17     2     1
 -2.9248558402957875E-01 a      1262     1    17     2     2
 -4.3163893467962145E-03 a      1263     1    17     2     3
  3.9494515074557668E-01 a      1264     1    17     2     4
  1.6835408413458244E-01 a      1265     1    17     2     5
  3.9962143073537182E-01 a      1266     1    17     2     6
  2.9631814396593364E-01 a      1267     1    17     2     7
  3.7487294294436996E-01 a      1268     1    17     2     8
  3.9899309266923605E-01 a      1269     1    17     2     9
 -1.5032661549327500E-01 a      1270     1    17     2    10
  3.4300415861746114E-01 a      1271     1    17     2    11
  4.5552269890489455E-01 a      1272     1    17     2    12
  1.2258359034173065E-01 a      1273     1    17     2    13
 -2.7966161582542365E-01 a      1274     1    17     2    14
  4.6533356560556427E-01 a      1275     1    17     2    15
  1.6249664177143616E-01 a      1276     1    17     2    16
  1.0530149076947457E+00 a      1277     1    17     2    17
  5.4278887795746378E-01 a      1278     1    17     2    18
  2.6710739882125772E-01 a      1279     1    17     2    19
  7.2049025180590254E-01 a      1280     1    17     2    20
  2.2908637964559841E-01 a      1281     1    18     2     1
 -5.3007916828802426E-01 a      1282     1    18     2     2
 -1.0275907951037284E-01 a      1283     1    18     2     3
  4.0201965619325059E-01 a      1284     1    18     2     4
  2.9165324021784805E-01 a      1285     1    18     2     5
  5.8357982568560762E-01 a      1286     1    18     2     6
  1.2474900044148755E-01 a      1287     1    18     2     7
  6.2312319086546109E-01 a      1288     1    18     2     8
 -9.6011680188916662E-02 a      1289     1    18     2     9
  1.8107066181636791E-01 a      1290     1    18     2    10
 -5.5297721576176448E-02 a      1291     1    18     2    11
  5.0229451700416664E-02 a      1292     1    18     2    12
  2.5963602892187027E-01 a      1293     1    18     2    13
  6.3455490274130644E-01 a      1294     1    18     2    14
 -6.2391843049907048E-01 a      1295     1    18     2    15
  2.1506647648332662E-02 a      1296     1    18     2    16
  2.7581540492542772E-01 a      1297     1    18     2    17
 -4.5987672376478511E-01 a      1298     1    18     2    18
  3.3193908891596624E-01 a      1299     1    18     2    19
 -2.5778835355135998E-01 a      1300     1    18     2    20
  8.7364370555687731E-01 a      1301     1    19     2     1
 -9.3592526000059340E-01 a      1302     1    19     2     2
 -6.5156547214469007E-02 a      1303     1    19     2     3
  3.9760881643811224E-01 a      1304     1    19     2     4
 -1.2895853705822308E-01 a      1305     1    19     2     5
  2.0676827679481768E-01 a      1306     1    19     2     6
 -2.8823455762566008E-01 a      1307     1    19     2     7
 -8.1421493770805287E-01 a      1308     1    19     2     8
  5.7043726828396046E-01 a      1309     1    19     2     9
  6.1282092656107368E-01 a      1310     1    19     2    10
 -2.6529883051009734E-01 a      1311     1    19     2    11
 -2.0417069084414777E-01 a      1312     1    19     2    12
  4.2230877535083013E-02 a      1313     1    19     2    13
  8.3403342292856986E-01 a      1314     1    19     2    14
  3.6858462054495394E-01 a      1315     1    19     2    15
 -6.5370026157193215E-02 a      1316     1    19     2    16
 -5.6839331635811993E-02 a      1317     1    19     2    17
 -6.6511872473037781E-01 a      1318     1    19     2    18
  5.3514370806255618E-01 a      1319     1    19     2    19
 -5.0854101842090893E-01 a      1320     1    19     2    20
  4.4143813605290427E-01 a      1321     1    20     2     1
 -7.2994835061629759E-01 a      1322     1    20     2     2
  1.7003536144011860E-01 a      1323     1    20     2     3
 -3.4366401882684244E-01 a      1324     1    20     2     4
 -4.7603458409493878E-02 a      1325     1    20     2     5
 -2.4525042841289763E-01 a      1326     1    20     2     6
 -3.1925427634836356E-01 a      1327     1    20     2     7
 -2.1884096372937334E-01 a      1328     1    20     2     8
 -8.6922155361085129E-01 a      1329     1    20     2     9
 -2.6073972697124581E-01 a      1330     1    20     2    10
 -2.1130442800046209E-01 a      1331     1    20     2    11
 -7.5569393347583491E-01 a      1332     1    20     2    12
 -5.2419627860193796E-01 a      1333     1    20     2    13
  1.0042893304544379E-01 a      1334     1    20     2    14
 -1.3814878425960558E-01 a      1335     1    20     2    15
  7.3748781806263278E-03 a      1336     1    20     2    16
  3.9962677495032928E-01 a      1337     1    20     2    17
  2.9343949432375172E-01 a      1338     1    20     2    18
  2.5079630195098612E-01 a      1339     1    20     2    19
 -1.0587169916358108E-01 a      1340     1    20     2    20
  4.5299133052169914E-03 b      1341     2     1
 -1.5402704150797369E-01 b      1342     2     2
  2.0055276416324008E-01 b      1343     2     3
 -5.9678218004640937E-01 b      1344     2     4
  3.9930157783230480E-01 b      1345     2     5
  1.4809111615668216E-02 b      1346     2     6
  6.2413403751654307E-02 b      1347     2     7
  2.2605905134301343E-02 b      1348     2     8
 -2.3917957767612549E-01 b      1349     2     9
  1.0167228448491360E-01 b      1350     2    10
 -7.2457998979680374E-02 b      1351     2    11
 -2.2986803649544768E-01 b      1352     2    12
  4.1698590342720010E-01 b      1353     2    13
  1.1645040356654107E-01 b      1354     2    14
  3.1676617133151716E-02 b      1355     2    15
 -6.0793971294816354E-02 b      1356     2    16
  9.1171162088007435E-02 b      1357     2    17
 -5.1490097512133870E-01 b      1358     2    18
 -1.5295531877662141E-01 b      1359     2    19
  4.3953142124619143E-01 b      1360     2    20
 -3.5082860026724427E-01 a      1361     2     1     3     1
 -4.5934735759651601E-01 a      1362     2     2     3     1
  4.0211289653625559E-01 a      1363     2     3     3     1
  1.0217345988926669E+00 a      1364     2     4     3     1
 -4.4967472564586292E-01 a      1365     2     5     3     1
 -4.7749728035680505E-01 a      1366     2     6     3     1
  7.4279787171036427E-01 a      1367     2     7     3     1
  6.0907628106858194E-02 a      1368     2     8     3     1
  7.0002799570398777E-01 a      1369     2     9     3     1
 -7.4895687036526060E-01 a      1370     2    10     3     1
 -5.1257027366669462E-02 a      1371     2    11     3     1
  2.3521291105070818E-01 a      1372     2    12     3     1
 -7.7242319575740126E-01 a      1373     2    13     3     1
  5.5667217295281846E-01 a      1374     2    14     3     1
 -3.2252442279808968E-01 a      1375     2    15     3     1
  1.2775456367561305E-01 a      1376     2    16     3     1
 -8.6684553518012442E-01 a      1377     2    17     3     1
  1.0498499168971236E+00 a      1378     2    18     3     1
  9.3359487948899444E-01 a      1379     2    19     3     1
 -1.0467115916455032E+00 a      1380     2    20     3     1
 -3.0332583444390548E-01 b      1381     3     1
