################################################################################
# Neural network connection values (weights and biases).
################################################################################
# Col  Name       Description
################################################################################
# 1    connection Neural network connection value.
# 2    t          Connection type (a = weight, b = bias).
# 3    index      Index enumerating weights.
# 4    l_s        Starting point layer (end point layer for biases).
# 5    n_s        Starting point neuron in starting layer (end point neuron for biases).
# 6    l_e        End point layer.
# 7    n_e        End point neuron in end layer.
################################################################################
#                      1 2         3     4     5     6     7
#             connection t     index   l_s   n_s   l_e   n_e
############################################################
 -1.1736932914393965E-01 a         1     0     1     1     1
 -1.1540608374341449E-01 a         2     0     1     1     2
  1.0287021892389352E-01 a         3     0     1     1     3
  1.9645251784955428E-01 a         4     0     1     1     4
 -1.2055262123158274E-01 a         5     0     1     1     5
  2.7071585032894002E-01 a         6     0     1     1     6
  1.6100660575297368E-01 a         7     0     1     1     7
  1.1293897763716503E-01 a         8     0     1     1     8
  3.5143948475763376E-01 a         9     0     1     1     9
  2.6038902768474037E-01 a        10     0     1     1    10
  4.4646723987131054E-01 a        11     0     1     1    11
 -3.6126068451194099E-01 a        12     0     1     1    12
  3.8339452689897058E-01 a        13     0     1     1    13
  9.1524650078859432E-02 a        14     0     1     1    14
 -3.2545020193266033E-01 a        15     0     1     1    15
 -1.7019257236798022E-01 a        16     0     1     1    16
  2.2811162442658053E-01 a        17     0     1     1    17
 -1.3807415365805731E-01 a        18     0     1     1    18
  6.1044929574801975E-02 a        19     0     1     1    19
 -4.3260484283268161E-02 a        20     0     1     1    20
  6.7316226985227337E-02 a        21     0     1     1    21
 -2.4548382297222662E-01 a        22     0     1     1    22
 -3.5331101701832970E-02 a        23     0     1     1    23
  4.6711243536799579E-01 a        24     0     1     1    24
  3.4659114680661252E-01 a        25     0     1     1    25
 -5.2670989141961200E-01 a        26     0     1     1    26
  2.0615877579702728E-02 a        27     0     1     1    27
 -4.8025104280011430E-02 a        28     0     1     1    28
 -6.8352200355227877E-02 a        29     0     1     1    29
  5.2983916370439277E-01 a        30     0     1     1    30
 -1.1242937454391058E-01 a        31     0     2     1     1
  3.9522223582781651E-02 a        32     0     2     1     2
  3.5816210590654159E-02 a        33     0     2     1     3
  4.9797489291858416E-01 a        34     0     2     1     4
  1.5521217094870085E-01 a        35     0     2     1     5
 -4.5599821251516175E-02 a        36     0     2     1     6
 -4.0649443247685560E-02 a        37     0     2     1     7
 -1.8770807983316334E-01 a        38     0     2     1     8
  2.2423245567656061E-01 a        39     0     2     1     9
 -3.3879611834513074E-01 a        40     0     2     1    10
  1.8950018295872040E-01 a        41     0     2     1    11
  1.7079748198218309E-01 a        42     0     2     1    12
 -5.4845740499573310E-02 a        43     0     2     1    13
  1.5057840746734216E-01 a        44     0     2     1    14
 -3.4841512598683781E-03 a        45     0     2     1    15
  1.1913324778947282E-01 a        46     0     2     1    16
 -6.7212891413427539E-02 a        47     0     2     1    17
 -1.4520468571359238E-01 a        48     0     2     1    18
 -4.3075186097625673E-01 a        49     0     2     1    19
  2.9742682040161400E-01 a        50     0     2     1    20
 -7.7713804728643601E-02 a        51     0     2     1    21
 -1.6747408639286546E-01 a        52     0     2     1    22
 -4.0936243267936784E-01 a        53     0     2     1    23
  2.1486861313155278E-01 a        54     0     2     1    24
  1.1951252389228757E-01 a        55     0     2     1    25
 -5.0605432323130628E-01 a        56     0     2     1    26
  2.2709454516640934E-01 a        57     0     2     1    27
  3.8563398730601806E-01 a        58     0     2     1    28
 -6.1361151433064122E-02 a        59     0     2     1    29
  4.0087195647118518E-01 a        60     0     2     1    30
 -1.6608827216234967E-01 a        61     0     3     1     1
 -1.8021391485865965E-01 a        62     0     3     1     2
  8.7064122960150148E-02 a        63     0     3     1     3
  1.2070896085245725E-01 a        64     0     3     1     4
  1.8614694669570254E-02 a        65     0     3     1     5
  6.4784396889285611E-02 a        66     0     3     1     6
 -1.3356442062081691E-01 a        67     0     3     1     7
 -8.8720929691639028E-02 a        68     0     3     1     8
 -1.1706912936651302E-01 a        69     0     3     1     9
 -6.8498290118318402E-03 a        70     0     3     1    10
  1.4763792691893779E-01 a        71     0     3     1    11
  4.4250183369351143E-01 a        72     0     3     1    12
  2.3022192088457086E-01 a        73     0     3     1    13
 -2.9279717550445322E-02 a        74     0     3     1    14
 -1.3059958574637492E-01 a        75     0     3     1    15
  2.0643420526665218E-02 a        76     0     3     1    16
 -5.8728716322412514E-02 a        77     0     3     1    17
 -1.0797121095904475E-02 a        78     0     3     1    18
  1.8184430252125344E-01 a        79     0     3     1    19
  9.1080128314390080E-02 a        80     0     3     1    20
  1.8480522295641127E-01 a        81     0     3     1    21
 -1.9980475588555607E-01 a        82     0     3     1    22
 -3.3982035113852921E-01 a        83     0     3     1    23
 -1.5993034415467167E-01 a        84     0     3     1    24
 -1.3285872208145136E-01 a        85     0     3     1    25
 -1.4759021552131207E-01 a        86     0     3     1    26
 -5.2567139604842803E-03 a        87     0     3     1    27
 -1.3123068207560459E-01 a        88     0     3     1    28
 -2.3642000039167205E-01 a        89     0     3     1    29
 -1.4389385437552782E-01 a        90     0     3     1    30
 -1.2363687678933302E-01 a        91     0     4     1     1
  6.6483481073458667E-02 a        92     0     4     1     2
 -1.3455199900772818E-01 a        93     0     4     1     3
  1.2378295099958146E-01 a        94     0     4     1     4
 -8.0502070735164050E-02 a        95     0     4     1     5
  6.9322936995143053E-02 a        96     0     4     1     6
  9.6720066104266880E-02 a        97     0     4     1     7
  8.7748352365952381E-02 a        98     0     4     1     8
  3.9929660716562065E-02 a        99     0     4     1     9
 -5.1246443956810807E-02 a       100     0     4     1    10
 -3.7743213756929167E-01 a       101     0     4     1    11
  4.4077151866484796E-02 a       102     0     4     1    12
  1.6567850517247001E-01 a       103     0     4     1    13
  1.3454823060223503E-01 a       104     0     4     1    14
 -4.0938365713219105E-01 a       105     0     4     1    15
  2.8981175960977107E-01 a       106     0     4     1    16
  1.6801301043524081E-01 a       107     0     4     1    17
  2.5218988181828028E-01 a       108     0     4     1    18
  3.4104921707347607E-02 a       109     0     4     1    19
 -1.8455332594904139E-01 a       110     0     4     1    20
  1.5553526968524256E-01 a       111     0     4     1    21
  8.8935474272648321E-02 a       112     0     4     1    22
  2.9988020865186671E-01 a       113     0     4     1    23
 -2.9166215168847159E-01 a       114     0     4     1    24
 -2.8695432791526938E-02 a       115     0     4     1    25
  1.1951517866946969E-02 a       116     0     4     1    26
  2.2312421952009037E-02 a       117     0     4     1    27
 -3.2235302848924069E-01 a       118     0     4     1    28
  1.1791975264960844E-01 a       119     0     4     1    29
  5.4660705183829719E-02 a       120     0     4     1    30
 -9.3326255972471406E-02 a       121     0     5     1     1
  5.1255383931805210E-01 a       122     0     5     1     2
 -7.8805377064942950E-02 a       123     0     5     1     3
  4.5289189097857019E-01 a       124     0     5     1     4
  7.0539704369296852E-02 a       125     0     5     1     5
  8.6864940651213973E-02 a       126     0     5     1     6
  6.5056832694662237E-01 a       127     0     5     1     7
  5.0403509754687748E-01 a       128     0     5     1     8
  2.5664506181542372E-02 a       129     0     5     1     9
  1.2836541761691995E+00 a       130     0     5     1    10
  2.1737735669026204E-01 a       131     0     5     1    11
 -4.3472562652321906E-01 a       132     0     5     1    12
  2.9533399411615513E-01 a       133     0     5     1    13
 -5.6157331121329546E-01 a       134     0     5     1    14
 -1.0715398323637906E-01 a       135     0     5     1    15
  5.4126940600880447E-01 a       136     0     5     1    16
  8.1579973711955578E-02 a       137     0     5     1    17
  8.9954533622978494E-01 a       138     0     5     1    18
  3.2813048416836860E-01 a       139     0     5     1    19
  1.6485863070711154E-01 a       140     0     5     1    20
 -2.9958828624091771E-01 a       141     0     5     1    21
 -9.5301402317045633E-02 a       142     0     5     1    22
  4.8415934075578021E-01 a       143     0     5     1    23
  7.7826768761558016E-02 a       144     0     5     1    24
 -9.1032974778581910E-02 a       145     0     5     1    25
  2.7541511054447881E-01 a       146     0     5     1    26
  8.5462517218847761E-02 a       147     0     5     1    27
 -5.7916128239686271E-01 a       148     0     5     1    28
 -2.5916853960301667E-01 a       149     0     5     1    29
  3.1725307647320017E-01 a       150     0     5     1    30
  8.7451331802632370E-02 a       151     0     6     1     1
 -5.4387171041595950E-01 a       152     0     6     1     2
 -1.3875733359380701E-01 a       153     0     6     1     3
 -6.1010010424470706E-01 a       154     0     6     1     4
  1.8322208256100306E-01 a       155     0     6     1     5
 -2.3851521011672228E-01 a       156     0     6     1     6
 -3.9956961431124671E-01 a       157     0     6     1     7
 -5.5490634453226340E-01 a       158     0     6     1     8
 -4.6732936361195265E-01 a       159     0     6     1     9
 -8.4878063674565807E-01 a       160     0     6     1    10
 -5.2288168095551324E-01 a       161     0     6     1    11
  1.1770453425081795E+00 a       162     0     6     1    12
 -5.9979260726366801E-01 a       163     0     6     1    13
  2.5551171058221267E-01 a       164     0     6     1    14
  2.3750053508538377E-01 a       165     0     6     1    15
  2.2620097166872186E-01 a       166     0     6     1    16
 -2.7239991840040306E-01 a       167     0     6     1    17
 -3.2361893202119918E-01 a       168     0     6     1    18
 -3.9721965769015335E-02 a       169     0     6     1    19
  1.9685022683016376E-02 a       170     0     6     1    20
  4.5671824235247777E-01 a       171     0     6     1    21
  3.3364200042934083E-01 a       172     0     6     1    22
 -2.5285485817827935E-01 a       173     0     6     1    23
 -7.2380555635863930E-01 a       174     0     6     1    24
 -3.4540574726995432E-01 a       175     0     6     1    25
  2.1872896722317681E-01 a       176     0     6     1    26
 -1.8742809466123445E-01 a       177     0     6     1    27
  3.6799504706507263E-01 a       178     0     6     1    28
  1.1314286868130842E-01 a       179     0     6     1    29
 -5.5579470591518609E-01 a       180     0     6     1    30
 -4.2984686078785117E-01 a       181     0     7     1     1
  4.4859825869501041E-01 a       182     0     7     1     2
 -1.1463773264079632E-01 a       183     0     7     1     3
 -4.2459229472129884E-01 a       184     0     7     1     4
 -3.0462715714937121E-02 a       185     0     7     1     5
  1.6100833566092404E-01 a       186     0     7     1     6
  1.0219328803481718E-01 a       187     0     7     1     7
  1.5822578507660151E-01 a       188     0     7     1     8
  5.0591262032218164E-02 a       189     0     7     1     9
  8.5032119075327273E-01 a       190     0     7     1    10
  3.3555369956281506E-01 a       191     0     7     1    11
  1.8777963154904265E-01 a       192     0     7     1    12
 -5.3689415215426813E-02 a       193     0     7     1    13
 -9.7556258852178140E-02 a       194     0     7     1    14
  6.3261173239847945E-01 a       195     0     7     1    15
 -1.2140686176364875E-01 a       196     0     7     1    16
  2.9952291916525331E-01 a       197     0     7     1    17
  4.1773508849405244E-01 a       198     0     7     1    18
  2.1317706566204703E-01 a       199     0     7     1    19
 -2.4399271878973391E-01 a       200     0     7     1    20
 -4.8030991144182583E-01 a       201     0     7     1    21
  1.5997991172359755E-01 a       202     0     7     1    22
  7.8369932650492657E-01 a       203     0     7     1    23
 -6.7669084053721484E-01 a       204     0     7     1    24
  1.0146401030161347E-02 a       205     0     7     1    25
  4.8899773042257433E-01 a       206     0     7     1    26
 -6.5321888486845975E-02 a       207     0     7     1    27
 -2.2971517532356658E-01 a       208     0     7     1    28
 -1.1262814815198162E-01 a       209     0     7     1    29
 -1.2201397964052238E-02 a       210     0     7     1    30
  1.4980553850372636E-02 a       211     0     8     1     1
 -3.4560259965356555E-02 a       212     0     8     1     2
  1.1681034762139131E-01 a       213     0     8     1     3
  1.8925794150483736E-02 a       214     0     8     1     4
  9.1631997055101319E-02 a       215     0     8     1     5
 -1.7290776396319466E-01 a       216     0     8     1     6
 -1.2096640024535315E-02 a       217     0     8     1     7
 -7.8884045855642759E-01 a       218     0     8     1     8
  8.0444298152909133E-01 a       219     0     8     1     9
 -9.6407434066892250E-01 a       220     0     8     1    10
  8.3280570479762686E-02 a       221     0     8     1    11
 -5.9155679838938224E-01 a       222     0     8     1    12
  1.1920735923113985E+00 a       223     0     8     1    13
  4.8573362679205001E-01 a       224     0     8     1    14
 -4.5729500353045405E-01 a       225     0     8     1    15
 -5.9860781151945897E-01 a       226     0     8     1    16
 -7.4208984898329933E-01 a       227     0     8     1    17
  2.3763465071397114E-01 a       228     0     8     1    18
  1.7887385648906998E-01 a       229     0     8     1    19
 -3.6652854422957948E-01 a       230     0     8     1    20
  1.7224202427640600E-01 a       231     0     8     1    21
 -5.7915742738029397E-01 a       232     0     8     1    22
 -3.6605625858750790E-01 a       233     0     8     1    23
  7.5911764923432345E-01 a       234     0     8     1    24
  7.1158915137623246E-01 a       235     0     8     1    25
  4.4115261540841610E-01 a       236     0     8     1    26
 -1.1713317560305885E-01 a       237     0     8     1    27
  3.4320629169547823E-01 a       238     0     8     1    28
  4.8476471333824173E-01 a       239     0     8     1    29
 -3.4869336098885145E-01 a       240     0     8     1    30
 -2.7903689429241479E-01 a       241     0     9     1     1
 -6.0445547350837325E-01 a       242     0     9     1     2
  1.0041471861400684E+00 a       243     0     9     1     3
  4.8897207067347548E-01 a       244     0     9     1     4
 -8.8692766077440754E-01 a       245     0     9     1     5
 -1.8814086914552480E-01 a       246     0     9     1     6
  6.0673188132875633E-01 a       247     0     9     1     7
  5.4374829380333989E-01 a       248     0     9     1     8
 -8.6000697930658065E-01 a       249     0     9     1     9
  8.6104007287205186E-01 a       250     0     9     1    10
  1.0593128704944626E-02 a       251     0     9     1    11
 -5.9910113013562238E-01 a       252     0     9     1    12
  3.4581675822114694E-01 a       253     0     9     1    13
 -6.2869876725172280E-01 a       254     0     9     1    14
 -4.1277492553550332E-01 a       255     0     9     1    15
 -5.9131864607457574E-01 a       256     0     9     1    16
  3.5788452551129224E-01 a       257     0     9     1    17
 -7.0073359941770108E-01 a       258     0     9     1    18
  9.3108727112956879E-01 a       259     0     9     1    19
  7.6316269307183049E-01 a       260     0     9     1    20
  1.8069466685668384E-01 a       261     0     9     1    21
 -7.9208617039313745E-01 a       262     0     9     1    22
 -6.7647057946149100E-02 a       263     0     9     1    23
 -3.7091982863878731E-01 a       264     0     9     1    24
  5.6848720504136174E-01 a       265     0     9     1    25
 -9.4718601420575621E-01 a       266     0     9     1    26
  6.0379871523905637E-01 a       267     0     9     1    27
 -6.1671842139983957E-01 a       268     0     9     1    28
 -5.3154363652095504E-01 a       269     0     9     1    29
  1.1133085409265957E+00 a       270     0     9     1    30
  7.2684129636000883E-01 a       271     0    10     1     1
  1.6632502567864513E-01 a       272     0    10     1     2
 -1.4669850434388596E+00 a       273     0    10     1     3
 -2.8393541694942159E-01 a       274     0    10     1     4
 -1.8281989730879928E-02 a       275     0    10     1     5
  7.1373130922867256E-01 a       276     0    10     1     6
 -1.2708204992431438E+00 a       277     0    10     1     7
 -1.7409292390533633E+00 a       278     0    10     1     8
  3.2271860739898539E-01 a       279     0    10     1     9
 -7.1111947401155715E-02 a       280     0    10     1    10
  6.2126840209690326E-01 a       281     0    10     1    11
  7.9509456545645651E-01 a       282     0    10     1    12
 -2.2610005441078004E-01 a       283     0    10     1    13
 -3.1472549337681405E-01 a       284     0    10     1    14
 -4.6469825765503536E-01 a       285     0    10     1    15
  5.0647529305197003E-01 a       286     0    10     1    16
 -5.5676704642436703E-01 a       287     0    10     1    17
  2.3762252096911199E-01 a       288     0    10     1    18
 -1.8219583919448228E+00 a       289     0    10     1    19
  3.1443327004561916E-01 a       290     0    10     1    20
  7.7442134762409518E-03 a       291     0    10     1    21
 -2.7114171255784281E-01 a       292     0    10     1    22
 -4.0394824863350226E-01 a       293     0    10     1    23
  1.5914601446691861E-02 a       294     0    10     1    24
 -1.6643166962154987E+00 a       295     0    10     1    25
  1.0160264313839871E+00 a       296     0    10     1    26
  6.7194943005558716E-01 a       297     0    10     1    27
  1.1570954808708396E+00 a       298     0    10     1    28
  7.1457860517678695E-01 a       299     0    10     1    29
 -1.3316171942880398E-01 a       300     0    10     1    30
 -5.3009256933382976E-01 a       301     0    11     1     1
 -2.5360010799883748E-01 a       302     0    11     1     2
  4.2464657213013435E-01 a       303     0    11     1     3
 -1.2177692882875597E+00 a       304     0    11     1     4
  4.7358296139508801E-02 a       305     0    11     1     5
 -6.1282421621347205E-01 a       306     0    11     1     6
  1.3649506453298643E-01 a       307     0    11     1     7
  2.3867962107163990E-01 a       308     0    11     1     8
  9.8914750755982572E-01 a       309     0    11     1     9
 -4.8127158722200736E-01 a       310     0    11     1    10
 -8.7397126329744793E-02 a       311     0    11     1    11
  4.3160919655556595E-01 a       312     0    11     1    12
 -2.0708340595846966E-01 a       313     0    11     1    13
 -1.2335505257143005E-01 a       314     0    11     1    14
  2.3314887297092229E-01 a       315     0    11     1    15
  2.3258479523913261E-01 a       316     0    11     1    16
 -2.6644672261874014E-01 a       317     0    11     1    17
 -1.5147794987573457E-01 a       318     0    11     1    18
  6.6842481245501828E-01 a       319     0    11     1    19
 -5.2193857477719374E-01 a       320     0    11     1    20
  4.7066816525988001E-02 a       321     0    11     1    21
 -3.9525919386617603E-01 a       322     0    11     1    22
 -1.8779161569557662E-01 a       323     0    11     1    23
  4.9090326461713470E-02 a       324     0    11     1    24
  3.8105195080836785E-01 a       325     0    11     1    25
 -2.1490041439634561E-01 a       326     0    11     1    26
  2.3876583801374768E-01 a       327     0    11     1    27
  8.1086818101698044E-02 a       328     0    11     1    28
 -2.0774369598028922E-01 a       329     0    11     1    29
 -7.0250615241612663E-02 a       330     0    11     1    30
  4.9959319395607042E-02 a       331     0    12     1     1
  4.2940215478774085E-01 a       332     0    12     1     2
  4.2766877255900626E-01 a       333     0    12     1     3
  1.2061418111318694E+00 a       334     0    12     1     4
  4.5720631967352382E-01 a       335     0    12     1     5
 -3.5570905062539765E-01 a       336     0    12     1     6
  7.4170651588899772E-01 a       337     0    12     1     7
  3.0435111266638049E-01 a       338     0    12     1     8
 -4.7771950633076474E-02 a       339     0    12     1     9
  1.2359857171787039E+00 a       340     0    12     1    10
 -9.0494982096943755E-01 a       341     0    12     1    11
 -1.2576363770705070E+00 a       342     0    12     1    12
  7.3031080435915366E-03 a       343     0    12     1    13
  4.3176409355971707E-01 a       344     0    12     1    14
 -1.5894230029728129E-03 a       345     0    12     1    15
  7.3239662900250224E-01 a       346     0    12     1    16
  3.5624717447554466E-01 a       347     0    12     1    17
  3.7740069951078004E-01 a       348     0    12     1    18
  3.6124884143987387E-02 a       349     0    12     1    19
 -6.7785746930551594E-01 a       350     0    12     1    20
 -3.7477108126987174E-01 a       351     0    12     1    21
  4.6646213334345460E-01 a       352     0    12     1    22
  1.3373629015565927E+00 a       353     0    12     1    23
  2.4463522115602146E-01 a       354     0    12     1    24
  1.1433886844821548E+00 a       355     0    12     1    25
 -1.2904360989067090E+00 a       356     0    12     1    26
 -1.1210630492977045E+00 a       357     0    12     1    27
 -1.1245313046567038E+00 a       358     0    12     1    28
  7.3609077732773545E-02 a       359     0    12     1    29
 -4.8027384534958428E-01 a       360     0    12     1    30
  7.2424911780577264E-02 a       361     0    13     1     1
 -5.7624603107974640E-02 a       362     0    13     1     2
  1.4806961034173804E+00 a       363     0    13     1     3
 -4.5075099683079234E-01 a       364     0    13     1     4
 -6.0283599935587051E-01 a       365     0    13     1     5
  1.0542701663624834E-01 a       366     0    13     1     6
 -9.6812855118284258E-01 a       367     0    13     1     7
  2.7736924880986580E-01 a       368     0    13     1     8
 -1.1999298566899644E-01 a       369     0    13     1     9
 -1.3443415352419721E-01 a       370     0    13     1    10
  2.5277938380320364E-01 a       371     0    13     1    11
 -4.8010510549198337E-01 a       372     0    13     1    12
 -1.0974441128261052E+00 a       373     0    13     1    13
  1.1262832246428991E+00 a       374     0    13     1    14
  1.3220155192393235E+00 a       375     0    13     1    15
 -1.0641315029847942E+00 a       376     0    13     1    16
  2.6634502886996381E-01 a       377     0    13     1    17
 -3.5443147201049907E-01 a       378     0    13     1    18
  1.1957731106119982E+00 a       379     0    13     1    19
  8.6227692875223039E-01 a       380     0    13     1    20
  3.9586570041709718E-01 a       381     0    13     1    21
  1.6879100800126809E+00 a       382     0    13     1    22
  7.1020846375676039E-01 a       383     0    13     1    23
 -7.2851319386951885E-01 a       384     0    13     1    24
  5.9784137149196559E-01 a       385     0    13     1    25
 -4.3123488272051669E-01 a       386     0    13     1    26
  3.3706052072023995E-01 a       387     0    13     1    27
  4.4568460535485033E-01 a       388     0    13     1    28
  4.3447526851916146E-01 a       389     0    13     1    29
 -1.9146750253293487E-01 a       390     0    13     1    30
 -1.3181443436270587E-01 a       391     0    14     1     1
 -3.1558760542113790E-02 a       392     0    14     1     2
 -7.7432228423102545E-01 a       393     0    14     1     3
 -4.9135968628962762E-01 a       394     0    14     1     4
  1.1853792990287759E-01 a       395     0    14     1     5
 -3.9604419493448745E-01 a       396     0    14     1     6
 -8.0557337979884891E-01 a       397     0    14     1     7
  5.6547402756549880E-01 a       398     0    14     1     8
  4.1418463634427310E-01 a       399     0    14     1     9
 -1.8626725740966854E-01 a       400     0    14     1    10
 -3.1034901728681757E-02 a       401     0    14     1    11
  8.2671338551056628E-01 a       402     0    14     1    12
  6.0956948266003608E-01 a       403     0    14     1    13
 -6.6068797447137728E-02 a       404     0    14     1    14
 -1.7454184010913498E-01 a       405     0    14     1    15
  4.2755413472839948E-01 a       406     0    14     1    16
 -2.8256001376355716E-01 a       407     0    14     1    17
  1.5795982987862028E-01 a       408     0    14     1    18
 -5.4990537764909553E-01 a       409     0    14     1    19
 -7.6097367750126788E-01 a       410     0    14     1    20
 -5.3534590393391368E-01 a       411     0    14     1    21
  2.5674010207134928E-02 a       412     0    14     1    22
  9.5513401480332785E-03 a       413     0    14     1    23
  1.8689587373278604E-01 a       414     0    14     1    24
 -3.4202401205275818E-01 a       415     0    14     1    25
  5.4700904057487898E-01 a       416     0    14     1    26
 -8.6217177984555401E-02 a       417     0    14     1    27
  1.3019199573875064E+00 a       418     0    14     1    28
 -2.3102000937519171E-01 a       419     0    14     1    29
 -1.1192291333148130E+00 a       420     0    14     1    30
  1.0330473910589846E-01 a       421     0    15     1     1
  3.1157676559782144E-01 a       422     0    15     1     2
  3.2445605378757209E-01 a       423     0    15     1     3
  1.5866036514836686E+00 a       424     0    15     1     4
 -7.1665923009432453E-01 a       425     0    15     1     5
  5.5204356181642311E-01 a       426     0    15     1     6
  4.7814027419181304E-01 a       427     0    15     1     7
  1.5827804890953467E-01 a       428     0    15     1     8
 -6.3356690044909708E-02 a       429     0    15     1     9
 -1.3020880144219302E-01 a       430     0    15     1    10
  1.8168145052217480E-01 a       431     0    15     1    11
 -2.9156198452614912E-01 a       432     0    15     1    12
 -3.8471179312005238E-01 a       433     0    15     1    13
 -2.2843382676954882E-01 a       434     0    15     1    14
 -2.4074171338587144E-01 a       435     0    15     1    15
  9.2202678976533337E-04 a       436     0    15     1    16
 -4.3571977878071888E-01 a       437     0    15     1    17
 -2.6914106252763287E-01 a       438     0    15     1    18
 -4.5418822235593564E-01 a       439     0    15     1    19
  7.4019413442788939E-01 a       440     0    15     1    20
  5.1861748558445031E-01 a       441     0    15     1    21
 -9.2193281869823451E-03 a       442     0    15     1    22
  2.8549119207656232E-01 a       443     0    15     1    23
  3.3266648567694801E-01 a       444     0    15     1    24
  4.5353880446620337E-01 a       445     0    15     1    25
  6.9289325942202079E-02 a       446     0    15     1    26
  1.1941450453331325E-01 a       447     0    15     1    27
 -9.3922210588710542E-01 a       448     0    15     1    28
 -6.1644267008044129E-01 a       449     0    15     1    29
  2.2343287585751778E-01 a       450     0    15     1    30
 -4.4953840005023293E-01 a       451     0    16     1     1
 -1.2865058585997716E-01 a       452     0    16     1     2
  8.9855491185282066E-01 a       453     0    16     1     3
 -1.5886303250160794E+00 a       454     0    16     1     4
 -3.8102368143775323E-01 a       455     0    16     1     5
  3.0932936215707707E-01 a       456     0    16     1     6
 -1.4608717030032989E+00 a       457     0    16     1     7
 -2.6132406587391954E-01 a       458     0    16     1     8
  4.9689714281913522E-01 a       459     0    16     1     9
  1.2410860556940002E-01 a       460     0    16     1    10
  1.8571930960409075E+00 a       461     0    16     1    11
  8.3290788078670963E-01 a       462     0    16     1    12
  8.2639194398650903E-03 a       463     0    16     1    13
  7.4347794157833957E-01 a       464     0    16     1    14
  1.1275760527464123E+00 a       465     0    16     1    15
 -1.9587358304537257E+00 a       466     0    16     1    16
  1.0709737225007863E+00 a       467     0    16     1    17
 -1.2817171962164093E+00 a       468     0    16     1    18
  2.5782534091952825E-01 a       469     0    16     1    19
  7.8621243221030312E-01 a       470     0    16     1    20
  1.1521354910867515E-01 a       471     0    16     1    21
  1.2379036120213263E+00 a       472     0    16     1    22
  5.8387648422040772E-01 a       473     0    16     1    23
 -8.1799571869755916E-01 a       474     0    16     1    24
  5.4495917656874637E-01 a       475     0    16     1    25
  1.9269895603852891E-01 a       476     0    16     1    26
  8.6946847764534940E-01 a       477     0    16     1    27
  1.4223854088920214E+00 a       478     0    16     1    28
 -3.7769500753390151E-01 a       479     0    16     1    29
  3.1174353928875403E-01 a       480     0    16     1    30
  1.2230395446803217E-01 a       481     0    17     1     1
 -1.2207718921981632E-01 a       482     0    17     1     2
 -1.4562804577198958E+00 a       483     0    17     1     3
 -5.3654108956119648E-02 a       484     0    17     1     4
  5.2307578420368439E-01 a       485     0    17     1     5
  2.1289637212981816E-02 a       486     0    17     1     6
  1.7650939520440492E+00 a       487     0    17     1     7
  7.4627639442472316E-01 a       488     0    17     1     8
 -1.6332293733912218E+00 a       489     0    17     1     9
 -4.9898539057765201E-01 a       490     0    17     1    10
 -1.5142096191078500E+00 a       491     0    17     1    11
 -2.0195149091763354E-01 a       492     0    17     1    12
  1.0025010592572750E+00 a       493     0    17     1    13
 -1.1276158322917298E+00 a       494     0    17     1    14
 -1.1817346881176227E+00 a       495     0    17     1    15
  1.6981188895935468E+00 a       496     0    17     1    16
 -4.9897809371261348E-01 a       497     0    17     1    17
  1.1198215457130181E+00 a       498     0    17     1    18
  9.6405596747504574E-01 a       499     0    17     1    19
 -3.8754644221445589E-01 a       500     0    17     1    20
  3.6098868177605525E-01 a       501     0    17     1    21
 -1.6557628000536615E+00 a       502     0    17     1    22
 -1.9912223444175046E+00 a       503     0    17     1    23
  1.0894253360461312E+00 a       504     0    17     1    24
 -1.3724741083178662E+00 a       505     0    17     1    25
  2.5050881859015983E-01 a       506     0    17     1    26
  1.3972304553754049E+00 a       507     0    17     1    27
 -8.2160739499980429E-01 a       508     0    17     1    28
  9.9489035149612193E-01 a       509     0    17     1    29
  7.7789510212270330E-01 a       510     0    17     1    30
 -2.8239548659492836E-01 a       511     0    18     1     1
 -5.8776200052185801E-01 a       512     0    18     1     2
  6.9227040429558698E-02 a       513     0    18     1     3
 -3.0755486901251833E-01 a       514     0    18     1     4
  1.1401858403699134E+00 a       515     0    18     1     5
 -4.0950325852100766E-01 a       516     0    18     1     6
  4.2225735609489889E-01 a       517     0    18     1     7
  6.2417518861280674E-01 a       518     0    18     1     8
 -8.4189011718878348E-01 a       519     0    18     1     9
 -2.2804178172289729E-02 a       520     0    18     1    10
 -8.3613775337730478E-01 a       521     0    18     1    11
 -3.2321750695756463E-01 a       522     0    18     1    12
  2.3849338157481190E-01 a       523     0    18     1    13
 -1.3421231018048885E-01 a       524     0    18     1    14
 -1.4543187796047143E+00 a       525     0    18     1    15
  3.7066062695607732E-01 a       526     0    18     1    16
  9.6667085464263247E-01 a       527     0    18     1    17
  6.0242331728593270E-03 a       528     0    18     1    18
 -7.3254605558797881E-01 a       529     0    18     1    19
 -2.7295790779917445E-01 a       530     0    18     1    20
 -1.1462971719230561E+00 a       531     0    18     1    21
 -1.2263483860231381E+00 a       532     0    18     1    22
  8.6797941621523023E-01 a       533     0    18     1    23
  3.8344146933621526E-01 a       534     0    18     1    24
  2.7087433208608458E-01 a       535     0    18     1    25
 -1.4742127711866876E-01 a       536     0    18     1    26
 -5.1544238117596675E-01 a       537     0    18     1    27
 -9.8289833585904207E-01 a       538     0    18     1    28
 -2.3581533409631997E-01 a       539     0    18     1    29
 -8.2407013884643610E-01 a       540     0    18     1    30
 -5.0206243340247231E-02 a       541     0    19     1     1
 -2.6873991528568802E-01 a       542     0    19     1     2
  4.2875144885560196E-01 a       543     0    19     1     3
 -3.0701302937260522E-01 a       544     0    19     1     4
  1.1475880227777857E-01 a       545     0    19     1     5
  2.0595895342127551E-01 a       546     0    19     1     6
 -4.7515877750809926E-01 a       547     0    19     1     7
 -6.4614356658995620E-01 a       548     0    19     1     8
  7.2368915011051260E-01 a       549     0    19     1     9
  2.9002362055169512E-01 a       550     0    19     1    10
 -2.1237817862193928E-01 a       551     0    19     1    11
 -7.1979026441595984E-01 a       552     0    19     1    12
 -1.9372990573497079E-02 a       553     0    19     1    13
 -7.2078231551531702E-02 a       554     0    19     1    14
 -2.2241743893807955E-01 a       555     0    19     1    15
  1.1306507400452146E+00 a       556     0    19     1    16
 -9.6659564201420656E-01 a       557     0    19     1    17
 -5.0789885228555620E-01 a       558     0    19     1    18
 -3.5264325459551521E-01 a       559     0    19     1    19
 -1.5342159416352105E-01 a       560     0    19     1    20
 -1.2735584845657486E+00 a       561     0    19     1    21
  1.5116666054545827E-01 a       562     0    19     1    22
 -1.0956681393788988E-01 a       563     0    19     1    23
 -2.3050446660343879E-01 a       564     0    19     1    24
  1.1624999079921994E-03 a       565     0    19     1    25
 -6.1004004797061884E-01 a       566     0    19     1    26
 -2.7292514308662474E-01 a       567     0    19     1    27
  1.6326201786352901E-01 a       568     0    19     1    28
 -8.9518408502203620E-02 a       569     0    19     1    29
  3.8060026532883279E-01 a       570     0    19     1    30
  2.4741810848160123E-01 a       571     0    20     1     1
  5.0245816756911654E-01 a       572     0    20     1     2
 -3.9486688938376713E-01 a       573     0    20     1     3
 -9.3876329852307561E-01 a       574     0    20     1     4
 -3.7757904341988685E-01 a       575     0    20     1     5
 -1.1067126228121586E-01 a       576     0    20     1     6
 -3.5394611171353091E-02 a       577     0    20     1     7
  5.5630705581265809E-02 a       578     0    20     1     8
 -3.6262866782288611E-01 a       579     0    20     1     9
  1.8398787704889624E-01 a       580     0    20     1    10
  1.5479313580639109E-01 a       581     0    20     1    11
 -4.1561979595974291E-01 a       582     0    20     1    12
 -7.8203101709600720E-01 a       583     0    20     1    13
  2.1944732446617954E-01 a       584     0    20     1    14
  5.2681774609666776E-02 a       585     0    20     1    15
 -1.5220583859065967E-01 a       586     0    20     1    16
 -4.2417492237057786E-01 a       587     0    20     1    17
  3.2911751771562192E-01 a       588     0    20     1    18
 -1.0192379253642210E-01 a       589     0    20     1    19
  1.8872661863993404E-01 a       590     0    20     1    20
  1.3972455630867570E-01 a       591     0    20     1    21
  3.3472060396461584E-01 a       592     0    20     1    22
 -9.3595631341395136E-01 a       593     0    20     1    23
  1.0608890809875733E-01 a       594     0    20     1    24
  2.3519592599542044E-01 a       595     0    20     1    25
 -3.2272506016823577E-01 a       596     0    20     1    26
  2.0438549844742093E-02 a       597     0    20     1    27
 -3.9650921240229509E-02 a       598     0    20     1    28
 -1.1826446685441380E-01 a       599     0    20     1    29
  6.0089273850853719E-01 a       600     0    20     1    30
 -4.4945725044687324E-01 a       601     0    21     1     1
  3.3241805038794947E-01 a       602     0    21     1     2
 -2.0901363780972726E-01 a       603     0    21     1     3
  4.7434020158425516E-01 a       604     0    21     1     4
 -1.9513202602116725E-01 a       605     0    21     1     5
 -4.8009665496683340E-01 a       606     0    21     1     6
 -4.1714384228322771E-01 a       607     0    21     1     7
  9.5884002132936985E-01 a       608     0    21     1     8
 -7.9098824288612923E-01 a       609     0    21     1     9
  8.0623791679411472E-02 a       610     0    21     1    10
  4.8007182338528254E-01 a       611     0    21     1    11
 -1.0276129728841226E+00 a       612     0    21     1    12
 -3.5837161080178509E-01 a       613     0    21     1    13
 -9.7740078897640137E-02 a       614     0    21     1    14
  1.3024303914253161E+00 a       615     0    21     1    15
 -4.1672527302836360E-01 a       616     0    21     1    16
 -4.3803892384115695E-01 a       617     0    21     1    17
  4.1768627828048466E-01 a       618     0    21     1    18
 -7.7962352201652085E-01 a       619     0    21     1    19
 -2.0904353883155688E-01 a       620     0    21     1    20
 -1.8890908963204694E-01 a       621     0    21     1    21
  4.5250606426707002E-01 a       622     0    21     1    22
 -1.2777947941062469E-02 a       623     0    21     1    23
 -2.7643098897126083E-02 a       624     0    21     1    24
 -1.1196811095755733E-01 a       625     0    21     1    25
 -3.9635540742592529E-01 a       626     0    21     1    26
  7.9278553528827800E-01 a       627     0    21     1    27
 -2.1495609039926242E-01 a       628     0    21     1    28
  4.5231973310216145E-01 a       629     0    21     1    29
  2.7507331831459192E-01 a       630     0    21     1    30
  5.6461551812603850E-01 a       631     0    22     1     1
 -3.8542429792894961E-01 a       632     0    22     1     2
  5.5176610706226217E-02 a       633     0    22     1     3
  1.5719256805549905E-02 a       634     0    22     1     4
 -2.1197529962681794E-01 a       635     0    22     1     5
 -6.7584779428555319E-01 a       636     0    22     1     6
 -5.6728505615539804E-01 a       637     0    22     1     7
 -3.9346611260151798E-01 a       638     0    22     1     8
  6.1369260858519575E-03 a       639     0    22     1     9
 -4.2623565552731990E-01 a       640     0    22     1    10
 -3.4209642424626041E-01 a       641     0    22     1    11
  3.6181530270629558E-01 a       642     0    22     1    12
 -3.0360907278986665E-01 a       643     0    22     1    13
  1.1969781908446375E-01 a       644     0    22     1    14
  1.6494994076863417E-01 a       645     0    22     1    15
  1.8821505030421642E-01 a       646     0    22     1    16
 -2.1171669789771663E-01 a       647     0    22     1    17
 -4.8975665436577587E-01 a       648     0    22     1    18
 -9.3377934083060180E-02 a       649     0    22     1    19
  7.6402912609224916E-01 a       650     0    22     1    20
  2.2443112773420221E-01 a       651     0    22     1    21
 -1.8422821655818125E-01 a       652     0    22     1    22
 -2.2666702162014352E-01 a       653     0    22     1    23
  1.8704827767568752E-02 a       654     0    22     1    24
  1.9400679307315763E-01 a       655     0    22     1    25
 -3.9361846924509342E-01 a       656     0    22     1    26
 -2.0385153470371009E-01 a       657     0    22     1    27
  6.9867354433450990E-01 a       658     0    22     1    28
  1.6147923965179997E-01 a       659     0    22     1    29
 -1.1138910264298407E-01 a       660     0    22     1    30
 -4.5809041338441395E-02 a       661     0    23     1     1
  2.3257200467209488E-01 a       662     0    23     1     2
  3.4718143087111453E-01 a       663     0    23     1     3
  3.2039669589504660E-01 a       664     0    23     1     4
  2.4635029619806396E-02 a       665     0    23     1     5
 -1.8021833570763038E-01 a       666     0    23     1     6
 -1.8247068171737907E-01 a       667     0    23     1     7
 -7.9998144913314681E-02 a       668     0    23     1     8
  1.9912585221727752E-01 a       669     0    23     1     9
  3.4731111023794636E-01 a       670     0    23     1    10
  7.8301714358046981E-01 a       671     0    23     1    11
  6.5069676504361207E-01 a       672     0    23     1    12
 -6.9903728818904898E-01 a       673     0    23     1    13
 -4.6122792202565610E-01 a       674     0    23     1    14
 -5.3874201733507421E-01 a       675     0    23     1    15
  1.3106838087972461E-01 a       676     0    23     1    16
  2.4716964337874553E-01 a       677     0    23     1    17
 -4.8393410180879415E-01 a       678     0    23     1    18
  2.5954168267474265E-01 a       679     0    23     1    19
 -2.2056201239557408E-01 a       680     0    23     1    20
 -4.2638254284484076E-02 a       681     0    23     1    21
  2.2016336241227202E-02 a       682     0    23     1    22
  2.8207445770638573E-01 a       683     0    23     1    23
  2.9781062274217124E-01 a       684     0    23     1    24
 -1.8707959239270872E-01 a       685     0    23     1    25
  3.1063875091138676E-01 a       686     0    23     1    26
 -3.9977868935677563E-01 a       687     0    23     1    27
 -3.6624930117777899E-01 a       688     0    23     1    28
 -3.3903293014418595E-01 a       689     0    23     1    29
 -5.7014363807568413E-01 a       690     0    23     1    30
 -2.5432623864190745E-01 a       691     0    24     1     1
 -7.3650820100706393E-02 a       692     0    24     1     2
  3.7197567227349815E-01 a       693     0    24     1     3
  2.5223316954664704E-01 a       694     0    24     1     4
 -6.1718381518119349E-02 a       695     0    24     1     5
 -1.6160828615746543E-02 a       696     0    24     1     6
  2.4855281785584790E-01 a       697     0    24     1     7
  2.7464985325377478E-01 a       698     0    24     1     8
 -1.1616478507305007E-01 a       699     0    24     1     9
  1.0286852026953489E-01 a       700     0    24     1    10
  4.7989441258537185E-01 a       701     0    24     1    11
  1.3570531882203210E-01 a       702     0    24     1    12
 -2.0811095976763683E-01 a       703     0    24     1    13
  2.1782136307183589E-01 a       704     0    24     1    14
 -5.1295066778813536E-01 a       705     0    24     1    15
 -3.9956282776837743E-01 a       706     0    24     1    16
 -2.6862274239334927E-01 a       707     0    24     1    17
 -1.1078788091030274E+00 a       708     0    24     1    18
 -2.9965134218318201E-01 a       709     0    24     1    19
  1.1514140110383850E-01 a       710     0    24     1    20
 -2.3390562310262422E-01 a       711     0    24     1    21
  4.5229081354852117E-02 a       712     0    24     1    22
  2.6851948343902071E-01 a       713     0    24     1    23
 -6.9664616848417349E-02 a       714     0    24     1    24
 -1.1886673143054183E-01 a       715     0    24     1    25
  1.2927704947987928E-01 a       716     0    24     1    26
 -8.4794719589787598E-02 a       717     0    24     1    27
 -7.4903190477443080E-02 a       718     0    24     1    28
  2.7644422511851530E-01 a       719     0    24     1    29
 -4.8740961772683805E-01 a       720     0    24     1    30
  1.4260183063364387E+00 a       721     0    25     1     1
  4.6656351744638158E-01 a       722     0    25     1     2
  6.4567573905167886E-03 a       723     0    25     1     3
 -1.0044310163053716E+00 a       724     0    25     1     4
  6.2896835036283250E-01 a       725     0    25     1     5
 -9.7028094854006597E-02 a       726     0    25     1     6
 -7.0326780821395141E-01 a       727     0    25     1     7
 -1.0348170936627550E+00 a       728     0    25     1     8
  4.6417948535151260E-01 a       729     0    25     1     9
  5.8314520494729805E-01 a       730     0    25     1    10
  1.2433200675890020E-01 a       731     0    25     1    11
 -2.0210355332929278E-01 a       732     0    25     1    12
  1.9161931260665729E-01 a       733     0    25     1    13
 -8.4667074236666640E-01 a       734     0    25     1    14
 -4.4579273773102612E-02 a       735     0    25     1    15
  5.0275917224685140E-01 a       736     0    25     1    16
  5.1511175856896341E-01 a       737     0    25     1    17
  1.3564028020845167E+00 a       738     0    25     1    18
  7.8815480577119723E-01 a       739     0    25     1    19
 -7.8059253821673902E-01 a       740     0    25     1    20
  3.8433100442735141E-01 a       741     0    25     1    21
  8.5776313124490600E-01 a       742     0    25     1    22
 -3.8431614679567705E-01 a       743     0    25     1    23
  4.7049346668119602E-01 a       744     0    25     1    24
  2.0005328890961402E-01 a       745     0    25     1    25
 -1.7544465068178211E-01 a       746     0    25     1    26
 -2.3238697566025085E-01 a       747     0    25     1    27
 -2.4987295929687720E-01 a       748     0    25     1    28
  1.5695867463645491E-01 a       749     0    25     1    29
  1.0873006162253074E+00 a       750     0    25     1    30
  3.7728645960520540E-01 a       751     0    26     1     1
 -6.5663403439590026E-02 a       752     0    26     1     2
 -1.3267900703772803E-02 a       753     0    26     1     3
 -7.5279334257790509E-01 a       754     0    26     1     4
  3.8270405521618800E-01 a       755     0    26     1     5
  4.6719063291937907E-01 a       756     0    26     1     6
  6.1996833739798203E-02 a       757     0    26     1     7
 -3.1538984274083431E-01 a       758     0    26     1     8
  6.1415120272548404E-02 a       759     0    26     1     9
  2.0118563521466515E-01 a       760     0    26     1    10
 -4.0318518602077791E-01 a       761     0    26     1    11
 -1.9841808584252005E-01 a       762     0    26     1    12
  3.3408454239432928E-01 a       763     0    26     1    13
 -2.4975172160746215E-01 a       764     0    26     1    14
 -1.5429803767116303E-02 a       765     0    26     1    15
  9.4361524569839136E-02 a       766     0    26     1    16
  2.1931269168118642E-01 a       767     0    26     1    17
  6.4038577975360067E-01 a       768     0    26     1    18
  4.4935174675473699E-01 a       769     0    26     1    19
 -3.7919821497639022E-01 a       770     0    26     1    20
  1.8420289580895818E-01 a       771     0    26     1    21
 -4.5248902192381431E-02 a       772     0    26     1    22
 -5.8113955718928689E-01 a       773     0    26     1    23
  8.7073305543064222E-02 a       774     0    26     1    24
 -2.0653476946880781E-01 a       775     0    26     1    25
  7.4675605148932095E-02 a       776     0    26     1    26
  7.8942925246746773E-02 a       777     0    26     1    27
  1.9457814334368006E-02 a       778     0    26     1    28
  1.4928891875886521E-01 a       779     0    26     1    29
  2.0243090157295315E-01 a       780     0    26     1    30
 -1.0112406489951518E+00 a       781     0    27     1     1
 -2.7116966160917988E-01 a       782     0    27     1     2
 -1.3659372216876065E-01 a       783     0    27     1     3
  6.2853670379885684E-01 a       784     0    27     1     4
 -3.7229175409589382E-01 a       785     0    27     1     5
  4.0730394636802547E-01 a       786     0    27     1     6
  4.7782925588324282E-01 a       787     0    27     1     7
  1.3266519206526721E+00 a       788     0    27     1     8
 -2.5233867492681605E-01 a       789     0    27     1     9
 -1.3418185071860350E-01 a       790     0    27     1    10
 -2.2177088748174170E-01 a       791     0    27     1    11
 -4.6105408756076965E-01 a       792     0    27     1    12
 -2.0049280217198695E-01 a       793     0    27     1    13
  1.2388757942458211E+00 a       794     0    27     1    14
  8.2604862006643021E-02 a       795     0    27     1    15
 -5.4879374294294003E-01 a       796     0    27     1    16
 -5.5303820894984657E-01 a       797     0    27     1    17
 -9.0071897339918672E-01 a       798     0    27     1    18
 -8.6252122545881360E-01 a       799     0    27     1    19
  1.0453190779813322E+00 a       800     0    27     1    20
 -3.0705547600127575E-01 a       801     0    27     1    21
 -7.2399874691609034E-01 a       802     0    27     1    22
  1.6983004099024757E-01 a       803     0    27     1    23
 -6.4212682670478760E-01 a       804     0    27     1    24
 -1.3892188744670717E-01 a       805     0    27     1    25
 -3.5934190096605934E-01 a       806     0    27     1    26
  2.0801992957985702E-01 a       807     0    27     1    27
  2.1020316993167187E-01 a       808     0    27     1    28
  1.9706062135320160E-01 a       809     0    27     1    29
 -2.5385900424534008E-01 a       810     0    27     1    30
 -2.3100767857708501E-01 a       811     0    28     1     1
  5.2078042445918948E-01 a       812     0    28     1     2
 -5.9762886998652054E-01 a       813     0    28     1     3
 -4.3493672967717606E-01 a       814     0    28     1     4
  3.5457271307497246E-01 a       815     0    28     1     5
  3.3168154900147151E-01 a       816     0    28     1     6
  1.9207414754985930E-01 a       817     0    28     1     7
  1.4105844474776730E+00 a       818     0    28     1     8
 -9.2052371766647989E-02 a       819     0    28     1     9
  1.4462592771871350E+00 a       820     0    28     1    10
  1.0220914805732009E-01 a       821     0    28     1    11
  1.9500364314274024E-01 a       822     0    28     1    12
  4.3886202027975901E-01 a       823     0    28     1    13
 -5.4669193454701870E-01 a       824     0    28     1    14
 -8.3163161456012755E-02 a       825     0    28     1    15
 -9.7210448098729973E-01 a       826     0    28     1    16
  6.7720114603184811E-01 a       827     0    28     1    17
  2.7896399496185670E-01 a       828     0    28     1    18
  1.5342601276704691E-02 a       829     0    28     1    19
  2.8408850460693957E-01 a       830     0    28     1    20
 -6.9594036264651016E-01 a       831     0    28     1    21
 -3.1974387447377656E-02 a       832     0    28     1    22
  5.1591025243139899E-01 a       833     0    28     1    23
 -1.0407868233902002E+00 a       834     0    28     1    24
  9.3557418960788752E-01 a       835     0    28     1    25
  6.6663225847582741E-01 a       836     0    28     1    26
 -1.7125718911811771E-01 a       837     0    28     1    27
 -4.2411785838954724E-01 a       838     0    28     1    28
 -1.0890105844660744E-01 a       839     0    28     1    29
  8.1284494202416124E-01 a       840     0    28     1    30
  3.9599300390315340E-01 a       841     0    29     1     1
  2.4692175282405740E-01 a       842     0    29     1     2
 -3.8665927385117670E-02 a       843     0    29     1     3
 -1.1071093877103574E-01 a       844     0    29     1     4
  7.6303506931762732E-01 a       845     0    29     1     5
  3.1151510280937222E-01 a       846     0    29     1     6
  5.4023258047468208E-02 a       847     0    29     1     7
  6.9097394555926583E-01 a       848     0    29     1     8
  1.2945335065248656E-01 a       849     0    29     1     9
 -4.5084599747914213E-02 a       850     0    29     1    10
  3.2749475855122896E-02 a       851     0    29     1    11
  4.4187442321138809E-01 a       852     0    29     1    12
  5.5346409746405045E-01 a       853     0    29     1    13
  3.8454268292859434E-01 a       854     0    29     1    14
 -3.6486065991666511E-01 a       855     0    29     1    15
 -4.6528758166801687E-01 a       856     0    29     1    16
  8.0589417542054523E-02 a       857     0    29     1    17
  1.6534673094159183E-01 a       858     0    29     1    18
 -1.5040550988975038E-01 a       859     0    29     1    19
  1.4987280753849710E-01 a       860     0    29     1    20
  9.4938940205338371E-02 a       861     0    29     1    21
 -1.0493346962072933E-01 a       862     0    29     1    22
  6.7105687304606076E-01 a       863     0    29     1    23
 -3.7906343974693096E-01 a       864     0    29     1    24
  1.1658056954223572E-01 a       865     0    29     1    25
 -5.1250794907388297E-01 a       866     0    29     1    26
  4.9845899131547666E-01 a       867     0    29     1    27
  9.2378175170249016E-02 a       868     0    29     1    28
  3.3623555863351146E-01 a       869     0    29     1    29
  1.5662067783063063E-01 a       870     0    29     1    30
 -9.7726534705865786E-01 a       871     0    30     1     1
  3.5629033852166409E-01 a       872     0    30     1     2
 -1.2655730486819634E+00 a       873     0    30     1     3
  1.4000841089262932E-02 a       874     0    30     1     4
 -1.5990134896583105E-01 a       875     0    30     1     5
 -2.6319832191867965E-01 a       876     0    30     1     6
 -6.6764944498031034E-03 a       877     0    30     1     7
 -5.9645193960745158E-01 a       878     0    30     1     8
 -7.4139840672112467E-01 a       879     0    30     1     9
 -3.7196835959383240E-01 a       880     0    30     1    10
  1.0821326356184291E+00 a       881     0    30     1    11
 -4.9115485283187160E-01 a       882     0    30     1    12
 -4.8419115990150169E-01 a       883     0    30     1    13
 -4.8883534358723002E-01 a       884     0    30     1    14
  5.9640722716427863E-01 a       885     0    30     1    15
 -1.1398683291631935E-04 a       886     0    30     1    16
  2.5868597442805286E-01 a       887     0    30     1    17
 -1.6449582811104351E+00 a       888     0    30     1    18
  8.3898067777934926E-01 a       889     0    30     1    19
 -4.0909573608704319E-01 a       890     0    30     1    20
  6.6085713693974169E-01 a       891     0    30     1    21
 -3.6972426852042883E-02 a       892     0    30     1    22
 -6.3710812143460938E-01 a       893     0    30     1    23
 -2.3526558209879830E-01 a       894     0    30     1    24
  4.7490850421056531E-02 a       895     0    30     1    25
 -3.3013008610417810E-01 a       896     0    30     1    26
 -1.1667783656716526E+00 a       897     0    30     1    27
 -7.1314768034915932E-02 a       898     0    30     1    28
 -5.9116611337515834E-01 a       899     0    30     1    29
 -9.8924665642415657E-02 a       900     0    30     1    30
 -7.0633705795925900E-02 a       901     0    31     1     1
 -5.1137356633310416E-01 a       902     0    31     1     2
 -1.0047881346782990E-01 a       903     0    31     1     3
  5.8094925413184551E-01 a       904     0    31     1     4
  2.2106328464437602E-01 a       905     0    31     1     5
  9.1105804919097547E-02 a       906     0    31     1     6
 -6.4094678362602775E-01 a       907     0    31     1     7
 -4.2838778994957322E-01 a       908     0    31     1     8
 -1.3400218803908329E-01 a       909     0    31     1     9
 -1.7338616720059552E+00 a       910     0    31     1    10
  1.8399624838846239E-03 a       911     0    31     1    11
  5.4440765770933242E-01 a       912     0    31     1    12
  1.2390122620940110E-01 a       913     0    31     1    13
  5.2550245872003842E-01 a       914     0    31     1    14
  8.1223721090268892E-03 a       915     0    31     1    15
  4.8903010689788512E-01 a       916     0    31     1    16
 -7.7031408668348300E-01 a       917     0    31     1    17
 -1.2819044918268176E+00 a       918     0    31     1    18
  6.0857460821628025E-02 a       919     0    31     1    19
 -7.0619765886112451E-01 a       920     0    31     1    20
  6.8868412023730197E-01 a       921     0    31     1    21
 -3.4323973768147070E-01 a       922     0    31     1    22
 -2.5624539535404650E-01 a       923     0    31     1    23
  4.6276408997760016E-01 a       924     0    31     1    24
 -1.1061981143953821E+00 a       925     0    31     1    25
 -1.2261473712426161E+00 a       926     0    31     1    26
  2.8191218536783486E-01 a       927     0    31     1    27
  2.7262668411895913E-01 a       928     0    31     1    28
 -1.3357108506143911E-01 a       929     0    31     1    29
 -7.4637010913663082E-01 a       930     0    31     1    30
  5.6671573212854198E-01 a       931     0    32     1     1
 -5.4392882809050233E-02 a       932     0    32     1     2
  7.4951738900677811E-01 a       933     0    32     1     3
  2.7792512415469622E-01 a       934     0    32     1     4
 -2.7558054431437251E-01 a       935     0    32     1     5
 -2.4729227701556764E-01 a       936     0    32     1     6
 -1.3559767764455533E-01 a       937     0    32     1     7
  6.2925904308237385E-02 a       938     0    32     1     8
  3.6235201110619419E-01 a       939     0    32     1     9
  5.0613898408680214E-01 a       940     0    32     1    10
 -1.1340267914955513E+00 a       941     0    32     1    11
  9.3412572562915253E-01 a       942     0    32     1    12
  1.6556130929393495E-01 a       943     0    32     1    13
 -1.8197912513125500E-01 a       944     0    32     1    14
  6.0716244270874589E-02 a       945     0    32     1    15
  5.8518746859197268E-01 a       946     0    32     1    16
  7.9449047025080521E-01 a       947     0    32     1    17
  6.4304757375079835E-01 a       948     0    32     1    18
  1.9041565267754348E-01 a       949     0    32     1    19
 -1.8603106839336131E-01 a       950     0    32     1    20
  2.9048613977515564E-03 a       951     0    32     1    21
  3.4498039112597556E-01 a       952     0    32     1    22
  9.1222787786904069E-01 a       953     0    32     1    23
  8.7531817406017332E-01 a       954     0    32     1    24
  3.0018700326441267E-01 a       955     0    32     1    25
  6.2248726027737777E-01 a       956     0    32     1    26
  5.4342258262044707E-01 a       957     0    32     1    27
  1.2136496059466485E-01 a       958     0    32     1    28
 -1.4753877903079390E-01 a       959     0    32     1    29
 -8.0489804467835269E-01 a       960     0    32     1    30
  2.7995008005436573E-02 a       961     0    33     1     1
 -1.8977344797546322E-01 a       962     0    33     1     2
  3.0046674478152358E-01 a       963     0    33     1     3
  8.8146250641894242E-01 a       964     0    33     1     4
  9.5633353456817460E-01 a       965     0    33     1     5
  5.6419270095276440E-02 a       966     0    33     1     6
  2.0416453165647602E-01 a       967     0    33     1     7
 -7.7426508928128646E-01 a       968     0    33     1     8
 -3.9805299579816870E-02 a       969     0    33     1     9
  2.5165426450498612E-01 a       970     0    33     1    10
 -2.2138007886843528E-01 a       971     0    33     1    11
  8.8115516096435739E-02 a       972     0    33     1    12
  5.5132577873667976E-01 a       973     0    33     1    13
 -5.9759891764270168E-01 a       974     0    33     1    14
  8.1411599391373324E-01 a       975     0    33     1    15
  2.6826322255229346E-01 a       976     0    33     1    16
 -3.9202459441220167E-02 a       977     0    33     1    17
 -3.8790034121003863E-01 a       978     0    33     1    18
  2.2519386085713567E-02 a       979     0    33     1    19
 -2.9233288963605508E-01 a       980     0    33     1    20
 -6.1091596094402179E-01 a       981     0    33     1    21
  1.1555473160763584E-01 a       982     0    33     1    22
 -3.7041890543764933E-01 a       983     0    33     1    23
 -2.6420208301204579E-01 a       984     0    33     1    24
  1.8289529263241844E-01 a       985     0    33     1    25
 -1.1293180080161649E+00 a       986     0    33     1    26
  3.2548374597184315E-01 a       987     0    33     1    27
 -1.0003704016350723E-01 a       988     0    33     1    28
 -3.7236510521412614E-01 a       989     0    33     1    29
 -2.1332190809004292E-02 a       990     0    33     1    30
 -4.4712505653968554E-01 a       991     0    34     1     1
 -2.0247666291927188E-02 a       992     0    34     1     2
 -1.1663629382884138E+00 a       993     0    34     1     3
 -2.9966734276392626E-01 a       994     0    34     1     4
 -9.7810639960005219E-01 a       995     0    34     1     5
  5.7521039886399772E-01 a       996     0    34     1     6
 -1.3026105788649503E-01 a       997     0    34     1     7
  4.2209746817236599E-01 a       998     0    34     1     8
 -2.9264575942824783E-01 a       999     0    34     1     9
 -4.0474363095490717E-01 a      1000     0    34     1    10
  2.7522313821092032E-01 a      1001     0    34     1    11
  3.0024468270459465E-01 a      1002     0    34     1    12
  8.2577244677714379E-02 a      1003     0    34     1    13
 -6.6296729227283191E-02 a      1004     0    34     1    14
 -2.1275503929751227E-01 a      1005     0    34     1    15
 -2.4448307136655262E-01 a      1006     0    34     1    16
  1.4508766679003882E-01 a      1007     0    34     1    17
  6.7859037343588402E-01 a      1008     0    34     1    18
  2.9700629451715427E-01 a      1009     0    34     1    19
 -5.1977400868994239E-01 a      1010     0    34     1    20
 -4.5976874206291313E-01 a      1011     0    34     1    21
  1.7665460971741853E-01 a      1012     0    34     1    22
  1.7216505653150105E-01 a      1013     0    34     1    23
 -4.3544072479801674E-02 a      1014     0    34     1    24
  6.4055365312300339E-01 a      1015     0    34     1    25
  3.7568191864283645E-01 a      1016     0    34     1    26
  1.4449818420276459E+00 a      1017     0    34     1    27
  8.0668899708832464E-01 a      1018     0    34     1    28
  1.9637411113356748E-01 a      1019     0    34     1    29
 -4.1484897454852912E-02 a      1020     0    34     1    30
  3.1619272191100868E-02 a      1021     0    35     1     1
 -5.3921112196425103E-01 a      1022     0    35     1     2
 -2.0848611283724647E-01 a      1023     0    35     1     3
  1.7057997679637569E+00 a      1024     0    35     1     4
 -3.0598701820370583E-01 a      1025     0    35     1     5
 -2.4141157000088018E-01 a      1026     0    35     1     6
 -2.5950937993450462E-01 a      1027     0    35     1     7
 -1.0007253279672497E+00 a      1028     0    35     1     8
  5.9429613116582647E-01 a      1029     0    35     1     9
 -1.1010768970007441E+00 a      1030     0    35     1    10
  1.2913481957141331E+00 a      1031     0    35     1    11
 -1.3360170169195125E+00 a      1032     0    35     1    12
 -3.4269372531985154E-01 a      1033     0    35     1    13
  4.2160779634992424E-01 a      1034     0    35     1    14
  1.7048574777635661E+00 a      1035     0    35     1    15
  7.7478728339543224E-02 a      1036     0    35     1    16
 -3.8935766746370337E-01 a      1037     0    35     1    17
  3.3394171180680676E-01 a      1038     0    35     1    18
 -1.8394803966828213E-01 a      1039     0    35     1    19
  2.0679104939282741E-01 a      1040     0    35     1    20
  8.8964100499673593E-01 a      1041     0    35     1    21
 -8.2606512380970276E-01 a      1042     0    35     1    22
 -7.7222776135434412E-01 a      1043     0    35     1    23
 -5.6592885070241850E-01 a      1044     0    35     1    24
  9.5059397649271571E-01 a      1045     0    35     1    25
  7.3537096998669449E-01 a      1046     0    35     1    26
 -8.2330570455032936E-01 a      1047     0    35     1    27
  8.8228289832401732E-02 a      1048     0    35     1    28
 -6.9611022580428794E-01 a      1049     0    35     1    29
  3.0630967648398316E-01 a      1050     0    35     1    30
  1.2465663047279837E-01 a      1051     0    36     1     1
  3.5933558381416869E-01 a      1052     0    36     1     2
 -5.7084329054719794E-02 a      1053     0    36     1     3
 -8.3712680626719327E-01 a      1054     0    36     1     4
  1.1181137344640575E+00 a      1055     0    36     1     5
 -1.6303086396092867E-01 a      1056     0    36     1     6
  3.4171109914382775E-01 a      1057     0    36     1     7
  1.4627355703271565E+00 a      1058     0    36     1     8
 -4.8067366179877263E-01 a      1059     0    36     1     9
  2.5743893455040773E-01 a      1060     0    36     1    10
 -9.9651869324513720E-01 a      1061     0    36     1    11
  1.0157389544289093E+00 a      1062     0    36     1    12
  5.8758877682301897E-02 a      1063     0    36     1    13
 -4.4243828768337040E-01 a      1064     0    36     1    14
 -6.0020450706387996E-01 a      1065     0    36     1    15
 -8.0946775178877572E-01 a      1066     0    36     1    16
 -1.4362849819261755E-01 a      1067     0    36     1    17
 -9.2576289849123594E-01 a      1068     0    36     1    18
 -1.2064667825208643E-01 a      1069     0    36     1    19
  4.4315137422110562E-01 a      1070     0    36     1    20
 -2.0933356881053899E-01 a      1071     0    36     1    21
 -5.3539424561758050E-03 a      1072     0    36     1    22
  7.0400807076828276E-01 a      1073     0    36     1    23
  4.6956231085456407E-01 a      1074     0    36     1    24
 -1.8292663229225287E-01 a      1075     0    36     1    25
 -6.0609288986125520E-01 a      1076     0    36     1    26
  1.0345887293755389E+00 a      1077     0    36     1    27
 -3.2555100183145480E-01 a      1078     0    36     1    28
  6.7643852291402218E-01 a      1079     0    36     1    29
  1.4155895052449724E-01 a      1080     0    36     1    30
  2.4650995535741699E-01 a      1081     0    37     1     1
  7.7550033784766451E-02 a      1082     0    37     1     2
 -1.9139248855009944E-01 a      1083     0    37     1     3
 -6.2435740579437959E-01 a      1084     0    37     1     4
  1.2586883691762060E-01 a      1085     0    37     1     5
 -3.9451039100361990E-01 a      1086     0    37     1     6
  1.6007182959820090E-01 a      1087     0    37     1     7
  4.0568462287533197E-01 a      1088     0    37     1     8
  7.0886332797089524E-01 a      1089     0    37     1     9
 -1.4448218552366304E-01 a      1090     0    37     1    10
  8.8959642571587383E-01 a      1091     0    37     1    11
 -6.3597665732973563E-01 a      1092     0    37     1    12
 -3.0097336248988904E-01 a      1093     0    37     1    13
 -7.5454630168588710E-01 a      1094     0    37     1    14
 -5.4313586361184463E-01 a      1095     0    37     1    15
 -1.4054688893929984E-01 a      1096     0    37     1    16
  3.6451590748513801E-01 a      1097     0    37     1    17
  4.5330277421807669E-01 a      1098     0    37     1    18
 -3.1846087384843152E-01 a      1099     0    37     1    19
  7.4251913039742035E-01 a      1100     0    37     1    20
  1.8813567925547170E-02 a      1101     0    37     1    21
 -3.1774485315151307E-01 a      1102     0    37     1    22
 -4.3552544634899160E-01 a      1103     0    37     1    23
 -5.9706584487414982E-01 a      1104     0    37     1    24
 -7.3303910476392635E-03 a      1105     0    37     1    25
  6.7460397546441597E-01 a      1106     0    37     1    26
 -1.4577986057397216E-01 a      1107     0    37     1    27
  2.3077122360280139E-01 a      1108     0    37     1    28
  2.8598175108782448E-01 a      1109     0    37     1    29
 -7.8602839210821104E-02 a      1110     0    37     1    30
  1.7336192985734294E-01 a      1111     0    38     1     1
  2.0635849082515589E-01 a      1112     0    38     1     2
  3.0210612616928212E-01 a      1113     0    38     1     3
 -1.6114958617743841E-01 a      1114     0    38     1     4
 -4.2693648412159263E-01 a      1115     0    38     1     5
  7.2808931150496126E-01 a      1116     0    38     1     6
  1.7948500363180164E-01 a      1117     0    38     1     7
 -3.7771753139281433E-01 a      1118     0    38     1     8
 -2.8678766796576538E-01 a      1119     0    38     1     9
  4.5988799256460466E-01 a      1120     0    38     1    10
 -3.2561637915676939E-01 a      1121     0    38     1    11
  5.1518323283028244E-01 a      1122     0    38     1    12
  1.2775297674162892E-01 a      1123     0    38     1    13
  1.0009102143774864E+00 a      1124     0    38     1    14
 -5.9468753002535513E-01 a      1125     0    38     1    15
 -5.0424452286738711E-02 a      1126     0    38     1    16
  1.5690356560867150E-01 a      1127     0    38     1    17
  3.4153556453339501E-01 a      1128     0    38     1    18
 -5.5008259841930807E-01 a      1129     0    38     1    19
 -4.2470143653959058E-01 a      1130     0    38     1    20
 -5.4750812703263818E-01 a      1131     0    38     1    21
  1.0484309461238071E+00 a      1132     0    38     1    22
 -3.5930681139033960E-01 a      1133     0    38     1    23
  5.6563681042321245E-01 a      1134     0    38     1    24
 -8.6560656677722014E-01 a      1135     0    38     1    25
  4.0016782852971505E-01 a      1136     0    38     1    26
 -6.7082466712909439E-01 a      1137     0    38     1    27
 -5.6531658560334330E-01 a      1138     0    38     1    28
  6.7733871005787677E-02 a      1139     0    38     1    29
 -3.5010752626864744E-01 a      1140     0    38     1    30
  4.3876305715318042E-01 a      1141     0    39     1     1
  3.6575786135554406E-01 a      1142     0    39     1     2
  1.8116051540525557E+00 a      1143     0    39     1     3
  7.2518908673222271E-01 a      1144     0    39     1     4
 -4.5404969267884304E-01 a      1145     0    39     1     5
 -7.8809682209100840E-01 a      1146     0    39     1     6
 -5.9312494247445346E-01 a      1147     0    39     1     7
 -4.8957219548508751E-01 a      1148     0    39     1     8
 -1.4660491037283909E+00 a      1149     0    39     1     9
 -5.3857622265144212E-01 a      1150     0    39     1    10
 -3.9030435674272906E-01 a      1151     0    39     1    11
  7.9430379047185473E-01 a      1152     0    39     1    12
 -9.2580812236818810E-01 a      1153     0    39     1    13
  2.4929651991702534E-01 a      1154     0    39     1    14
 -6.9221566260277934E-01 a      1155     0    39     1    15
 -1.1352653907251966E+00 a      1156     0    39     1    16
 -2.0322528474302590E-01 a      1157     0    39     1    17
  2.0695010742153389E-01 a      1158     0    39     1    18
  3.2893409431830822E-01 a      1159     0    39     1    19
  1.1984272414504957E-01 a      1160     0    39     1    20
 -2.0677674468887527E-01 a      1161     0    39     1    21
 -1.0852253652282682E+00 a      1162     0    39     1    22
  8.1045301882197635E-02 a      1163     0    39     1    23
  1.2702949866499054E+00 a      1164     0    39     1    24
 -3.8953767866449251E-01 a      1165     0    39     1    25
 -4.9037600908774859E-01 a      1166     0    39     1    26
  7.1751933193017725E-01 a      1167     0    39     1    27
 -4.3698337308916130E-01 a      1168     0    39     1    28
  1.1005908036530678E+00 a      1169     0    39     1    29
 -4.5446105296363198E-01 a      1170     0    39     1    30
  3.0074429822497728E-01 a      1171     0    40     1     1
 -3.4191811679516637E-01 a      1172     0    40     1     2
  2.8515621965533738E-01 a      1173     0    40     1     3
 -3.0500768601786915E-01 a      1174     0    40     1     4
 -4.1971369184100860E-01 a      1175     0    40     1     5
 -1.1665203286805546E+00 a      1176     0    40     1     6
  1.1418643179894914E+00 a      1177     0    40     1     7
 -5.0472005949296472E-01 a      1178     0    40     1     8
  1.3030554532156025E+00 a      1179     0    40     1     9
  8.7514924688667328E-01 a      1180     0    40     1    10
 -4.9360593831528077E-01 a      1181     0    40     1    11
  4.9264881097440943E-01 a      1182     0    40     1    12
  8.6991356356340099E-01 a      1183     0    40     1    13
 -2.3716596458331821E-01 a      1184     0    40     1    14
 -1.3635582456505728E+00 a      1185     0    40     1    15
  1.3905245037009761E+00 a      1186     0    40     1    16
 -2.4713656299473207E-02 a      1187     0    40     1    17
 -5.7713620257573839E-01 a      1188     0    40     1    18
 -8.6925517521220053E-01 a      1189     0    40     1    19
 -4.0302447451103418E-01 a      1190     0    40     1    20
  6.4478392411891350E-01 a      1191     0    40     1    21
  7.6799720913987582E-02 a      1192     0    40     1    22
 -1.5255122588336306E-01 a      1193     0    40     1    23
 -6.8514297124342272E-01 a      1194     0    40     1    24
 -6.5018996433758608E-02 a      1195     0    40     1    25
 -1.0971161245195813E+00 a      1196     0    40     1    26
  2.4229082831629700E-01 a      1197     0    40     1    27
  5.0062393866474632E-02 a      1198     0    40     1    28
 -3.6779232316391364E-01 a      1199     0    40     1    29
 -1.6232753957379581E-02 a      1200     0    40     1    30
  2.7190594675891366E-01 a      1201     0    41     1     1
 -4.8537163124873946E-02 a      1202     0    41     1     2
  1.6079987642302529E+00 a      1203     0    41     1     3
  5.5158264793332223E-01 a      1204     0    41     1     4
 -1.6502575025499971E-01 a      1205     0    41     1     5
  6.0546703600553942E-01 a      1206     0    41     1     6
 -1.7564389014163143E-01 a      1207     0    41     1     7
 -2.9757417081991194E-01 a      1208     0    41     1     8
  4.1616630850610969E-01 a      1209     0    41     1     9
  1.4574851438723219E-02 a      1210     0    41     1    10
  5.0572307510584913E-01 a      1211     0    41     1    11
 -4.1400662681513939E-01 a      1212     0    41     1    12
  3.1207845299992060E-02 a      1213     0    41     1    13
  5.2334096055750012E-01 a      1214     0    41     1    14
  1.4441376373551298E+00 a      1215     0    41     1    15
 -8.7410876814891303E-01 a      1216     0    41     1    16
 -4.0326449259470154E-01 a      1217     0    41     1    17
  9.2750255651655844E-01 a      1218     0    41     1    18
 -2.5768438119308318E-01 a      1219     0    41     1    19
 -1.1770657343978341E-01 a      1220     0    41     1    20
  1.0517184346524759E+00 a      1221     0    41     1    21
 -8.5934174443070466E-01 a      1222     0    41     1    22
  6.5908479362019468E-01 a      1223     0    41     1    23
  8.9152612323090508E-01 a      1224     0    41     1    24
 -6.1216805157058629E-01 a      1225     0    41     1    25
  1.5328683724173708E+00 a      1226     0    41     1    26
 -3.4907818549378626E-02 a      1227     0    41     1    27
 -2.6326438473411767E-01 a      1228     0    41     1    28
 -2.6235026353233526E-01 a      1229     0    41     1    29
 -7.5519084870360764E-01 a      1230     0    41     1    30
 -4.8001264336673310E-01 a      1231     0    42     1     1
  6.4464103568815134E-01 a      1232     0    42     1     2
 -2.8354653889360315E-01 a      1233     0    42     1     3
 -1.0558188819152250E+00 a      1234     0    42     1     4
  1.4645638953486295E-01 a      1235     0    42     1     5
 -1.3018498781060883E-01 a      1236     0    42     1     6
  5.2664974828760625E-01 a      1237     0    42     1     7
 -3.6286247974510344E-01 a      1238     0    42     1     8
  3.5299629759491646E-01 a      1239     0    42     1     9
  1.0891105398973009E+00 a      1240     0    42     1    10
  7.3170229069057768E-01 a      1241     0    42     1    11
 -1.1571700768923578E+00 a      1242     0    42     1    12
  2.0999446191916407E-01 a      1243     0    42     1    13
 -4.9901009972581989E-01 a      1244     0    42     1    14
 -1.7499439096268388E-02 a      1245     0    42     1    15
  5.4634291182701245E-01 a      1246     0    42     1    16
  8.2402274116398511E-01 a      1247     0    42     1    17
  1.6449505167051259E-01 a      1248     0    42     1    18
 -3.0552042385667766E-01 a      1249     0    42     1    19
  3.4548664912185345E-01 a      1250     0    42     1    20
  3.4592255571444058E-01 a      1251     0    42     1    21
  8.2931093573610648E-01 a      1252     0    42     1    22
  2.4003885248012202E-01 a      1253     0    42     1    23
 -2.6046994536562085E-01 a      1254     0    42     1    24
  8.3903997053189516E-01 a      1255     0    42     1    25
  6.8849716011607065E-01 a      1256     0    42     1    26
  3.3328902550178174E-02 a      1257     0    42     1    27
  5.2022231943061503E-01 a      1258     0    42     1    28
  7.5011142700911443E-02 a      1259     0    42     1    29
  5.3969309321842018E-01 a      1260     0    42     1    30
  1.6420295959829898E+00 a      1261     0    43     1     1
 -5.6474153968281116E-01 a      1262     0    43     1     2
 -2.6372948054190326E-01 a      1263     0    43     1     3
 -4.3652826191175426E-01 a      1264     0    43     1     4
  1.0967346010921415E+00 a      1265     0    43     1     5
 -4.5790809584010432E-02 a      1266     0    43     1     6
 -1.5676627327678019E+00 a      1267     0    43     1     7
  1.0862101635353277E-01 a      1268     0    43     1     8
  9.9039258540765424E-02 a      1269     0    43     1     9
  1.0881342268761846E-01 a      1270     0    43     1    10
 -1.6365479349285073E-01 a      1271     0    43     1    11
  5.0451699390633331E-01 a      1272     0    43     1    12
  1.6068057495085275E-01 a      1273     0    43     1    13
  4.4424288526589895E-01 a      1274     0    43     1    14
  1.3052206843094161E+00 a      1275     0    43     1    15
  7.5836334192052413E-01 a      1276     0    43     1    16
 -1.4325520573801653E+00 a      1277     0    43     1    17
 -5.2045598962093986E-01 a      1278     0    43     1    18
  3.8538069780588569E-01 a      1279     0    43     1    19
  1.2053028352279753E-01 a      1280     0    43     1    20
 -1.8919683822074240E-01 a      1281     0    43     1    21
  6.4310964204511489E-02 a      1282     0    43     1    22
  5.0815916189392485E-01 a      1283     0    43     1    23
  8.9331714175202681E-01 a      1284     0    43     1    24
 -5.5505334967924402E-01 a      1285     0    43     1    25
  1.9809896803909216E-01 a      1286     0    43     1    26
 -5.7955118076111944E-01 a      1287     0    43     1    27
  1.2967676227508982E+00 a      1288     0    43     1    28
 -9.2672242045994624E-01 a      1289     0    43     1    29
 -3.3219950936255127E-01 a      1290     0    43     1    30
 -9.8747143019012018E-01 a      1291     0    44     1     1
  7.1580184611489905E-01 a      1292     0    44     1     2
 -3.8952919952957599E-01 a      1293     0    44     1     3
  3.0320386469591554E-01 a      1294     0    44     1     4
 -5.7169299378993765E-01 a      1295     0    44     1     5
 -1.2356383878386146E-01 a      1296     0    44     1     6
  4.5793162209701753E-03 a      1297     0    44     1     7
 -6.7337751553690123E-02 a      1298     0    44     1     8
 -3.3559149394346172E-01 a      1299     0    44     1     9
 -1.1607693172050928E+00 a      1300     0    44     1    10
 -2.4120394661751263E-01 a      1301     0    44     1    11
 -5.9580573066739340E-01 a      1302     0    44     1    12
 -3.3321951514400100E-01 a      1303     0    44     1    13
 -2.6513690126128187E-01 a      1304     0    44     1    14
 -1.0994218350849663E+00 a      1305     0    44     1    15
  4.8098976120308784E-01 a      1306     0    44     1    16
  6.2678270262398850E-01 a      1307     0    44     1    17
 -3.0624289690103351E-01 a      1308     0    44     1    18
  3.3861936312125501E-01 a      1309     0    44     1    19
 -1.3526407301338111E-02 a      1310     0    44     1    20
 -7.4226125437715762E-01 a      1311     0    44     1    21
  2.5174151016218199E-01 a      1312     0    44     1    22
 -5.5630577558776539E-02 a      1313     0    44     1    23
 -1.0083474205672138E+00 a      1314     0    44     1    24
  2.2312832901741991E-01 a      1315     0    44     1    25
 -8.3844886863289503E-01 a      1316     0    44     1    26
 -1.7612367264285098E+00 a      1317     0    44     1    27
 -8.5874684150156599E-01 a      1318     0    44     1    28
 -3.9593649493279193E-01 a      1319     0    44     1    29
  1.7860777925384443E+00 a      1320     0    44     1    30
  4.4788302704126315E-01 a      1321     0    45     1     1
 -1.4010942997609925E+00 a      1322     0    45     1     2
  1.0897553743644524E-01 a      1323     0    45     1     3
 -2.2098685148231093E-01 a      1324     0    45     1     4
 -1.3231032373187634E-01 a      1325     0    45     1     5
  1.0743697080045442E+00 a      1326     0    45     1     6
  4.6917047505386117E-01 a      1327     0    45     1     7
 -6.4650716925461194E-01 a      1328     0    45     1     8
 -1.8425968032302908E-01 a      1329     0    45     1     9
 -2.4816950923663712E+00 a      1330     0    45     1    10
 -1.3161402091243208E+00 a      1331     0    45     1    11
  2.6297135493348025E-02 a      1332     0    45     1    12
  1.1213968385332351E+00 a      1333     0    45     1    13
  8.1345229417709330E-01 a      1334     0    45     1    14
 -1.1410658733686999E-01 a      1335     0    45     1    15
  5.7427507243038989E-01 a      1336     0    45     1    16
 -1.5507971668138039E+00 a      1337     0    45     1    17
  3.6407418373486766E-02 a      1338     0    45     1    18
 -8.9931050234226240E-01 a      1339     0    45     1    19
 -7.8480620942785795E-02 a      1340     0    45     1    20
  7.9567542989686568E-01 a      1341     0    45     1    21
  7.2635146827470395E-02 a      1342     0    45     1    22
 -9.7789907510616991E-01 a      1343     0    45     1    23
  2.9063064264082078E-01 a      1344     0    45     1    24
 -1.0298878638688926E+00 a      1345     0    45     1    25
  2.1896823884090125E-01 a      1346     0    45     1    26
  5.9350246065514545E-01 a      1347     0    45     1    27
  1.0748490801174522E+00 a      1348     0    45     1    28
  1.4771972411513415E-01 a      1349     0    45     1    29
 -5.6812863216688203E-01 a      1350     0    45     1    30
 -6.1105204475780217E-01 a      1351     0    46     1     1
 -1.5222966367612908E-01 a      1352     0    46     1     2
 -1.2797937725252289E+00 a      1353     0    46     1     3
  1.0081403116172007E+00 a      1354     0    46     1     4
 -1.0865646734134837E+00 a      1355     0    46     1     5
 -5.1304768636161158E-01 a      1356     0    46     1     6
  8.9210525714788089E-02 a      1357     0    46     1     7
  9.5548529381922465E-01 a      1358     0    46     1     8
  2.4014120194747313E-01 a      1359     0    46     1     9
  8.7769530059249568E-01 a      1360     0    46     1    10
 -6.3857608210949272E-03 a      1361     0    46     1    11
 -1.2763030469391401E+00 a      1362     0    46     1    12
 -1.3109897486570325E+00 a      1363     0    46     1    13
 -4.6770588954381609E-01 a      1364     0    46     1    14
  1.4645138945463714E+00 a      1365     0    46     1    15
 -5.4368494805827616E-01 a      1366     0    46     1    16
  5.8453478532735736E-01 a      1367     0    46     1    17
  1.4333621560839767E+00 a      1368     0    46     1    18
  4.5339791063344032E-01 a      1369     0    46     1    19
  7.3667838863351232E-01 a      1370     0    46     1    20
 -7.3243868015225189E-01 a      1371     0    46     1    21
  5.4581630241643597E-01 a      1372     0    46     1    22
  4.2722147995865306E-01 a      1373     0    46     1    23
 -1.1215540002518769E-01 a      1374     0    46     1    24
  8.8362979282576026E-01 a      1375     0    46     1    25
  4.9060240138136307E-01 a      1376     0    46     1    26
 -2.2847929472790053E-02 a      1377     0    46     1    27
 -5.9060140556543594E-01 a      1378     0    46     1    28
  7.3952348117106270E-02 a      1379     0    46     1    29
  8.4781946210331605E-01 a      1380     0    46     1    30
  1.7398367665656997E-01 b      1381     1     1
  5.9565788021815801E-02 b      1382     1     2
 -6.2047502869411832E-02 b      1383     1     3
 -1.8283484600696365E-01 b      1384     1     4
 -2.4907616804496366E-01 b      1385     1     5
  6.5615076459858424E-02 b      1386     1     6
 -1.7147520415278716E-01 b      1387     1     7
  1.9804297719478664E-01 b      1388     1     8
  3.3668422739029241E-01 b      1389     1     9
 -5.0184145501417352E-02 b      1390     1    10
 -3.0999508364155375E-02 b      1391     1    11
  1.0364060054689739E-01 b      1392     1    12
  2.9875909491571118E-01 b      1393     1    13
  1.1973692099380205E-01 b      1394     1    14
 -2.4462056904377139E-02 b      1395     1    15
  1.1661043248166948E-01 b      1396     1    16
 -9.7957802243774594E-02 b      1397     1    17
 -1.0278439563437054E-01 b      1398     1    18
  2.0994068795436465E-03 b      1399     1    19
 -4.0070170919700642E-03 b      1400     1    20
  2.5782371465737305E-02 b      1401     1    21
  2.1481012597047797E-01 b      1402     1    22
 -1.6013923598448052E-01 b      1403     1    23
  2.1466308365208353E-01 b      1404     1    24
 -6.1730049455818503E-02 b      1405     1    25
 -1.3796091940430874E-01 b      1406     1    26
 -2.8908699242540550E-02 b      1407     1    27
 -1.4184061077302626E-01 b      1408     1    28
 -2.8194702771757291E-01 b      1409     1    29
  3.2952173144982932E-01 b      1410     1    30
  6.6965318095261361E-01 a      1411     1     1     2     1
 -1.5623830409595422E-02 a      1412     1     1     2     2
  5.1571737751496016E-01 a      1413     1     1     2     3
 -1.4323961544284800E-01 a      1414     1     1     2     4
 -3.4509638426243178E-01 a      1415     1     1     2     5
 -6.8931740094682531E-02 a      1416     1     1     2     6
 -8.6496056270071164E-01 a      1417     1     1     2     7
  3.8464357639337537E-01 a      1418     1     1     2     8
 -8.5145534285761312E-02 a      1419     1     1     2     9
 -5.3801666332462653E-02 a      1420     1     1     2    10
 -7.2768239071875951E-01 a      1421     1     1     2    11
 -4.4332605771559605E-02 a      1422     1     1     2    12
  9.6752546528646607E-02 a      1423     1     1     2    13
  2.5215892464140649E-01 a      1424     1     1     2    14
 -3.8725079653395289E-01 a      1425     1     1     2    15
 -4.6009599428545422E-01 a      1426     1     1     2    16
  3.1838382731749043E-01 a      1427     1     1     2    17
 -5.5137882857019788E-02 a      1428     1     1     2    18
 -1.7933379084949788E-01 a      1429     1     1     2    19
 -3.3513083519094905E-01 a      1430     1     1     2    20
  1.5967525774857924E-01 a      1431     1     1     2    21
  1.3804335048365210E-01 a      1432     1     1     2    22
 -5.5857700983002878E-01 a      1433     1     1     2    23
  2.6509849942806352E-01 a      1434     1     1     2    24
  3.0720547986468366E-01 a      1435     1     1     2    25
  3.1428459525104896E-01 a      1436     1     1     2    26
  5.8965013786532228E-01 a      1437     1     1     2    27
  8.5211719311093292E-01 a      1438     1     1     2    28
  4.6869826503190709E-01 a      1439     1     1     2    29
 -2.2755424656299098E-02 a      1440     1     1     2    30
  2.2411585316126623E-01 a      1441     1     2     2     1
 -4.8432630080363637E-02 a      1442     1     2     2     2
 -1.2058817090932741E-01 a      1443     1     2     2     3
  3.5655014626866949E-01 a      1444     1     2     2     4
  1.9395654620555999E-01 a      1445     1     2     2     5
 -8.3191425665907953E-02 a      1446     1     2     2     6
  4.0476497604074990E-01 a      1447     1     2     2     7
 -1.3710285734907465E-01 a      1448     1     2     2     8
 -1.2686982391366444E-01 a      1449     1     2     2     9
  5.8582784667976584E-01 a      1450     1     2     2    10
 -1.0379378749712749E+00 a      1451     1     2     2    11
 -3.7425350039342054E-01 a      1452     1     2     2    12
  3.4047488909716310E-02 a      1453     1     2     2    13
  3.0265407349058676E-01 a      1454     1     2     2    14
  5.1597470288030034E-01 a      1455     1     2     2    15
 -2.6515912022281912E-01 a      1456     1     2     2    16
  3.1351018101171146E-01 a      1457     1     2     2    17
  2.5585319244473698E-01 a      1458     1     2     2    18
  5.3331630471232461E-01 a      1459     1     2     2    19
  5.0468787484861244E-01 a      1460     1     2     2    20
 -4.5678075500320320E-01 a      1461     1     2     2    21
 -2.2997471014031862E-01 a      1462     1     2     2    22
 -2.8809215855619730E-02 a      1463     1     2     2    23
 -3.2656281922721980E-01 a      1464     1     2     2    24
 -7.9643541875584978E-02 a      1465     1     2     2    25
  2.8966044734733881E-01 a      1466     1     2     2    26
  5.6340721295244678E-01 a      1467     1     2     2    27
 -6.1800262238865400E-01 a      1468     1     2     2    28
 -2.7081548437775943E-01 a      1469     1     2     2    29
  4.3991638769272912E-01 a      1470     1     2     2    30
 -4.0350901047345018E-02 a      1471     1     3     2     1
  1.1030808133695207E+00 a      1472     1     3     2     2
 -3.4785008363086184E-01 a      1473     1     3     2     3
 -2.8805920073959168E-01 a      1474     1     3     2     4
  7.0785179206704985E-01 a      1475     1     3     2     5
  1.3969543406679732E-01 a      1476     1     3     2     6
  5.2383469034180508E-02 a      1477     1     3     2     7
  5.7300907900072355E-02 a      1478     1     3     2     8
  3.8482947567776753E-02 a      1479     1     3     2     9
 -1.4201100444308140E-01 a      1480     1     3     2    10
  2.1092219406388263E-01 a      1481     1     3     2    11
 -1.3056546675242728E-01 a      1482     1     3     2    12
  1.3699130904234641E-01 a      1483     1     3     2    13
  1.1781669948832225E-01 a      1484     1     3     2    14
  1.1332381487070011E+00 a      1485     1     3     2    15
 -2.1864171930926468E-01 a      1486     1     3     2    16
  1.5854672325904007E-01 a      1487     1     3     2    17
 -2.0763872116415344E-01 a      1488     1     3     2    18
 -1.2119298711774150E-01 a      1489     1     3     2    19
 -1.7664007679790392E-01 a      1490     1     3     2    20
  3.4070449127953192E-02 a      1491     1     3     2    21
  6.7494802686126509E-01 a      1492     1     3     2    22
  5.0493648635061139E-01 a      1493     1     3     2    23
  1.1157953169845554E-01 a      1494     1     3     2    24
  4.8500163473396085E-01 a      1495     1     3     2    25
  1.0815890729078537E-01 a      1496     1     3     2    26
  2.1390469864524261E-01 a      1497     1     3     2    27
  2.4957629211728122E-01 a      1498     1     3     2    28
  1.0432733300887007E+00 a      1499     1     3     2    29
 -1.0175460145955370E-01 a      1500     1     3     2    30
  2.7562530164814497E-01 a      1501     1     4     2     1
  1.8629044662691149E-01 a      1502     1     4     2     2
 -8.0806106325928342E-02 a      1503     1     4     2     3
  3.6180030478713548E-01 a      1504     1     4     2     4
 -2.7204088678094940E-01 a      1505     1     4     2     5
  3.0447219620066443E-03 a      1506     1     4     2     6
  2.0770575349934758E-01 a      1507     1     4     2     7
 -4.5832869722995107E-01 a      1508     1     4     2     8
 -1.5471237743899735E-01 a      1509     1     4     2     9
 -7.0297083574564656E-01 a      1510     1     4     2    10
  3.6942419593540959E-01 a      1511     1     4     2    11
 -1.4199387738575559E-02 a      1512     1     4     2    12
 -2.1783263725880653E-01 a      1513     1     4     2    13
  5.5786768216564897E-01 a      1514     1     4     2    14
 -2.4431880144830667E-01 a      1515     1     4     2    15
  6.1369383062055838E-01 a      1516     1     4     2    16
  8.4444874408872306E-01 a      1517     1     4     2    17
  2.2909248136742975E-02 a      1518     1     4     2    18
 -1.8612163722933803E-01 a      1519     1     4     2    19
 -7.3884014391783936E-01 a      1520     1     4     2    20
 -1.2228482372714209E-02 a      1521     1     4     2    21
 -3.8228239523670954E-01 a      1522     1     4     2    22
 -5.9930617590449897E-01 a      1523     1     4     2    23
  8.1543753997217694E-01 a      1524     1     4     2    24
  5.3826825999115924E-01 a      1525     1     4     2    25
  5.8101217565716312E-01 a      1526     1     4     2    26
 -6.3481772797324143E-01 a      1527     1     4     2    27
 -6.3979067611286883E-02 a      1528     1     4     2    28
  9.0226758573037247E-01 a      1529     1     4     2    29
  4.1659412160346182E-01 a      1530     1     4     2    30
  4.2476960678521525E-02 a      1531     1     5     2     1
  6.5272225754665181E-02 a      1532     1     5     2     2
  2.9778109989563803E-02 a      1533     1     5     2     3
 -6.3322040425089865E-01 a      1534     1     5     2     4
 -2.8703422220019392E-01 a      1535     1     5     2     5
  7.2524354922424789E-02 a      1536     1     5     2     6
  7.2623899135126935E-01 a      1537     1     5     2     7
  4.2210143357331836E-01 a      1538     1     5     2     8
 -2.9180511884448457E-01 a      1539     1     5     2     9
 -3.0972450173169741E-01 a      1540     1     5     2    10
 -4.2702259318780061E-01 a      1541     1     5     2    11
 -6.2792535478229938E-01 a      1542     1     5     2    12
  8.0807710171405611E-01 a      1543     1     5     2    13
  6.7026598937758586E-01 a      1544     1     5     2    14
 -3.1823110002190153E-01 a      1545     1     5     2    15
  5.1305019317137712E-01 a      1546     1     5     2    16
  3.8210162850915649E-02 a      1547     1     5     2    17
  5.3324978103868237E-01 a      1548     1     5     2    18
 -4.9786227734070647E-02 a      1549     1     5     2    19
 -4.3387903459923244E-01 a      1550     1     5     2    20
 -1.2617886865539180E-01 a      1551     1     5     2    21
 -1.1168639436153427E+00 a      1552     1     5     2    22
 -9.9529501435834111E-03 a      1553     1     5     2    23
  2.4893365732741310E-01 a      1554     1     5     2    24
 -2.1277530580681364E-01 a      1555     1     5     2    25
  3.6285144690936369E-02 a      1556     1     5     2    26
 -3.6103129920315663E-01 a      1557     1     5     2    27
  6.7011968539328948E-02 a      1558     1     5     2    28
  9.1545210432746182E-01 a      1559     1     5     2    29
 -2.7961405933998218E-01 a      1560     1     5     2    30
 -2.8832535069598675E-01 a      1561     1     6     2     1
  6.7433207863115452E-01 a      1562     1     6     2     2
 -2.3188814272474786E-01 a      1563     1     6     2     3
 -1.9937144659832221E-02 a      1564     1     6     2     4
  2.7820302156322703E-02 a      1565     1     6     2     5
 -2.5821809669009353E-02 a      1566     1     6     2     6
 -2.5662526521256035E-01 a      1567     1     6     2     7
 -1.3900936382182266E-01 a      1568     1     6     2     8
 -5.0350123402425462E-01 a      1569     1     6     2     9
  3.3198722459124780E-01 a      1570     1     6     2    10
  7.7832007765039013E-01 a      1571     1     6     2    11
 -3.9188685766889786E-01 a      1572     1     6     2    12
 -1.3880306867489600E+00 a      1573     1     6     2    13
 -2.0486671963602957E-01 a      1574     1     6     2    14
  3.8247022679901529E-02 a      1575     1     6     2    15
 -2.4877938398767382E-01 a      1576     1     6     2    16
 -2.9218606753230836E-01 a      1577     1     6     2    17
 -5.0678824809616607E-01 a      1578     1     6     2    18
 -6.4152524350581230E-01 a      1579     1     6     2    19
  1.1904358916098265E-01 a      1580     1     6     2    20
  1.8133953519151602E-01 a      1581     1     6     2    21
  7.9318232195436389E-01 a      1582     1     6     2    22
 -4.2978979609097379E-01 a      1583     1     6     2    23
  1.7091278988089542E-01 a      1584     1     6     2    24
  1.9736478891367557E-01 a      1585     1     6     2    25
  3.8672675107746757E-01 a      1586     1     6     2    26
 -2.1311023923374733E-01 a      1587     1     6     2    27
  1.9301818203109430E-01 a      1588     1     6     2    28
  2.2165007553594035E-01 a      1589     1     6     2    29
 -2.2909323104953291E-01 a      1590     1     6     2    30
 -2.9569781389986133E-01 a      1591     1     7     2     1
  4.6310319982383408E-01 a      1592     1     7     2     2
  7.0895376969597990E-01 a      1593     1     7     2     3
  3.0235077377826828E-02 a      1594     1     7     2     4
 -1.7759789986535188E-01 a      1595     1     7     2     5
  2.0538861063132277E-01 a      1596     1     7     2     6
  8.1864664655489194E-01 a      1597     1     7     2     7
 -5.9695306601791542E-01 a      1598     1     7     2     8
  1.9561272569778857E-02 a      1599     1     7     2     9
  8.3577989078896270E-02 a      1600     1     7     2    10
  7.4254321476709362E-01 a      1601     1     7     2    11
  1.0571388494510292E+00 a      1602     1     7     2    12
 -5.1053996660319423E-01 a      1603     1     7     2    13
 -5.0671045183102496E-02 a      1604     1     7     2    14
  7.0543150071159277E-01 a      1605     1     7     2    15
  2.1245419779780436E-01 a      1606     1     7     2    16
 -6.6965493090100761E-02 a      1607     1     7     2    17
 -4.3684709759422397E-01 a      1608     1     7     2    18
 -2.7607384709260158E-01 a      1609     1     7     2    19
 -2.9829914371715788E-01 a      1610     1     7     2    20
  2.8821200869892951E-02 a      1611     1     7     2    21
  8.6046568068733023E-02 a      1612     1     7     2    22
 -1.5754936166479711E-01 a      1613     1     7     2    23
  8.9957959150162226E-01 a      1614     1     7     2    24
  1.6037720430539018E-01 a      1615     1     7     2    25
 -3.9809973946543634E-02 a      1616     1     7     2    26
 -6.0858025928828752E-01 a      1617     1     7     2    27
 -6.8968857925989102E-01 a      1618     1     7     2    28
  5.0539266960200990E-01 a      1619     1     7     2    29
 -3.4024011414365771E-02 a      1620     1     7     2    30
  5.5247788205312998E-01 a      1621     1     8     2     1
  2.5355618921227691E-01 a      1622     1     8     2     2
 -1.3812892954445058E-01 a      1623     1     8     2     3
  5.7312608787829944E-01 a      1624     1     8     2     4
  1.7718453993734318E-01 a      1625     1     8     2     5
 -4.9779016525374885E-02 a      1626     1     8     2     6
  1.1034573437153337E+00 a      1627     1     8     2     7
 -7.1652013670895676E-01 a      1628     1     8     2     8
  3.2969540095631183E-01 a      1629     1     8     2     9
