################################################################################
# Neural network connection values (weights and biases).
################################################################################
# Col  Name       Description
################################################################################
# 1    connection Neural network connection value.
# 2    t          Connection type (a = weight, b = bias).
# 3    index      Index enumerating weights.
# 4    l_s        Starting point layer (end point layer for biases).
# 5    n_s        Starting point neuron in starting layer (end point neuron for biases).
# 6    l_e        End point layer.
# 7    n_e        End point neuron in end layer.
################################################################################
#                      1 2         3     4     5     6     7
#             connection t     index   l_s   n_s   l_e   n_e
############################################################
  1.4034651142260790E-01 a         1     0     1     1     1
  2.5350169478226357E-02 a         2     0     1     1     2
 -9.9629493329855726E-02 a         3     0     1     1     3
  2.4745856120915780E-01 a         4     0     1     1     4
  1.5174375491890843E-01 a         5     0     1     1     5
  3.7442481408435335E-01 a         6     0     1     1     6
  1.6143846231128350E-01 a         7     0     1     1     7
 -5.5651806497929363E-02 a         8     0     1     1     8
 -1.7884249488666856E-01 a         9     0     1     1     9
 -1.4592326286060961E-01 a        10     0     1     1    10
 -3.2215609148080332E-01 a        11     0     1     1    11
 -7.2155337091593325E-03 a        12     0     1     1    12
 -3.1523056788682219E-01 a        13     0     1     1    13
 -4.6789817118347976E-01 a        14     0     1     1    14
 -6.2317815631646623E-01 a        15     0     1     1    15
 -6.0166031719872427E-02 a        16     0     1     1    16
  6.8816774070607892E-02 a        17     0     1     1    17
  6.0076371006748883E-02 a        18     0     1     1    18
 -1.9541025704805878E-01 a        19     0     1     1    19
 -1.1479001965921859E-02 a        20     0     1     1    20
  1.1971491567715629E-01 a        21     0     1     1    21
 -9.2597262639069713E-02 a        22     0     1     1    22
 -3.0791920063162925E-01 a        23     0     1     1    23
 -8.1690731993084575E-02 a        24     0     1     1    24
 -7.9382186803265961E-02 a        25     0     1     1    25
 -6.7740239351992540E-02 a        26     0     1     1    26
 -1.6720121718727615E-01 a        27     0     1     1    27
  6.9136115815984249E-03 a        28     0     1     1    28
 -2.1747878245105126E-01 a        29     0     1     1    29
  2.0638746994738147E-01 a        30     0     1     1    30
  9.8714079175068303E-02 a        31     0     2     1     1
 -2.2340439084405744E-01 a        32     0     2     1     2
 -3.2846434134893507E-02 a        33     0     2     1     3
  2.0933506235468397E-01 a        34     0     2     1     4
  6.1584424838628922E-02 a        35     0     2     1     5
 -2.1793870554174299E-01 a        36     0     2     1     6
 -1.8574027145633548E-01 a        37     0     2     1     7
 -1.7276860820173373E-01 a        38     0     2     1     8
  5.5806653474177778E-02 a        39     0     2     1     9
 -4.0273614284384779E-01 a        40     0     2     1    10
 -4.3428442529739586E-01 a        41     0     2     1    11
 -1.4144115635957188E-01 a        42     0     2     1    12
 -3.3817254828178672E-01 a        43     0     2     1    13
 -8.8684124903432776E-02 a        44     0     2     1    14
 -3.5039566181340753E-01 a        45     0     2     1    15
  7.4150060491126352E-02 a        46     0     2     1    16
 -3.2941161977297156E-02 a        47     0     2     1    17
  2.0545530753184321E-01 a        48     0     2     1    18
 -8.6929416602795490E-02 a        49     0     2     1    19
 -1.4474758469654572E-01 a        50     0     2     1    20
  1.1282218100075377E-01 a        51     0     2     1    21
  1.8395441717315689E-01 a        52     0     2     1    22
  3.6142223397800051E-02 a        53     0     2     1    23
 -3.2521195657915819E-01 a        54     0     2     1    24
 -5.6969681806453405E-02 a        55     0     2     1    25
 -3.7644687722719963E-02 a        56     0     2     1    26
 -1.2325860291591544E-01 a        57     0     2     1    27
 -2.7313034728432317E-01 a        58     0     2     1    28
 -2.0649935791728379E-02 a        59     0     2     1    29
  1.9994061243361927E-01 a        60     0     2     1    30
  2.3902845203741399E-03 a        61     0     3     1     1
  2.3503657341427769E-01 a        62     0     3     1     2
 -2.5472004945895560E-01 a        63     0     3     1     3
 -5.1608210472932348E-02 a        64     0     3     1     4
 -5.7548193379479862E-02 a        65     0     3     1     5
  5.3808655762356383E-02 a        66     0     3     1     6
 -3.5481307942626350E-01 a        67     0     3     1     7
  2.9065389714712921E-02 a        68     0     3     1     8
 -2.2586363602966061E-01 a        69     0     3     1     9
 -2.5505540948693040E-01 a        70     0     3     1    10
  1.7791998956212021E-01 a        71     0     3     1    11
 -1.0989615370577087E-01 a        72     0     3     1    12
  2.1697913669992624E-01 a        73     0     3     1    13
  6.9308009340665638E-02 a        74     0     3     1    14
 -2.9918352182378199E-01 a        75     0     3     1    15
 -1.1255016023972048E-01 a        76     0     3     1    16
 -1.6220728960575231E-02 a        77     0     3     1    17
 -9.6439011238199951E-02 a        78     0     3     1    18
  1.9672693511616204E-01 a        79     0     3     1    19
 -1.1978885363669389E-01 a        80     0     3     1    20
 -8.5077722880742192E-03 a        81     0     3     1    21
  1.5228567283391417E-01 a        82     0     3     1    22
  9.8942372453159538E-02 a        83     0     3     1    23
  1.9974152036895065E-02 a        84     0     3     1    24
 -8.1343286048267863E-02 a        85     0     3     1    25
 -3.1087049107627074E-01 a        86     0     3     1    26
 -1.2711327501885308E-01 a        87     0     3     1    27
 -6.8567870567883271E-02 a        88     0     3     1    28
  1.0171658486232278E-01 a        89     0     3     1    29
 -7.3742537169892500E-02 a        90     0     3     1    30
 -1.5920083270067670E-01 a        91     0     4     1     1
  1.1159179915105411E-01 a        92     0     4     1     2
  6.6436990761714276E-02 a        93     0     4     1     3
  2.8793629287169734E-02 a        94     0     4     1     4
  1.2113161520540411E-01 a        95     0     4     1     5
  9.6698704826304507E-02 a        96     0     4     1     6
 -3.9246733218604046E-01 a        97     0     4     1     7
  2.9792046762252306E-01 a        98     0     4     1     8
 -3.4271156047514179E-01 a        99     0     4     1     9
  1.8707666353000688E-01 a       100     0     4     1    10
  2.1855836087398228E-01 a       101     0     4     1    11
 -8.1326701749013991E-02 a       102     0     4     1    12
  3.7348821380752101E-01 a       103     0     4     1    13
  1.0952977564588499E-01 a       104     0     4     1    14
 -5.0020024515909131E-02 a       105     0     4     1    15
 -2.6951702593391286E-01 a       106     0     4     1    16
 -2.3028521399503851E-01 a       107     0     4     1    17
  1.0090773800452453E-01 a       108     0     4     1    18
  2.9918985616847783E-02 a       109     0     4     1    19
  7.3684259799060223E-02 a       110     0     4     1    20
 -1.2129929138670478E-01 a       111     0     4     1    21
  8.9569223051510938E-02 a       112     0     4     1    22
 -1.1214588810818608E-01 a       113     0     4     1    23
  2.5660542982368423E-01 a       114     0     4     1    24
  6.7460320857186881E-02 a       115     0     4     1    25
 -1.2254868424911332E-02 a       116     0     4     1    26
 -6.8802489431543670E-02 a       117     0     4     1    27
  9.1344577196705204E-02 a       118     0     4     1    28
  8.0014412879680419E-02 a       119     0     4     1    29
  2.8037142969498596E-01 a       120     0     4     1    30
 -4.4570422511398877E-01 a       121     0     5     1     1
  6.2106725292349640E-01 a       122     0     5     1     2
  5.2945675525801472E-01 a       123     0     5     1     3
  2.2422721093178538E-01 a       124     0     5     1     4
 -8.5761088430914040E-02 a       125     0     5     1     5
  7.1469036634448119E-02 a       126     0     5     1     6
  2.5037638306342336E-01 a       127     0     5     1     7
 -7.7143889026784151E-02 a       128     0     5     1     8
 -9.9959865921031565E-02 a       129     0     5     1     9
  6.1741284202738410E-02 a       130     0     5     1    10
  1.5753614351382639E-01 a       131     0     5     1    11
 -1.9316083555330035E-01 a       132     0     5     1    12
  1.4630703896058023E-01 a       133     0     5     1    13
  3.7057104507369998E-01 a       134     0     5     1    14
 -2.4854573373590305E-01 a       135     0     5     1    15
 -5.4118521902293715E-01 a       136     0     5     1    16
  3.7165181016239851E-01 a       137     0     5     1    17
 -9.4519847979765342E-02 a       138     0     5     1    18
  3.5609943617408485E-01 a       139     0     5     1    19
  1.3968771701712010E-01 a       140     0     5     1    20
 -1.3898893730751788E-01 a       141     0     5     1    21
 -8.6948672108013714E-01 a       142     0     5     1    22
 -3.5183865644813483E-01 a       143     0     5     1    23
  1.8496798543699988E-01 a       144     0     5     1    24
 -1.6757080282359191E-01 a       145     0     5     1    25
 -1.8155665870118676E-01 a       146     0     5     1    26
 -5.2945829481794482E-01 a       147     0     5     1    27
 -3.8013247945992462E-01 a       148     0     5     1    28
  4.8117713436002352E-01 a       149     0     5     1    29
  9.9404320597990092E-02 a       150     0     5     1    30
  2.9403700804385213E-01 a       151     0     6     1     1
 -2.1525973342957422E-01 a       152     0     6     1     2
  2.4044416449096934E-01 a       153     0     6     1     3
 -2.3433926904407706E-02 a       154     0     6     1     4
 -6.1887019455723037E-02 a       155     0     6     1     5
 -3.6043508746835157E-01 a       156     0     6     1     6
 -4.0689762506761190E-01 a       157     0     6     1     7
  1.7733297027587291E-01 a       158     0     6     1     8
  2.2744449302448591E-01 a       159     0     6     1     9
  1.6890411944000444E-01 a       160     0     6     1    10
 -7.6789354437913751E-02 a       161     0     6     1    11
 -2.5011091058044332E-01 a       162     0     6     1    12
  4.5952917029117901E-01 a       163     0     6     1    13
 -2.4929705367310040E-01 a       164     0     6     1    14
  4.7639514222065932E-01 a       165     0     6     1    15
  3.8244693518500739E-01 a       166     0     6     1    16
  1.1827839237659959E-01 a       167     0     6     1    17
 -1.6574037331872077E-01 a       168     0     6     1    18
 -2.4308164739883231E-01 a       169     0     6     1    19
  2.5851921071361783E-01 a       170     0     6     1    20
 -2.2418054614513847E-01 a       171     0     6     1    21
  4.0730241237795445E-01 a       172     0     6     1    22
  5.3471475313698269E-01 a       173     0     6     1    23
 -1.1369844697603169E-01 a       174     0     6     1    24
  4.9802566289845424E-01 a       175     0     6     1    25
  6.4016905848454531E-01 a       176     0     6     1    26
  1.5473874732193874E-01 a       177     0     6     1    27
  5.3513450151780184E-01 a       178     0     6     1    28
 -1.8167642537390230E-01 a       179     0     6     1    29
  5.4881588179681938E-02 a       180     0     6     1    30
  9.4851024696439978E-03 a       181     0     7     1     1
 -3.1139190850636722E-01 a       182     0     7     1     2
  4.8380285418213910E-02 a       183     0     7     1     3
 -2.3995676542336769E-01 a       184     0     7     1     4
 -6.9309294860960324E-02 a       185     0     7     1     5
 -4.2208080597587835E-02 a       186     0     7     1     6
 -1.1937607756941625E-01 a       187     0     7     1     7
 -3.0022261873216483E-01 a       188     0     7     1     8
  3.3351883006353866E-01 a       189     0     7     1     9
  4.7303125248595385E-01 a       190     0     7     1    10
 -9.4144388270717597E-02 a       191     0     7     1    11
 -6.8926921105220487E-02 a       192     0     7     1    12
  1.7082352417141378E-01 a       193     0     7     1    13
  2.6528476524942994E-02 a       194     0     7     1    14
  1.0558470708227794E+00 a       195     0     7     1    15
  2.8959388144363812E-01 a       196     0     7     1    16
  4.9268330088270307E-02 a       197     0     7     1    17
 -3.2950605176474812E-01 a       198     0     7     1    18
  2.8042947174892963E-01 a       199     0     7     1    19
  3.0106327307025943E-01 a       200     0     7     1    20
  2.7558930655807051E-01 a       201     0     7     1    21
  5.6000660905470168E-01 a       202     0     7     1    22
  8.0216134597214706E-01 a       203     0     7     1    23
 -1.2755621868135492E-01 a       204     0     7     1    24
  3.1430914700138790E-01 a       205     0     7     1    25
  5.3293008626831395E-01 a       206     0     7     1    26
 -3.6614326835209862E-02 a       207     0     7     1    27
  4.0835263111126507E-02 a       208     0     7     1    28
 -4.5574568466429277E-01 a       209     0     7     1    29
  2.1581552064659637E-01 a       210     0     7     1    30
 -7.4425830886476696E-02 a       211     0     8     1     1
 -3.1153962314320394E-01 a       212     0     8     1     2
  6.9169393074595339E-02 a       213     0     8     1     3
 -2.5857488837655768E-01 a       214     0     8     1     4
  3.2276838066620056E-01 a       215     0     8     1     5
 -4.8148194909013446E-02 a       216     0     8     1     6
  6.8099781428429773E-01 a       217     0     8     1     7
  1.3663342654645697E-01 a       218     0     8     1     8
  9.0097373114108575E-03 a       219     0     8     1     9
  4.2602684687403067E-02 a       220     0     8     1    10
  4.6090672274190475E-02 a       221     0     8     1    11
  1.1546531889826997E-01 a       222     0     8     1    12
 -2.9625177161560834E-01 a       223     0     8     1    13
 -5.9430987320779805E-01 a       224     0     8     1    14
 -1.2266970565151036E-01 a       225     0     8     1    15
 -4.3132487567698152E-01 a       226     0     8     1    16
 -2.7309584145142485E-01 a       227     0     8     1    17
  5.5202935999205054E-02 a       228     0     8     1    18
 -4.1237219214793297E-01 a       229     0     8     1    19
 -2.4147883801045861E-01 a       230     0     8     1    20
  1.1861515132049705E-01 a       231     0     8     1    21
  2.3395510788332785E-01 a       232     0     8     1    22
  1.5160324624327456E-01 a       233     0     8     1    23
 -9.1651798497166009E-02 a       234     0     8     1    24
  1.2607055752393469E-02 a       235     0     8     1    25
 -1.4162884974799494E-01 a       236     0     8     1    26
  1.7002376473025652E-01 a       237     0     8     1    27
 -5.8116511788031622E-01 a       238     0     8     1    28
 -3.2621698953189858E-02 a       239     0     8     1    29
 -6.3562967721623287E-01 a       240     0     8     1    30
 -4.2786089494845975E-01 a       241     0     9     1     1
 -3.1961980932332285E-01 a       242     0     9     1     2
 -8.1605937045800825E-02 a       243     0     9     1     3
  5.1469549075784315E-01 a       244     0     9     1     4
  1.9755220004193610E-01 a       245     0     9     1     5
  2.7837472328272933E-01 a       246     0     9     1     6
  3.5855975274238550E-01 a       247     0     9     1     7
 -6.2280723783840329E-02 a       248     0     9     1     8
  3.3235573598328150E-01 a       249     0     9     1     9
 -1.9787197202172727E-01 a       250     0     9     1    10
 -1.8764888327688176E-01 a       251     0     9     1    11
 -1.1180976350162883E-01 a       252     0     9     1    12
  2.1059703926020468E-01 a       253     0     9     1    13
 -6.1275862249302659E-01 a       254     0     9     1    14
  3.6289193088992489E-01 a       255     0     9     1    15
 -3.3012236994935118E-01 a       256     0     9     1    16
 -1.7341503541109035E-01 a       257     0     9     1    17
 -1.4577627346503825E-02 a       258     0     9     1    18
 -2.4146449032034153E-02 a       259     0     9     1    19
  2.4221428749790372E-01 a       260     0     9     1    20
 -4.5893015996288739E-01 a       261     0     9     1    21
 -1.9478838273423790E-01 a       262     0     9     1    22
  1.1822936807037394E-01 a       263     0     9     1    23
 -1.7565721722098449E-01 a       264     0     9     1    24
  2.3013332326533473E-01 a       265     0     9     1    25
  8.2788397034258676E-01 a       266     0     9     1    26
 -6.4277363340680363E-02 a       267     0     9     1    27
  8.8953769445063613E-02 a       268     0     9     1    28
 -1.9517073553714614E-01 a       269     0     9     1    29
 -3.0471091260931869E-02 a       270     0     9     1    30
 -2.9801858019250105E-01 a       271     0    10     1     1
 -1.1404888766852063E-01 a       272     0    10     1     2
 -2.8438282780455887E-01 a       273     0    10     1     3
  1.0357744944811505E-01 a       274     0    10     1     4
 -2.4567261612115976E-01 a       275     0    10     1     5
  1.0189736281098469E-01 a       276     0    10     1     6
  2.9054568694705724E-01 a       277     0    10     1     7
 -1.0112164481186829E-01 a       278     0    10     1     8
 -1.2199411724018568E-01 a       279     0    10     1     9
  9.1898719526118684E-03 a       280     0    10     1    10
 -4.0549466551640057E-01 a       281     0    10     1    11
  1.2640714547585136E-01 a       282     0    10     1    12
  9.6322279353397901E-03 a       283     0    10     1    13
 -2.1495932200399437E-01 a       284     0    10     1    14
  3.3239141503831471E-01 a       285     0    10     1    15
 -7.6631092736359999E-02 a       286     0    10     1    16
 -4.0120700192124809E-01 a       287     0    10     1    17
 -1.6149322915978584E-01 a       288     0    10     1    18
  2.2723586233158360E-01 a       289     0    10     1    19
  1.0854919638836651E-02 a       290     0    10     1    20
 -7.2569409739898741E-02 a       291     0    10     1    21
 -1.3845568800502489E-01 a       292     0    10     1    22
  4.1424781924121373E-01 a       293     0    10     1    23
 -1.6899849482525828E-01 a       294     0    10     1    24
 -1.7999240812066217E-01 a       295     0    10     1    25
  8.3643401231212888E-03 a       296     0    10     1    26
 -2.2844903374021930E-01 a       297     0    10     1    27
  3.2683230528431179E-01 a       298     0    10     1    28
 -6.6892500527609457E-03 a       299     0    10     1    29
 -9.3307503846352148E-03 a       300     0    10     1    30
  2.1186342384993706E-01 a       301     0    11     1     1
  4.5260459384459589E-01 a       302     0    11     1     2
  9.5034630551670427E-02 a       303     0    11     1     3
  2.2015664885024003E-02 a       304     0    11     1     4
 -5.2187162030750944E-01 a       305     0    11     1     5
  3.5760745923199883E-01 a       306     0    11     1     6
 -1.5188765362505975E-02 a       307     0    11     1     7
  4.9879967167003814E-01 a       308     0    11     1     8
 -4.4578578916161088E-01 a       309     0    11     1     9
 -2.3852395331070753E-01 a       310     0    11     1    10
 -2.9951205762529076E-01 a       311     0    11     1    11
  1.3098830623207844E-02 a       312     0    11     1    12
  7.5865724596742595E-02 a       313     0    11     1    13
  1.3045772291863314E-01 a       314     0    11     1    14
 -5.0074859548707544E-02 a       315     0    11     1    15
  2.9240786875649033E-01 a       316     0    11     1    16
 -1.6008426066838003E-02 a       317     0    11     1    17
  3.1729215671494682E-01 a       318     0    11     1    18
  4.6973276854712964E-01 a       319     0    11     1    19
  8.2575265090447762E-03 a       320     0    11     1    20
  4.0987017357733624E-01 a       321     0    11     1    21
  1.4178119870687242E-01 a       322     0    11     1    22
 -6.9451590610924971E-02 a       323     0    11     1    23
 -3.8269376779577186E-01 a       324     0    11     1    24
 -3.2567551734303374E-01 a       325     0    11     1    25
  1.4274256406929543E-02 a       326     0    11     1    26
  2.7444438349230588E-01 a       327     0    11     1    27
 -1.3015170475143656E-01 a       328     0    11     1    28
  1.2157898139974560E-01 a       329     0    11     1    29
  2.3240669715958834E-01 a       330     0    11     1    30
 -7.1971049226020711E-02 a       331     0    12     1     1
  1.3305491984187057E-01 a       332     0    12     1     2
  1.4383343674649818E-01 a       333     0    12     1     3
 -6.2417844873521711E-01 a       334     0    12     1     4
  1.2876438527535800E-02 a       335     0    12     1     5
 -7.2951138763325624E-02 a       336     0    12     1     6
 -2.8749495084927340E-01 a       337     0    12     1     7
 -2.8111660040682215E-02 a       338     0    12     1     8
 -2.8322101088383489E-01 a       339     0    12     1     9
  2.2019060895059017E-01 a       340     0    12     1    10
 -9.8311136494563481E-02 a       341     0    12     1    11
 -2.6389912307083790E-01 a       342     0    12     1    12
 -1.1041875586071163E-01 a       343     0    12     1    13
  1.7285040929360354E-01 a       344     0    12     1    14
 -3.9766797243784785E-01 a       345     0    12     1    15
  3.6434412374517222E-01 a       346     0    12     1    16
  9.2952531702936200E-02 a       347     0    12     1    17
  2.0639642385419921E-01 a       348     0    12     1    18
 -1.5860308366835447E-02 a       349     0    12     1    19
  4.9963851492152256E-01 a       350     0    12     1    20
  2.4723386516567393E-02 a       351     0    12     1    21
 -2.0546547258404452E-01 a       352     0    12     1    22
 -3.9618623655726248E-01 a       353     0    12     1    23
  3.3672144029071954E-01 a       354     0    12     1    24
  1.8625536771686493E-01 a       355     0    12     1    25
 -2.3394482375983394E-01 a       356     0    12     1    26
  1.0660100706534678E-02 a       357     0    12     1    27
  2.4310969694845941E-01 a       358     0    12     1    28
  2.8550817763074154E-01 a       359     0    12     1    29
 -1.4514461496336194E-03 a       360     0    12     1    30
 -1.0287110102964679E-01 a       361     0    13     1     1
  3.0096006991779317E-01 a       362     0    13     1     2
 -1.2904630873937684E-01 a       363     0    13     1     3
  5.0509156861645665E-01 a       364     0    13     1     4
  3.4021864959043241E-01 a       365     0    13     1     5
 -1.6760131636420314E-01 a       366     0    13     1     6
 -8.5803575995732961E-01 a       367     0    13     1     7
 -1.5415111066704038E-01 a       368     0    13     1     8
  4.0365479495792300E-01 a       369     0    13     1     9
 -4.4098224144016207E-02 a       370     0    13     1    10
  3.9634605818896135E-01 a       371     0    13     1    11
 -1.6949876002017025E-02 a       372     0    13     1    12
  3.5153794579953568E-01 a       373     0    13     1    13
 -1.1121653615819682E+00 a       374     0    13     1    14
  1.5197244036074581E-01 a       375     0    13     1    15
  1.7440638188843404E-02 a       376     0    13     1    16
 -1.8943531478744602E-01 a       377     0    13     1    17
  1.1969166299729322E-03 a       378     0    13     1    18
  1.9155123045723432E-01 a       379     0    13     1    19
 -4.4472461396121998E-01 a       380     0    13     1    20
 -7.7180570998363160E-02 a       381     0    13     1    21
 -1.8463642589736810E-02 a       382     0    13     1    22
 -1.6307105205285521E-01 a       383     0    13     1    23
 -2.6344791376875669E-02 a       384     0    13     1    24
  1.9954878587412569E-01 a       385     0    13     1    25
 -4.7714351215185047E-01 a       386     0    13     1    26
  3.3676758822142543E-02 a       387     0    13     1    27
 -3.0435654769125620E-01 a       388     0    13     1    28
 -3.3785101549920155E-01 a       389     0    13     1    29
 -3.2654848694592475E-01 a       390     0    13     1    30
  9.3247633142138533E-02 a       391     0    14     1     1
  5.1843447083020422E-01 a       392     0    14     1     2
  8.9477046748807632E-01 a       393     0    14     1     3
 -2.0244463866591628E-01 a       394     0    14     1     4
  2.2926570778185593E-01 a       395     0    14     1     5
 -6.4020921571390887E-01 a       396     0    14     1     6
  5.1755456403816680E-01 a       397     0    14     1     7
 -4.2349974377022453E-02 a       398     0    14     1     8
 -1.2236898198808932E-01 a       399     0    14     1     9
  3.3791576884608648E-01 a       400     0    14     1    10
  7.9581990771042732E-01 a       401     0    14     1    11
  1.4512002612612962E-01 a       402     0    14     1    12
  6.7362652721479205E-02 a       403     0    14     1    13
  4.9065146164756185E-01 a       404     0    14     1    14
 -2.8758343805172304E-01 a       405     0    14     1    15
 -4.5095666944155538E-02 a       406     0    14     1    16
 -3.1035858817451828E-01 a       407     0    14     1    17
  2.3431512327998619E-01 a       408     0    14     1    18
 -4.6646803101893641E-01 a       409     0    14     1    19
  3.7832454772972796E-01 a       410     0    14     1    20
  3.2555757630938703E-01 a       411     0    14     1    21
 -2.9956008574415660E-01 a       412     0    14     1    22
 -6.6390051002148776E-01 a       413     0    14     1    23
  2.0308594889565421E-01 a       414     0    14     1    24
  2.6005516371683546E-01 a       415     0    14     1    25
  8.4306606034867643E-02 a       416     0    14     1    26
  7.6726103101043497E-02 a       417     0    14     1    27
  1.7848985869186984E-01 a       418     0    14     1    28
 -4.6949922127250249E-01 a       419     0    14     1    29
  1.7318820140359037E-01 a       420     0    14     1    30
 -4.6374844260248149E-01 a       421     0    15     1     1
 -3.4533146116610913E-01 a       422     0    15     1     2
  1.1305314118477236E-01 a       423     0    15     1     3
 -2.5497216225886954E-01 a       424     0    15     1     4
 -5.3513280205772296E-01 a       425     0    15     1     5
 -2.7787190599510836E-01 a       426     0    15     1     6
  1.6159583954668302E-01 a       427     0    15     1     7
  2.7556182630288117E-01 a       428     0    15     1     8
 -5.0219290731150101E-01 a       429     0    15     1     9
 -8.8526181964028089E-02 a       430     0    15     1    10
 -2.0483522491178077E-01 a       431     0    15     1    11
  6.2214623829821916E-02 a       432     0    15     1    12
 -3.4218084588859737E-01 a       433     0    15     1    13
 -1.8223475384150648E-02 a       434     0    15     1    14
  4.7477698469432636E-03 a       435     0    15     1    15
 -3.1063476310239807E-01 a       436     0    15     1    16
 -2.8965735979219376E-01 a       437     0    15     1    17
 -3.5177233109660411E-01 a       438     0    15     1    18
  3.6192119388758121E-01 a       439     0    15     1    19
  2.9477619980999975E-01 a       440     0    15     1    20
  6.3024291863962367E-01 a       441     0    15     1    21
 -1.9721137423572307E-01 a       442     0    15     1    22
  2.3562776078118214E-01 a       443     0    15     1    23
 -9.1970093822307708E-01 a       444     0    15     1    24
 -1.9431464641293911E-01 a       445     0    15     1    25
  6.2143800644547142E-01 a       446     0    15     1    26
 -9.7095604091892343E-02 a       447     0    15     1    27
 -6.8020402437500696E-02 a       448     0    15     1    28
  8.0200616719155945E-03 a       449     0    15     1    29
  4.9067092873550694E-01 a       450     0    15     1    30
  8.9485963540731717E-01 a       451     0    16     1     1
 -4.3746684096068383E-01 a       452     0    16     1     2
 -4.5649935646852935E-01 a       453     0    16     1     3
  3.3884334420154233E-01 a       454     0    16     1     4
  3.4545414279515285E-01 a       455     0    16     1     5
 -6.1899642629471008E-01 a       456     0    16     1     6
  5.4937603622301534E-01 a       457     0    16     1     7
 -1.4061808204497678E-01 a       458     0    16     1     8
 -9.6442934403064520E-02 a       459     0    16     1     9
 -4.1324850025883841E-01 a       460     0    16     1    10
  7.4400623247777603E-02 a       461     0    16     1    11
 -1.6245805717562303E-01 a       462     0    16     1    12
 -1.0628337043500669E-01 a       463     0    16     1    13
  4.5671972029417424E-01 a       464     0    16     1    14
 -1.2787829892797800E+00 a       465     0    16     1    15
  2.7256991691255039E-01 a       466     0    16     1    16
 -1.8056669436671000E-01 a       467     0    16     1    17
 -3.4658069684107778E-01 a       468     0    16     1    18
 -2.1973621036524180E-01 a       469     0    16     1    19
  6.2945935804021330E-02 a       470     0    16     1    20
  1.0392467630927429E+00 a       471     0    16     1    21
  2.2136515544374052E-01 a       472     0    16     1    22
  1.0872906307971337E+00 a       473     0    16     1    23
 -2.3104739419360094E-02 a       474     0    16     1    24
 -1.3712389677192721E-01 a       475     0    16     1    25
 -2.0105425997878806E-01 a       476     0    16     1    26
 -1.0305678031662872E-01 a       477     0    16     1    27
 -6.2772333112895606E-01 a       478     0    16     1    28
  5.6856982187455130E-01 a       479     0    16     1    29
  1.2604495798713553E+00 a       480     0    16     1    30
  3.8568637892009905E-01 a       481     0    17     1     1
  7.6722421422100928E-01 a       482     0    17     1     2
  1.1177195928344475E-02 a       483     0    17     1     3
  3.3102796300929292E-02 a       484     0    17     1     4
  1.0124406676544689E-01 a       485     0    17     1     5
  9.2094491530377875E-01 a       486     0    17     1     6
 -1.0677462588478501E+00 a       487     0    17     1     7
  1.1991522095867298E-01 a       488     0    17     1     8
 -2.6677360008537759E-01 a       489     0    17     1     9
  4.5345146642031896E-02 a       490     0    17     1    10
  1.6015737945711647E-01 a       491     0    17     1    11
  3.5552310501340739E-01 a       492     0    17     1    12
  2.5590348395218006E+00 a       493     0    17     1    13
  3.9368764965038672E-01 a       494     0    17     1    14
  3.3816505248598477E-01 a       495     0    17     1    15
 -3.9934587471062716E-01 a       496     0    17     1    16
  7.0453340982689838E-01 a       497     0    17     1    17
  4.1107460725468192E-01 a       498     0    17     1    18
  1.6100446418975015E-01 a       499     0    17     1    19
  6.5444317151762421E-01 a       500     0    17     1    20
 -1.4196344996411689E-01 a       501     0    17     1    21
  6.4207759451844171E-01 a       502     0    17     1    22
 -8.6609778092181078E-01 a       503     0    17     1    23
 -6.8618587934436009E-02 a       504     0    17     1    24
 -6.3461325805653102E-01 a       505     0    17     1    25
  3.8184816987519704E-01 a       506     0    17     1    26
 -5.6320952171339789E-01 a       507     0    17     1    27
  1.1918471363238621E+00 a       508     0    17     1    28
  1.2230653201790585E-01 a       509     0    17     1    29
 -1.7456075482816102E+00 a       510     0    17     1    30
 -1.0886874859286235E+00 a       511     0    18     1     1
  4.0971981920507805E-01 a       512     0    18     1     2
 -3.2188986814605836E-01 a       513     0    18     1     3
  1.6727532767600034E-01 a       514     0    18     1     4
 -1.1634321140410593E-01 a       515     0    18     1     5
  3.8883242300729548E-01 a       516     0    18     1     6
 -3.5298124472415471E-01 a       517     0    18     1     7
 -2.4066796355825468E-01 a       518     0    18     1     8
 -5.1644399923940831E-01 a       519     0    18     1     9
  2.4651748287247488E-01 a       520     0    18     1    10
  8.0503118441154842E-01 a       521     0    18     1    11
  1.6693341644627527E-01 a       522     0    18     1    12
 -1.2143819967746083E+00 a       523     0    18     1    13
 -2.7503647523391062E-01 a       524     0    18     1    14
  1.3604152454862806E+00 a       525     0    18     1    15
 -9.2169713573009093E-01 a       526     0    18     1    16
 -8.5445715743183229E-02 a       527     0    18     1    17
  1.4576335207329238E-01 a       528     0    18     1    18
 -1.3662216411230085E-01 a       529     0    18     1    19
  8.1261020684236906E-01 a       530     0    18     1    20
 -8.1644942414949651E-01 a       531     0    18     1    21
 -3.9134549306199240E-01 a       532     0    18     1    22
 -7.3113290124308797E-02 a       533     0    18     1    23
  4.9119702242634250E-01 a       534     0    18     1    24
  6.8539962353827466E-01 a       535     0    18     1    25
 -1.1844637277845144E-01 a       536     0    18     1    26
  1.2010313611537553E-01 a       537     0    18     1    27
  1.6166235869189727E-01 a       538     0    18     1    28
 -3.0924806241221658E-01 a       539     0    18     1    29
  6.5970601517931216E-01 a       540     0    18     1    30
 -2.1408006924744852E-01 a       541     0    19     1     1
  2.4213926007779091E-01 a       542     0    19     1     2
  3.1165079717219141E-01 a       543     0    19     1     3
 -1.3864785677396241E-01 a       544     0    19     1     4
 -9.9160657098177146E-02 a       545     0    19     1     5
 -7.4214301125418813E-01 a       546     0    19     1     6
  1.2267724793890802E+00 a       547     0    19     1     7
  1.0279604004930409E+00 a       548     0    19     1     8
  4.0807136674656569E-01 a       549     0    19     1     9
  5.3005813199868124E-01 a       550     0    19     1    10
 -8.7989451449148859E-01 a       551     0    19     1    11
 -5.5349187791343135E-01 a       552     0    19     1    12
 -2.3881316482967114E+00 a       553     0    19     1    13
 -1.0906170778230215E+00 a       554     0    19     1    14
  1.0533696383906439E+00 a       555     0    19     1    15
  1.4059871443975736E+00 a       556     0    19     1    16
 -4.0648301935510900E-01 a       557     0    19     1    17
  8.7326817896847841E-01 a       558     0    19     1    18
 -1.5626313376778276E-03 a       559     0    19     1    19
 -1.8392911478113255E-01 a       560     0    19     1    20
  4.0482220658998341E-01 a       561     0    19     1    21
 -7.1082369278244184E-01 a       562     0    19     1    22
 -6.9277396975474526E-01 a       563     0    19     1    23
 -2.6901113739899608E-02 a       564     0    19     1    24
  1.6092384947138599E-01 a       565     0    19     1    25
  5.2073238659362731E-01 a       566     0    19     1    26
  5.4193555555220263E-01 a       567     0    19     1    27
 -6.8737820559316498E-01 a       568     0    19     1    28
 -1.0846962051037905E+00 a       569     0    19     1    29
  3.3902938186809406E-01 a       570     0    19     1    30
 -7.4342054854191278E-02 a       571     0    20     1     1
 -2.5390071540969850E-01 a       572     0    20     1     2
  1.2050162050735305E-02 a       573     0    20     1     3
  4.8045923851073369E-01 a       574     0    20     1     4
 -2.3343013451733066E-01 a       575     0    20     1     5
  1.0922960827664541E+00 a       576     0    20     1     6
 -4.0809125181929584E-01 a       577     0    20     1     7
  8.9800827837319311E-02 a       578     0    20     1     8
 -2.7632997330992910E-02 a       579     0    20     1     9
  8.7652498500099396E-01 a       580     0    20     1    10
 -5.8959410551875091E-01 a       581     0    20     1    11
  1.0274400066376964E-02 a       582     0    20     1    12
  5.8874910395195124E-01 a       583     0    20     1    13
  7.7846151184282619E-01 a       584     0    20     1    14
  3.9315560495787572E-01 a       585     0    20     1    15
  8.8055226839219314E-01 a       586     0    20     1    16
  1.8699475033010646E-01 a       587     0    20     1    17
 -3.8210474751718498E-01 a       588     0    20     1    18
  5.4311168856852454E-01 a       589     0    20     1    19
 -3.4534622900470596E-01 a       590     0    20     1    20
 -3.3386915073606732E-01 a       591     0    20     1    21
  8.1923986797142978E-01 a       592     0    20     1    22
  6.7866947295038704E-01 a       593     0    20     1    23
 -1.5085078171790697E-01 a       594     0    20     1    24
  6.1882387397012451E-01 a       595     0    20     1    25
  3.0346126713284672E-02 a       596     0    20     1    26
 -4.2034350830918682E-01 a       597     0    20     1    27
 -3.8362719661533665E-02 a       598     0    20     1    28
 -1.1242597427760673E-01 a       599     0    20     1    29
 -5.8065525117825811E-01 a       600     0    20     1    30
 -7.6557180471834485E-01 a       601     0    21     1     1
 -5.1233496836664782E-01 a       602     0    21     1     2
 -3.8254969730207250E-01 a       603     0    21     1     3
  2.2403314403950891E-01 a       604     0    21     1     4
 -3.9654303881754155E-01 a       605     0    21     1     5
 -7.2913258422799765E-01 a       606     0    21     1     6
  3.2024206655033188E-01 a       607     0    21     1     7
 -6.1528441754254048E-01 a       608     0    21     1     8
  2.2138427423413867E-01 a       609     0    21     1     9
  5.2645164096838526E-01 a       610     0    21     1    10
 -2.3664095998045911E-01 a       611     0    21     1    11
 -4.3022448225300408E-02 a       612     0    21     1    12
 -4.5804678813728272E-01 a       613     0    21     1    13
 -7.5185018183130420E-02 a       614     0    21     1    14
  3.6170130433370938E-02 a       615     0    21     1    15
 -1.0726426504730979E+00 a       616     0    21     1    16
 -3.9208698143004245E-01 a       617     0    21     1    17
  6.7376147069464182E-02 a       618     0    21     1    18
  1.5077813175836083E-01 a       619     0    21     1    19
 -1.3510841149008770E+00 a       620     0    21     1    20
 -5.8970299571091311E-01 a       621     0    21     1    21
 -7.5456823716668314E-02 a       622     0    21     1    22
  3.5676664257764956E-01 a       623     0    21     1    23
 -4.9106312985608769E-01 a       624     0    21     1    24
  5.4757213061108556E-01 a       625     0    21     1    25
  2.1722104533365971E-01 a       626     0    21     1    26
 -4.4365292372735184E-03 a       627     0    21     1    27
  5.4957419388155804E-01 a       628     0    21     1    28
 -7.8163834242601371E-02 a       629     0    21     1    29
  7.1249183415055914E-02 a       630     0    21     1    30
 -6.6802015354001116E-03 a       631     0    22     1     1
  3.8845502210656485E-01 a       632     0    22     1     2
  1.0544996632554184E+00 a       633     0    22     1     3
 -5.6545870444274271E-01 a       634     0    22     1     4
  3.1941776335341976E-01 a       635     0    22     1     5
 -4.5744498143190837E-01 a       636     0    22     1     6
  6.5323516734634851E-02 a       637     0    22     1     7
  3.7716030672259554E-01 a       638     0    22     1     8
 -1.3715994107401497E-01 a       639     0    22     1     9
  2.4631549389162710E-01 a       640     0    22     1    10
  2.4437422882019946E-01 a       641     0    22     1    11
 -2.1736015239060404E-02 a       642     0    22     1    12
  7.6742369003708830E-02 a       643     0    22     1    13
 -3.2935766025362155E-02 a       644     0    22     1    14
 -8.5156668609231789E-01 a       645     0    22     1    15
  3.5579942160135930E-01 a       646     0    22     1    16
  4.3703498246449907E-01 a       647     0    22     1    17
  4.1031233087700442E-01 a       648     0    22     1    18
  7.6309353073480990E-01 a       649     0    22     1    19
  1.0738227203689434E+00 a       650     0    22     1    20
  9.5885487289035981E-02 a       651     0    22     1    21
  4.0524182861238994E-01 a       652     0    22     1    22
 -1.7421218494619803E-01 a       653     0    22     1    23
  2.9330370234316000E-01 a       654     0    22     1    24
 -7.5912245706045281E-02 a       655     0    22     1    25
  1.2631547674291627E-01 a       656     0    22     1    26
  5.0071540409418092E-01 a       657     0    22     1    27
  6.6651253335753902E-01 a       658     0    22     1    28
  5.5443969349255873E-01 a       659     0    22     1    29
 -3.0263234050651761E-01 a       660     0    22     1    30
 -1.0877274415224680E+00 a       661     0    23     1     1
 -3.9097394987355505E-01 a       662     0    23     1     2
  5.0088374737752600E-02 a       663     0    23     1     3
 -8.7187807270758877E-01 a       664     0    23     1     4
  1.4188914535503702E-01 a       665     0    23     1     5
  5.3568086311519503E-01 a       666     0    23     1     6
 -9.7384817102967303E-01 a       667     0    23     1     7
 -1.2151316768142446E+00 a       668     0    23     1     8
  3.3149655387215382E-01 a       669     0    23     1     9
  1.6937642995525537E-01 a       670     0    23     1    10
  3.6695689686110894E-01 a       671     0    23     1    11
  3.3623655313211975E-01 a       672     0    23     1    12
  4.8530730870013089E-01 a       673     0    23     1    13
  2.7070685423489604E-01 a       674     0    23     1    14
 -1.0527589392029604E+00 a       675     0    23     1    15
 -5.0003637249664101E-01 a       676     0    23     1    16
 -2.3131597958909622E-01 a       677     0    23     1    17
 -8.1209452389730230E-01 a       678     0    23     1    18
 -6.0325415944047411E-01 a       679     0    23     1    19
 -4.6437713591767671E-01 a       680     0    23     1    20
  1.2775812495092429E+00 a       681     0    23     1    21
  4.8212299478539000E-01 a       682     0    23     1    22
  1.9690666103991242E-01 a       683     0    23     1    23
  8.8379464571297597E-02 a       684     0    23     1    24
 -6.0005299322491246E-01 a       685     0    23     1    25
 -4.0084065509455180E-01 a       686     0    23     1    26
  1.5207560060488540E-01 a       687     0    23     1    27
  4.3747797324546533E-01 a       688     0    23     1    28
  5.6292379931064895E-01 a       689     0    23     1    29
  3.1978929878713780E-01 a       690     0    23     1    30
  4.3890237978819741E-01 a       691     0    24     1     1
 -1.0117123835621952E-01 a       692     0    24     1     2
 -8.4668497873184445E-01 a       693     0    24     1     3
 -1.3956022987948433E-01 a       694     0    24     1     4
  4.5199257610647969E-01 a       695     0    24     1     5
  3.5420379430640708E-01 a       696     0    24     1     6
 -7.4462682445382899E-01 a       697     0    24     1     7
 -2.7909507837132158E-01 a       698     0    24     1     8
  3.6029510619248512E-01 a       699     0    24     1     9
  2.3110328276179436E-02 a       700     0    24     1    10
 -6.1937335066287147E-01 a       701     0    24     1    11
  4.3507406395186426E-01 a       702     0    24     1    12
 -7.7479490712062754E-02 a       703     0    24     1    13
 -5.3189835853843392E-01 a       704     0    24     1    14
  7.2493171642288440E-02 a       705     0    24     1    15
  1.1898356347987657E-01 a       706     0    24     1    16
  8.7138649747237784E-01 a       707     0    24     1    17
 -6.7619987575140961E-01 a       708     0    24     1    18
  6.1074785850177976E-02 a       709     0    24     1    19
 -1.1633733833564325E-01 a       710     0    24     1    20
 -5.3921261095750828E-01 a       711     0    24     1    21
 -1.1592640801035020E-01 a       712     0    24     1    22
  1.4216926783866976E-01 a       713     0    24     1    23
  4.6121808577609069E-01 a       714     0    24     1    24
 -4.8724115430542958E-01 a       715     0    24     1    25
 -6.2302191199195867E-01 a       716     0    24     1    26
 -1.4222818478465440E-01 a       717     0    24     1    27
 -7.6640283321205827E-01 a       718     0    24     1    28
  2.5510525650961241E-01 a       719     0    24     1    29
 -5.8634559244034834E-01 a       720     0    24     1    30
 -7.1191128970733888E-02 a       721     0    25     1     1
  1.5619790493114696E-01 a       722     0    25     1     2
  6.2936286967329658E-01 a       723     0    25     1     3
  7.9884733208365011E-01 a       724     0    25     1     4
 -2.7238581108865934E-01 a       725     0    25     1     5
 -3.1329090870338125E-02 a       726     0    25     1     6
  8.7302627567521252E-01 a       727     0    25     1     7
  5.7513146860566050E-02 a       728     0    25     1     8
  3.2305937400705947E-01 a       729     0    25     1     9
  7.3777713552362623E-02 a       730     0    25     1    10
 -6.2801193096944125E-02 a       731     0    25     1    11
 -6.5786825422205819E-01 a       732     0    25     1    12
 -4.6765004714527665E-02 a       733     0    25     1    13
 -1.4950232267860741E-01 a       734     0    25     1    14
 -1.9112656669150083E-01 a       735     0    25     1    15
 -5.1065440792272332E-01 a       736     0    25     1    16
  4.1768907190904203E-02 a       737     0    25     1    17
  4.1920443014959002E-01 a       738     0    25     1    18
 -6.0831841755032777E-02 a       739     0    25     1    19
  3.6147575373864089E-03 a       740     0    25     1    20
  1.7607461487790818E-01 a       741     0    25     1    21
 -2.6954181176886194E-01 a       742     0    25     1    22
 -6.9341543486139190E-01 a       743     0    25     1    23
  2.4752670517670258E-02 a       744     0    25     1    24
  4.5035091422731327E-01 a       745     0    25     1    25
 -1.4833331785358647E-01 a       746     0    25     1    26
 -3.5459928310761407E-01 a       747     0    25     1    27
 -4.9839838883590455E-02 a       748     0    25     1    28
 -5.8790624458558982E-01 a       749     0    25     1    29
 -3.3962434022128085E-01 a       750     0    25     1    30
 -1.7079095200877900E-01 a       751     0    26     1     1
  5.2839534715658865E-01 a       752     0    26     1     2
  8.7897871560783214E-02 a       753     0    26     1     3
 -1.3527828626717486E-01 a       754     0    26     1     4
 -5.6317031200484291E-01 a       755     0    26     1     5
 -6.3261802867124950E-01 a       756     0    26     1     6
 -1.7359533842428601E-01 a       757     0    26     1     7
  1.4963167963624524E-01 a       758     0    26     1     8
  8.5860588518109271E-01 a       759     0    26     1     9
 -4.5420399192238403E-01 a       760     0    26     1    10
  2.5212555353942517E-01 a       761     0    26     1    11
  3.1367686915085863E-01 a       762     0    26     1    12
 -3.1867383064822968E-01 a       763     0    26     1    13
 -4.5991309910936368E-01 a       764     0    26     1    14
 -1.9709516606090347E-01 a       765     0    26     1    15
 -1.7698228545919535E-02 a       766     0    26     1    16
 -3.3950600185848823E-01 a       767     0    26     1    17
  3.9400941356255194E-02 a       768     0    26     1    18
  7.0799967035067346E-01 a       769     0    26     1    19
  2.1407636416246004E-01 a       770     0    26     1    20
 -5.6962879484055640E-01 a       771     0    26     1    21
 -1.7446049312512749E-01 a       772     0    26     1    22
 -7.1135969664822307E-01 a       773     0    26     1    23
  8.7065512720182592E-01 a       774     0    26     1    24
 -6.7229123482916708E-01 a       775     0    26     1    25
 -3.7557102103615692E-01 a       776     0    26     1    26
  6.2870976259488232E-01 a       777     0    26     1    27
 -4.5913363527093587E-01 a       778     0    26     1    28
 -1.8502527936126040E-01 a       779     0    26     1    29
 -1.5309966340460118E-01 a       780     0    26     1    30
 -1.1746395653234322E-01 a       781     0    27     1     1
 -3.4566369285411036E-01 a       782     0    27     1     2
  7.1616432524801238E-02 a       783     0    27     1     3
  7.8203109822597394E-01 a       784     0    27     1     4
  5.4659796350490097E-01 a       785     0    27     1     5
  1.1966511853354969E+00 a       786     0    27     1     6
 -3.3777555991845676E-01 a       787     0    27     1     7
  5.5591402298240389E-01 a       788     0    27     1     8
 -2.2077739977316879E-01 a       789     0    27     1     9
  8.1548413157382343E-02 a       790     0    27     1    10
  3.0070244284429681E-01 a       791     0    27     1    11
  2.1902309052781818E-01 a       792     0    27     1    12
 -7.9510413562706816E-01 a       793     0    27     1    13
 -9.5190439400047988E-01 a       794     0    27     1    14
  4.0340962059450897E-01 a       795     0    27     1    15
  4.9018695132616463E-01 a       796     0    27     1    16
  6.4985686972742696E-01 a       797     0    27     1    17
 -9.9402033883402588E-02 a       798     0    27     1    18
  7.3608186056214719E-01 a       799     0    27     1    19
 -4.2547518031840587E-01 a       800     0    27     1    20
  6.0674209954785929E-01 a       801     0    27     1    21
  1.0240421649185987E+00 a       802     0    27     1    22
 -2.8134516966548212E-01 a       803     0    27     1    23
  1.4107223841100713E-01 a       804     0    27     1    24
  3.4226915938532221E-02 a       805     0    27     1    25
 -8.1646288642817189E-01 a       806     0    27     1    26
 -5.7701429129717552E-01 a       807     0    27     1    27
 -5.0583380477338435E-01 a       808     0    27     1    28
  5.4026240493457656E-01 a       809     0    27     1    29
  2.4138124730109087E-01 a       810     0    27     1    30
  3.7288322790159473E-01 a       811     0    28     1     1
 -2.4849683812862633E-01 a       812     0    28     1     2
 -3.9084567823723854E-01 a       813     0    28     1     3
  7.1380991336037847E-01 a       814     0    28     1     4
  6.2276073140234189E-01 a       815     0    28     1     5
  3.8543577430446369E-01 a       816     0    28     1     6
  4.1887236457292198E-01 a       817     0    28     1     7
 -2.7251600334872412E-02 a       818     0    28     1     8
  2.3906811551407656E-01 a       819     0    28     1     9
  3.4736068869734643E-01 a       820     0    28     1    10
 -2.3719308080965354E-01 a       821     0    28     1    11
  2.1864060979015604E-01 a       822     0    28     1    12
  4.7840848909634787E-01 a       823     0    28     1    13
  8.6606442564112485E-01 a       824     0    28     1    14
  5.3581626163435636E-01 a       825     0    28     1    15
 -1.1705031380265671E-01 a       826     0    28     1    16
  4.5263624321305140E-01 a       827     0    28     1    17
  9.1387272440742323E-02 a       828     0    28     1    18
 -4.2231458265837835E-01 a       829     0    28     1    19
 -6.6238107934936608E-01 a       830     0    28     1    20
 -6.4126523486486453E-01 a       831     0    28     1    21
  1.7137163217017051E-01 a       832     0    28     1    22
  3.7780593694832038E-01 a       833     0    28     1    23
  8.8775603637973391E-02 a       834     0    28     1    24
  2.4476809033615407E-01 a       835     0    28     1    25
 -1.7421455327815297E-01 a       836     0    28     1    26
  8.6324801954158356E-02 a       837     0    28     1    27
 -3.9855386056780351E-01 a       838     0    28     1    28
  5.9435773500820036E-02 a       839     0    28     1    29
 -6.8943898572915718E-01 a       840     0    28     1    30
  2.9407124476999236E-01 a       841     0    29     1     1
 -1.4077921616290782E-02 a       842     0    29     1     2
 -6.4311022492727965E-02 a       843     0    29     1     3
 -4.8857044909290359E-01 a       844     0    29     1     4
 -3.5017314100950117E-02 a       845     0    29     1     5
 -2.6017427282336386E-01 a       846     0    29     1     6
  9.1813727117930699E-01 a       847     0    29     1     7
  1.4068875156667943E-01 a       848     0    29     1     8
  8.7069377682497798E-02 a       849     0    29     1     9
  5.6917208734450042E-01 a       850     0    29     1    10
 -1.2499243028507701E+00 a       851     0    29     1    11
 -3.6693801010912153E-01 a       852     0    29     1    12
  1.6142400372542740E-01 a       853     0    29     1    13
  7.8582147350000897E-01 a       854     0    29     1    14
  4.5237399608842155E-01 a       855     0    29     1    15
 -8.7336344280673439E-01 a       856     0    29     1    16
 -3.4812199316918674E-02 a       857     0    29     1    17
  1.6126893745689619E-01 a       858     0    29     1    18
 -4.5814758078966894E-01 a       859     0    29     1    19
  1.8793594861300536E-01 a       860     0    29     1    20
  4.8189246272573261E-02 a       861     0    29     1    21
 -5.1144521165380807E-01 a       862     0    29     1    22
 -5.8788272320488846E-02 a       863     0    29     1    23
 -2.7074005321094313E-01 a       864     0    29     1    24
  2.4004678066817939E-01 a       865     0    29     1    25
  3.1889036855630976E-01 a       866     0    29     1    26
 -2.8260397684853511E-01 a       867     0    29     1    27
  9.8912644989825591E-02 a       868     0    29     1    28
 -1.8216001754784050E-01 a       869     0    29     1    29
 -3.4749566874724658E-01 a       870     0    29     1    30
 -6.1656509855949004E-01 a       871     0    30     1     1
  1.8812763063143254E-01 a       872     0    30     1     2
  7.6507559959546376E-02 a       873     0    30     1     3
  2.6524531807027962E-01 a       874     0    30     1     4
 -4.1696123146601885E-02 a       875     0    30     1     5
  2.6864170090765699E-01 a       876     0    30     1     6
  4.4856931303668107E-02 a       877     0    30     1     7
  2.7670198268549584E-01 a       878     0    30     1     8
  2.5622767756807929E-01 a       879     0    30     1     9
 -7.7037510849853066E-02 a       880     0    30     1    10
  4.3832756433114400E-01 a       881     0    30     1    11
  3.6242070369697493E-01 a       882     0    30     1    12
 -5.7437154167975502E-01 a       883     0    30     1    13
  6.2837737331195043E-01 a       884     0    30     1    14
  4.2856794278438326E-01 a       885     0    30     1    15
 -4.0786378928380657E-01 a       886     0    30     1    16
 -3.9198474335024942E-02 a       887     0    30     1    17
 -5.0555312015568246E-02 a       888     0    30     1    18
 -8.0642423128787666E-02 a       889     0    30     1    19
  3.5589521720485046E-01 a       890     0    30     1    20
 -2.3591115206110913E-01 a       891     0    30     1    21
  2.6726347481360607E-01 a       892     0    30     1    22
 -1.4889733439216327E-01 a       893     0    30     1    23
 -2.8690499428445410E-01 a       894     0    30     1    24
 -5.7670163395062524E-01 a       895     0    30     1    25
 -2.3093228122807816E-01 a       896     0    30     1    26
  2.7071864470460866E-01 a       897     0    30     1    27
 -4.1836730870538269E-01 a       898     0    30     1    28
  5.0206086497873781E-01 a       899     0    30     1    29
 -5.4884756470656204E-01 a       900     0    30     1    30
  8.7361437072541612E-02 a       901     0    31     1     1
 -2.4851206450532956E-01 a       902     0    31     1     2
 -3.4367590330615611E-01 a       903     0    31     1     3
 -2.0754203583904579E-01 a       904     0    31     1     4
 -1.6377690065170941E-01 a       905     0    31     1     5
  3.1709992354329203E-01 a       906     0    31     1     6
 -3.3580429353466357E-01 a       907     0    31     1     7
  2.8884790428401130E-01 a       908     0    31     1     8
 -9.7209342134700699E-02 a       909     0    31     1     9
 -3.9812347984690366E-01 a       910     0    31     1    10
 -4.5239426173162400E-01 a       911     0    31     1    11
 -1.4523572841656823E-01 a       912     0    31     1    12
 -6.2452270086935413E-01 a       913     0    31     1    13
  8.7050440799025283E-02 a       914     0    31     1    14
  8.3491546340783308E-03 a       915     0    31     1    15
 -6.9548161947387721E-02 a       916     0    31     1    16
  2.8391365880651726E-01 a       917     0    31     1    17
 -2.1234372066178347E-01 a       918     0    31     1    18
 -2.0793224394794990E-01 a       919     0    31     1    19
  6.3081760038613888E-01 a       920     0    31     1    20
 -3.2808817212852559E-01 a       921     0    31     1    21
 -6.0610445456840945E-01 a       922     0    31     1    22
  4.7890742304488704E-01 a       923     0    31     1    23
  7.6618900397633272E-01 a       924     0    31     1    24
 -7.5966801058032229E-01 a       925     0    31     1    25
 -1.4933787230410012E-01 a       926     0    31     1    26
  1.9347594536847282E-01 a       927     0    31     1    27
  9.4636028063833019E-02 a       928     0    31     1    28
 -7.5767787065822856E-01 a       929     0    31     1    29
 -5.4677690618152608E-01 a       930     0    31     1    30
 -1.7596051790120124E-01 a       931     0    32     1     1
 -6.4821047050659164E-01 a       932     0    32     1     2
  1.7639891306519045E-01 a       933     0    32     1     3
  1.2615377545098205E-01 a       934     0    32     1     4
 -4.7320838581108809E-01 a       935     0    32     1     5
 -4.6409573562677153E-01 a       936     0    32     1     6
 -3.4401201068325643E-02 a       937     0    32     1     7
 -1.7715693359541573E-01 a       938     0    32     1     8
  7.3729974778465523E-01 a       939     0    32     1     9
 -6.9161676052940269E-01 a       940     0    32     1    10
 -3.9239932399801047E-01 a       941     0    32     1    11
  8.8890391966243010E-01 a       942     0    32     1    12
  5.6611449397650959E-01 a       943     0    32     1    13
 -2.7647922526275703E-01 a       944     0    32     1    14
 -2.4178008162035491E-01 a       945     0    32     1    15
 -7.4241299450233417E-02 a       946     0    32     1    16
  2.7303446470347076E-01 a       947     0    32     1    17
  4.1286541113505515E-01 a       948     0    32     1    18
  1.0705907027836815E-02 a       949     0    32     1    19
 -2.6649917424733105E-01 a       950     0    32     1    20
 -3.0960606019060377E-01 a       951     0    32     1    21
  5.9146617612637420E-01 a       952     0    32     1    22
  1.4415724572900253E-02 a       953     0    32     1    23
 -2.7452269655973310E-01 a       954     0    32     1    24
 -3.1896191657805856E-01 a       955     0    32     1    25
 -1.3322126023716088E-01 a       956     0    32     1    26
 -4.3160075059169856E-01 a       957     0    32     1    27
  2.2625509685912162E-01 a       958     0    32     1    28
  4.6217303160243986E-03 a       959     0    32     1    29
  5.6884720629747398E-01 a       960     0    32     1    30
 -1.4143287884277037E-01 a       961     0    33     1     1
  1.3383296518796586E-01 a       962     0    33     1     2
  2.4722581150987574E-01 a       963     0    33     1     3
  3.2951946760887318E-01 a       964     0    33     1     4
 -2.9003589089833659E-01 a       965     0    33     1     5
 -4.3126538052804297E-01 a       966     0    33     1     6
  6.7036316355435377E-01 a       967     0    33     1     7
  2.6297404106261291E-01 a       968     0    33     1     8
  2.2389562821742795E-01 a       969     0    33     1     9
  4.4974607223977281E-01 a       970     0    33     1    10
 -1.1374601711077355E-01 a       971     0    33     1    11
  1.1515827904234523E-01 a       972     0    33     1    12
  3.2856819121705327E-01 a       973     0    33     1    13
  5.5424773635666738E-02 a       974     0    33     1    14
 -8.8042199399011908E-02 a       975     0    33     1    15
  1.3785143250470949E-01 a       976     0    33     1    16
  1.3787279476138478E-01 a       977     0    33     1    17
  9.2506092634656964E-02 a       978     0    33     1    18
  3.9875778342278473E-01 a       979     0    33     1    19
  1.3415910246195209E-01 a       980     0    33     1    20
 -1.8021009703608887E-01 a       981     0    33     1    21
  1.4106105421016663E-01 a       982     0    33     1    22
 -3.6309068840178715E-01 a       983     0    33     1    23
 -3.0036589641172040E-01 a       984     0    33     1    24
 -8.2540451365544915E-03 a       985     0    33     1    25
 -1.5089163576406125E-01 a       986     0    33     1    26
  2.8445719094211158E-01 a       987     0    33     1    27
  1.3401072706385983E-01 a       988     0    33     1    28
  4.9695439865944641E-01 a       989     0    33     1    29
 -1.7257352138526916E-01 a       990     0    33     1    30
 -3.9839095523622903E-01 a       991     0    34     1     1
 -1.9913923939142780E-01 a       992     0    34     1     2
  2.2556384906430590E-01 a       993     0    34     1     3
  5.4318360053390446E-01 a       994     0    34     1     4
 -5.1108747094556484E-01 a       995     0    34     1     5
 -7.3185403330803955E-01 a       996     0    34     1     6
 -7.7638929772674919E-02 a       997     0    34     1     7
 -4.5657635198677615E-01 a       998     0    34     1     8
  1.0128712129269255E+00 a       999     0    34     1     9
 -6.8452602156584685E-01 a      1000     0    34     1    10
 -7.4875043057612469E-03 a      1001     0    34     1    11
  1.0975643255065046E+00 a      1002     0    34     1    12
  6.9380921290554998E-01 a      1003     0    34     1    13
 -5.5104406489376412E-01 a      1004     0    34     1    14
 -4.0239074987260565E-01 a      1005     0    34     1    15
  5.2158576568604932E-02 a      1006     0    34     1    16
  4.3011289474944725E-01 a      1007     0    34     1    17
  6.6797281083473570E-01 a      1008     0    34     1    18
  4.2063783094161927E-01 a      1009     0    34     1    19
 -5.8861026012490769E-01 a      1010     0    34     1    20
 -4.9391735483247191E-02 a      1011     0    34     1    21
  9.7243298012176127E-01 a      1012     0    34     1    22
 -2.2568597233539836E-01 a      1013     0    34     1    23
 -8.2363449819183643E-01 a      1014     0    34     1    24
  3.1832791320101840E-02 a      1015     0    34     1    25
 -2.7424194245105238E-01 a      1016     0    34     1    26
 -6.8711609659754425E-01 a      1017     0    34     1    27
  2.3170322598504245E-01 a      1018     0    34     1    28
  1.0068035476534312E+00 a      1019     0    34     1    29
  8.9462221824334920E-01 a      1020     0    34     1    30
  9.2442903316923175E-01 a      1021     0    35     1     1
  1.5972618288516666E-01 a      1022     0    35     1     2
 -6.8290013132925254E-01 a      1023     0    35     1     3
 -4.1012586526006262E-01 a      1024     0    35     1     4
  6.9614419456160093E-01 a      1025     0    35     1     5
  1.5950114481522846E+00 a      1026     0    35     1     6
 -1.7096033378064124E-01 a      1027     0    35     1     7
  9.1120984897402724E-02 a      1028     0    35     1     8
 -9.6497407376694244E-01 a      1029     0    35     1     9
  5.3888516492913319E-01 a      1030     0    35     1    10
  6.8389288319508879E-01 a      1031     0    35     1    11
 -9.7298075802157857E-01 a      1032     0    35     1    12
 -6.4033804008159412E-01 a      1033     0    35     1    13
 -7.1523015123536260E-01 a      1034     0    35     1    14
  1.0278175351127072E+00 a      1035     0    35     1    15
  1.5783080955317158E-01 a      1036     0    35     1    16
 -7.2923450597612460E-01 a      1037     0    35     1    17
 -7.7723233201937869E-01 a      1038     0    35     1    18
 -5.4356114502050801E-01 a      1039     0    35     1    19
  1.5501237504165785E-01 a      1040     0    35     1    20
  1.3822616355076628E-01 a      1041     0    35     1    21
 -1.3847185783563851E+00 a      1042     0    35     1    22
  2.5168284636175309E-01 a      1043     0    35     1    23
  1.3678531924331896E+00 a      1044     0    35     1    24
  4.8350606802092860E-01 a      1045     0    35     1    25
  3.3319003068781866E-01 a      1046     0    35     1    26
  7.2121643478918784E-01 a      1047     0    35     1    27
  6.3985448652344803E-02 a      1048     0    35     1    28
 -1.3179083915495735E+00 a      1049     0    35     1    29
 -1.2279858099158316E+00 a      1050     0    35     1    30
 -1.0571287323342049E-01 a      1051     0    36     1     1
  1.0267887827479831E+00 a      1052     0    36     1     2
 -1.2438634653860248E+00 a      1053     0    36     1     3
  2.1552321852242931E-01 a      1054     0    36     1     4
 -5.9375092936350271E-01 a      1055     0    36     1     5
 -2.0985102934075162E+00 a      1056     0    36     1     6
  1.4353545295972068E-03 a      1057     0    36     1     7
  1.3548162764982576E-02 a      1058     0    36     1     8
  7.9322242571228108E-01 a      1059     0    36     1     9
  6.3139799444569822E-01 a      1060     0    36     1    10
  6.7936480843474689E-01 a      1061     0    36     1    11
 -5.5492634146921493E-01 a      1062     0    36     1    12
 -3.4053876983548276E-01 a      1063     0    36     1    13
 -1.0558908465564079E+00 a      1064     0    36     1    14
 -6.6908297091602287E-01 a      1065     0    36     1    15
  4.0879920749487936E-01 a      1066     0    36     1    16
  1.3561519509163193E+00 a      1067     0    36     1    17
 -1.2311729791822430E+00 a      1068     0    36     1    18
 -1.9150188583467287E-01 a      1069     0    36     1    19
 -1.3395679977246631E+00 a      1070     0    36     1    20
  1.3071186863847462E+00 a      1071     0    36     1    21
 -1.7278760951906294E-01 a      1072     0    36     1    22
 -2.5324662221535332E-01 a      1073     0    36     1    23
  6.5102703030598219E-01 a      1074     0    36     1    24
  7.5065095339288923E-01 a      1075     0    36     1    25
  4.7060395041140635E-01 a      1076     0    36     1    26
 -1.3508025795088401E+00 a      1077     0    36     1    27
 -8.3943405759379575E-01 a      1078     0    36     1    28
 -1.1935420709772777E+00 a      1079     0    36     1    29
 -1.2543549396035802E-01 a      1080     0    36     1    30
 -7.8285234055327169E-02 a      1081     0    37     1     1
 -1.6119196107389194E-02 a      1082     0    37     1     2
 -3.6269009172247924E-01 a      1083     0    37     1     3
  2.7679750227810423E-02 a      1084     0    37     1     4
  5.6345383032217766E-01 a      1085     0    37     1     5
  8.4881457024440901E-02 a      1086     0    37     1     6
 -1.8506870901701072E-01 a      1087     0    37     1     7
 -3.0723119166235408E-01 a      1088     0    37     1     8
  1.4546037698856834E-01 a      1089     0    37     1     9
 -4.7233621264892792E-03 a      1090     0    37     1    10
  7.8130139661285158E-01 a      1091     0    37     1    11
 -1.2272760053922378E-01 a      1092     0    37     1    12
  1.9896051601298498E-01 a      1093     0    37     1    13
 -4.3466978368840825E-01 a      1094     0    37     1    14
  3.0042544102050261E-01 a      1095     0    37     1    15
 -1.4382952362141971E-01 a      1096     0    37     1    16
 -1.6559943069463931E-01 a      1097     0    37     1    17
 -1.3760453900151715E-01 a      1098     0    37     1    18
 -5.8120314228339864E-01 a      1099     0    37     1    19
  3.1656727164668541E-01 a      1100     0    37     1    20
  1.1854182252045688E-01 a      1101     0    37     1    21
 -1.8066304764344045E-02 a      1102     0    37     1    22
 -1.6612429835912090E-01 a      1103     0    37     1    23
 -1.0115633572211487E+00 a      1104     0    37     1    24
  5.9708369247728843E-01 a      1105     0    37     1    25
 -8.7473363925740844E-01 a      1106     0    37     1    26
 -4.4896549268721014E-01 a      1107     0    37     1    27
 -3.4131236919554608E-02 a      1108     0    37     1    28
 -9.4342285802924564E-01 a      1109     0    37     1    29
 -3.4776841420755578E-01 a      1110     0    37     1    30
 -1.7087111117769821E-01 a      1111     0    38     1     1
 -2.1789326940087389E-01 a      1112     0    38     1     2
 -1.6858513602047698E-01 a      1113     0    38     1     3
 -1.7025113116776616E-01 a      1114     0    38     1     4
 -3.5407948730178029E-01 a      1115     0    38     1     5
  4.8426920944486812E-01 a      1116     0    38     1     6
 -3.1640339126165745E-01 a      1117     0    38     1     7
  4.2437106183342163E-02 a      1118     0    38     1     8
 -3.8186145339017596E-01 a      1119     0    38     1     9
 -4.9199023149931093E-01 a      1120     0    38     1    10
 -1.6576151320299312E-01 a      1121     0    38     1    11
 -4.9345175269923330E-01 a      1122     0    38     1    12
 -6.3604285997879384E-01 a      1123     0    38     1    13
  5.7073804929149141E-01 a      1124     0    38     1    14
 -5.2556685765117450E-01 a      1125     0    38     1    15
  4.9884531856303632E-01 a      1126     0    38     1    16
 -1.4789227691753942E-01 a      1127     0    38     1    17
  4.4987735147630416E-02 a      1128     0    38     1    18
 -3.2821758335299722E-01 a      1129     0    38     1    19
  2.5332531786375051E-01 a      1130     0    38     1    20
 -6.7670019528481440E-01 a      1131     0    38     1    21
 -1.3695338093154172E-01 a      1132     0    38     1    22
  5.6392579207472548E-01 a      1133     0    38     1    23
  2.1242419962824341E-01 a      1134     0    38     1    24
 -6.6249742023595615E-01 a      1135     0    38     1    25
 -9.5224197373233943E-01 a      1136     0    38     1    26
  2.3983443984418132E-01 a      1137     0    38     1    27
  3.9501770348075071E-01 a      1138     0    38     1    28
  3.7710754175403133E-01 a      1139     0    38     1    29
  9.5635663787262193E-01 a      1140     0    38     1    30
 -3.9231761537906945E-01 a      1141     0    39     1     1
 -2.7071283222352288E-01 a      1142     0    39     1     2
  2.5283797409501640E-01 a      1143     0    39     1     3
 -1.8459115340905741E-01 a      1144     0    39     1     4
  2.8875506360769509E-01 a      1145     0    39     1     5
  8.1163190640767024E-01 a      1146     0    39     1     6
  1.2653454884727924E-01 a      1147     0    39     1     7
 -3.6215879760450004E-01 a      1148     0    39     1     8
 -4.0887979755124543E-01 a      1149     0    39     1     9
 -5.8364049619041303E-01 a      1150     0    39     1    10
  6.1893404632026183E-01 a      1151     0    39     1    11
  3.5194744759387254E-02 a      1152     0    39     1    12
 -3.7288682059125805E-01 a      1153     0    39     1    13
  9.5766738580488273E-02 a      1154     0    39     1    14
  3.5410458968530539E-01 a      1155     0    39     1    15
 -3.9466772540045947E-01 a      1156     0    39     1    16
 -1.0248800394450297E+00 a      1157     0    39     1    17
  3.3555001110125014E-02 a      1158     0    39     1    18
 -7.0384875770866617E-01 a      1159     0    39     1    19
  8.1959767505087489E-01 a      1160     0    39     1    20
 -2.8967863507462110E-01 a      1161     0    39     1    21
  7.9849090924780250E-02 a      1162     0    39     1    22
  2.3754770517525406E-01 a      1163     0    39     1    23
 -9.9119296578625693E-01 a      1164     0    39     1    24
  3.6885248359323747E-01 a      1165     0    39     1    25
 -9.2957886455970551E-01 a      1166     0    39     1    26
 -3.2234076391006464E-02 a      1167     0    39     1    27
  5.2449633478845537E-01 a      1168     0    39     1    28
 -9.8719928676913093E-01 a      1169     0    39     1    29
 -7.6489848204165005E-03 a      1170     0    39     1    30
 -6.0059405238668462E-01 a      1171     0    40     1     1
  5.9411783882571156E-01 a      1172     0    40     1     2
  2.7417464199228958E-01 a      1173     0    40     1     3
  5.1127744389407181E-01 a      1174     0    40     1     4
 -1.4321711555642888E-01 a      1175     0    40     1     5
 -2.6690457537385512E-02 a      1176     0    40     1     6
  4.7223556599180039E-01 a      1177     0    40     1     7
 -7.3381006470717181E-01 a      1178     0    40     1     8
  1.0569505462235673E+00 a      1179     0    40     1     9
  2.4031160319928579E-01 a      1180     0    40     1    10
 -1.2492944588629964E+00 a      1181     0    40     1    11
  6.3932865773787340E-01 a      1182     0    40     1    12
  5.8275277018343985E-01 a      1183     0    40     1    13
  1.5564222952725395E+00 a      1184     0    40     1    14
  4.5846192410473413E-01 a      1185     0    40     1    15
  2.8322973381479039E-01 a      1186     0    40     1    16
  1.4225533567297766E+00 a      1187     0    40     1    17
 -6.4063721535939788E-01 a      1188     0    40     1    18
  1.3742679933475697E+00 a      1189     0    40     1    19
 -6.5287414828806323E-01 a      1190     0    40     1    20
 -3.5791064190848654E-01 a      1191     0    40     1    21
  2.2136873373938487E-01 a      1192     0    40     1    22
  5.4247812439850707E-01 a      1193     0    40     1    23
 -7.4483089040097739E-01 a      1194     0    40     1    24
  9.3026561368867826E-03 a      1195     0    40     1    25
  3.7811433093450103E-01 a      1196     0    40     1    26
  1.0862670016930045E+00 a      1197     0    40     1    27
  6.8686087471726143E-01 a      1198     0    40     1    28
  3.7821071867498857E-01 a      1199     0    40     1    29
 -3.4106367841819757E-01 a      1200     0    40     1    30
 -6.7485560486245488E-01 a      1201     0    41     1     1
  3.9704058303555695E-01 a      1202     0    41     1     2
 -1.6558231050627148E-01 a      1203     0    41     1     3
  6.0025383289190271E-01 a      1204     0    41     1     4
 -6.4954801271089824E-02 a      1205     0    41     1     5
  3.4462820857214860E-01 a      1206     0    41     1     6
  2.2076837033924682E-01 a      1207     0    41     1     7
 -5.8209365553694506E-02 a      1208     0    41     1     8
 -1.4520810943810913E-01 a      1209     0    41     1     9
  4.9506949243276682E-01 a      1210     0    41     1    10
  2.0875027652792824E-02 a      1211     0    41     1    11
  2.4924848554120277E-01 a      1212     0    41     1    12
  2.7549186704731410E-01 a      1213     0    41     1    13
  4.0988769007712270E-02 a      1214     0    41     1    14
 -3.6621103331393484E-01 a      1215     0    41     1    15
  3.3949270028390455E-01 a      1216     0    41     1    16
  6.0114398088805691E-02 a      1217     0    41     1    17
  1.4306267472103618E-01 a      1218     0    41     1    18
 -1.1112841996667673E-01 a      1219     0    41     1    19
  4.7524182496520517E-01 a      1220     0    41     1    20
 -1.6592605474083505E-01 a      1221     0    41     1    21
  2.9026968755732141E-01 a      1222     0    41     1    22
 -3.8690956364539446E-02 a      1223     0    41     1    23
  2.8189178437138523E-01 a      1224     0    41     1    24
 -1.6896002038592969E-01 a      1225     0    41     1    25
 -6.5142172570380352E-01 a      1226     0    41     1    26
  4.2597763184021226E-01 a      1227     0    41     1    27
  1.9816670493396180E-01 a      1228     0    41     1    28
  5.3648279960354525E-02 a      1229     0    41     1    29
  2.0318753085190133E-01 a      1230     0    41     1    30
 -1.3051908682102371E+00 a      1231     0    42     1     1
 -5.6739144409445086E-01 a      1232     0    42     1     2
  3.0487101360077312E-01 a      1233     0    42     1     3
  8.9673724480132458E-02 a      1234     0    42     1     4
 -1.6131562489666842E-01 a      1235     0    42     1     5
  4.6375573606806958E-01 a      1236     0    42     1     6
 -1.1962543603078443E-01 a      1237     0    42     1     7
 -6.7347058173457230E-01 a      1238     0    42     1     8
 -7.2023302315922133E-01 a      1239     0    42     1     9
  2.2410982832521306E-01 a      1240     0    42     1    10
 -5.4526387000880105E-01 a      1241     0    42     1    11
  1.2095693277804929E-01 a      1242     0    42     1    12
 -5.7264526679514494E-05 a      1243     0    42     1    13
 -4.6114371349591310E-01 a      1244     0    42     1    14
 -1.0161272998891385E-01 a      1245     0    42     1    15
  5.3562786471549739E-01 a      1246     0    42     1    16
 -5.7979531292348528E-02 a      1247     0    42     1    17
 -4.8117823619543906E-02 a      1248     0    42     1    18
  1.1882431893889855E+00 a      1249     0    42     1    19
 -8.3364519120712501E-03 a      1250     0    42     1    20
 -4.0591142308042549E-01 a      1251     0    42     1    21
  4.6383703988596930E-01 a      1252     0    42     1    22
  6.8611628047284456E-01 a      1253     0    42     1    23
 -1.8654645188602764E-01 a      1254     0    42     1    24
  6.6424468743908738E-01 a      1255     0    42     1    25
  6.2093322917161096E-02 a      1256     0    42     1    26
  2.3323846818325891E-01 a      1257     0    42     1    27
 -3.4833850333100658E-01 a      1258     0    42     1    28
  7.5017118739532401E-02 a      1259     0    42     1    29
 -1.6329102613635807E-01 a      1260     0    42     1    30
  2.5653146343557959E-01 a      1261     0    43     1     1
  3.8274521445786060E-02 a      1262     0    43     1     2
  1.1978499848366894E-02 a      1263     0    43     1     3
 -5.1195124690684690E-01 a      1264     0    43     1     4
 -4.5280309814426219E-02 a      1265     0    43     1     5
 -3.5000391818238212E-02 a      1266     0    43     1     6
  1.3699176211150524E-01 a      1267     0    43     1     7
 -5.9236182012448635E-01 a      1268     0    43     1     8
  3.3723945240434927E-01 a      1269     0    43     1     9
 -3.8281096249104629E-01 a      1270     0    43     1    10
  3.5611367435949010E-01 a      1271     0    43     1    11
 -2.7138274754619779E-01 a      1272     0    43     1    12
  9.7537678462869856E-02 a      1273     0    43     1    13
 -3.3457895862515585E-01 a      1274     0    43     1    14
  3.2342239421712646E-02 a      1275     0    43     1    15
 -1.5996966801148804E-01 a      1276     0    43     1    16
  1.5443408426020547E-01 a      1277     0    43     1    17
 -3.5012961325675901E-01 a      1278     0    43     1    18
  3.4037893328142432E-01 a      1279     0    43     1    19
 -1.9393919438713927E-01 a      1280     0    43     1    20
 -5.6409698344737837E-02 a      1281     0    43     1    21
 -1.5054255157568666E-01 a      1282     0    43     1    22
 -1.5845777570489569E-01 a      1283     0    43     1    23
 -1.6434500789068693E-01 a      1284     0    43     1    24
 -5.6213233176639885E-02 a      1285     0    43     1    25
  3.0504709971766586E-01 a      1286     0    43     1    26
  1.1451253886891263E-01 a      1287     0    43     1    27
 -7.1610171761954755E-01 a      1288     0    43     1    28
 -2.4469695542044140E-01 a      1289     0    43     1    29
 -2.2311591111185533E-01 a      1290     0    43     1    30
  1.6151336213504608E+00 a      1291     0    44     1     1
  4.7906468703454948E-02 a      1292     0    44     1     2
  4.0987068013400280E-01 a      1293     0    44     1     3
 -6.9054530619973364E-01 a      1294     0    44     1     4
  5.5293789485813521E-03 a      1295     0    44     1     5
 -1.3587959727033754E+00 a      1296     0    44     1     6
 -2.9875061696990313E-01 a      1297     0    44     1     7
  6.4166097056569360E-01 a      1298     0    44     1     8
  1.4471357099653501E+00 a      1299     0    44     1     9
 -3.5118396687832520E-01 a      1300     0    44     1    10
  7.9750494984686793E-01 a      1301     0    44     1    11
 -3.6064386607101589E-01 a      1302     0    44     1    12
  2.6757717876835563E-01 a      1303     0    44     1    13
  2.1875447255720240E-01 a      1304     0    44     1    14
 -7.9125011815611557E-01 a      1305     0    44     1    15
 -5.4239207188843586E-01 a      1306     0    44     1    16
  8.6491163467291646E-02 a      1307     0    44     1    17
 -4.3105438972617399E-01 a      1308     0    44     1    18
 -1.2425113725398091E+00 a      1309     0    44     1    19
 -6.0780472376387595E-01 a      1310     0    44     1    20
  6.4855348715859296E-01 a      1311     0    44     1    21
 -4.3891351651563527E-02 a      1312     0    44     1    22
 -2.4917562244058350E-01 a      1313     0    44     1    23
  2.6042072046370474E-01 a      1314     0    44     1    24
 -6.9056976984359741E-01 a      1315     0    44     1    25
  4.3176866810643699E-01 a      1316     0    44     1    26
 -4.2745936933091755E-01 a      1317     0    44     1    27
 -7.8361794523413124E-03 a      1318     0    44     1    28
  6.6350807234181811E-02 a      1319     0    44     1    29
 -2.6363966520737797E-01 a      1320     0    44     1    30
 -4.7053104964633219E-02 a      1321     0    45     1     1
 -9.9196098156481860E-01 a      1322     0    45     1     2
 -1.6863849059927116E-02 a      1323     0    45     1     3
 -6.0244387267969057E-01 a      1324     0    45     1     4
 -9.2739713135255075E-01 a      1325     0    45     1     5
  9.1119886501246272E-01 a      1326     0    45     1     6
  2.5945867042625115E-01 a      1327     0    45     1     7
 -6.8906438546764381E-01 a      1328     0    45     1     8
  2.5404840624324015E-01 a      1329     0    45     1     9
 -5.6949107108036356E-01 a      1330     0    45     1    10
  6.2491849066797833E-01 a      1331     0    45     1    11
  7.9304873271237453E-01 a      1332     0    45     1    12
  6.5910468939289357E-01 a      1333     0    45     1    13
  8.6314198475699799E-01 a      1334     0    45     1    14
  4.7179250368032177E-01 a      1335     0    45     1    15
 -9.0750208197986060E-01 a      1336     0    45     1    16
 -1.3829971776218457E+00 a      1337     0    45     1    17
  1.1539428016439961E+00 a      1338     0    45     1    18
 -1.3042619077477829E-01 a      1339     0    45     1    19
  8.2433066160178214E-01 a      1340     0    45     1    20
  1.2276880030474355E+00 a      1341     0    45     1    21
 -4.6478123688198919E-01 a      1342     0    45     1    22
 -8.1681648475376700E-01 a      1343     0    45     1    23
  1.2676500585558839E-01 a      1344     0    45     1    24
  2.1241188448163095E-01 a      1345     0    45     1    25
  5.0917335489159088E-01 a      1346     0    45     1    26
 -1.8923421411228997E-01 a      1347     0    45     1    27
  1.3895569211764169E-01 a      1348     0    45     1    28
 -5.5110168241700219E-01 a      1349     0    45     1    29
 -3.0758366979979052E-01 a      1350     0    45     1    30
 -2.3102493647483408E-01 a      1351     0    46     1     1
  3.2709090747730313E-01 a      1352     0    46     1     2
 -2.9682670226874111E-02 a      1353     0    46     1     3
  3.0657029507407818E-01 a      1354     0    46     1     4
  4.5166080771415379E-01 a      1355     0    46     1     5
 -8.9548313545160907E-01 a      1356     0    46     1     6
 -2.8415883364776362E-01 a      1357     0    46     1     7
  2.9033803396503266E-01 a      1358     0    46     1     8
 -2.2069138681614026E-01 a      1359     0    46     1     9
  1.2842426318753488E+00 a      1360     0    46     1    10
  2.4242020578445470E-01 a      1361     0    46     1    11
 -3.8426697802340892E-01 a      1362     0    46     1    12
  7.0200283810604069E-01 a      1363     0    46     1    13
  2.3485619166564070E-01 a      1364     0    46     1    14
  9.7523126333249624E-02 a      1365     0    46     1    15
  1.3844987907104833E+00 a      1366     0    46     1    16
 -3.1842521682763802E-01 a      1367     0    46     1    17
 -2.7381309436827134E-01 a      1368     0    46     1    18
  1.6552114112479699E+00 a      1369     0    46     1    19
  7.8485584461703994E-01 a      1370     0    46     1    20
 -1.2983762215331216E+00 a      1371     0    46     1    21
 -2.5147957816790928E-01 a      1372     0    46     1    22
  4.4176065445988194E-01 a      1373     0    46     1    23
  2.6501260768512619E-01 a      1374     0    46     1    24
 -4.4673759544927033E-01 a      1375     0    46     1    25
  5.6719076588089257E-01 a      1376     0    46     1    26
  6.8619453869765790E-01 a      1377     0    46     1    27
  2.4866457653298349E-01 a      1378     0    46     1    28
 -5.7858811274769284E-01 a      1379     0    46     1    29
  1.1583346347235071E+00 a      1380     0    46     1    30
  6.8634514407158953E-01 a      1381     0    47     1     1
 -6.7998876078485837E-01 a      1382     0    47     1     2
 -4.5440902509222758E-01 a      1383     0    47     1     3
  1.4513049379741914E+00 a      1384     0    47     1     4
  3.3011794208985301E-01 a      1385     0    47     1     5
  1.2604120381620163E+00 a      1386     0    47     1     6
  7.3579925260161561E-01 a      1387     0    47     1     7
  3.4441721075813775E-01 a      1388     0    47     1     8
 -2.1177842106232490E+00 a      1389     0    47     1     9
 -6.5830856571353791E-01 a      1390     0    47     1    10
 -4.3970531405607133E-01 a      1391     0    47     1    11
 -1.2266560965972809E-01 a      1392     0    47     1    12
 -4.5448274643180364E-01 a      1393     0    47     1    13
 -1.0906715500797055E+00 a      1394     0    47     1    14
  5.1059155521997590E-01 a      1395     0    47     1    15
 -4.1675578259404417E-01 a      1396     0    47     1    16
  1.4733573541207212E-01 a      1397     0    47     1    17
  3.4783570020195477E-02 a      1398     0    47     1    18
 -1.4852644515569762E+00 a      1399     0    47     1    19
 -6.9292934374090220E-01 a      1400     0    47     1    20
 -9.6365082067055019E-01 a      1401     0    47     1    21
 -2.9725727969152860E-01 a      1402     0    47     1    22
  7.6960373730054277E-01 a      1403     0    47     1    23
 -2.7779223818852067E-01 a      1404     0    47     1    24
 -2.9281783748608903E-01 a      1405     0    47     1    25
 -1.6542462523555340E-01 a      1406     0    47     1    26
 -3.7138682699560988E-01 a      1407     0    47     1    27
 -5.6865137467175009E-01 a      1408     0    47     1    28
  2.5647431360733014E-01 a      1409     0    47     1    29
  2.6189704865457420E-03 a      1410     0    47     1    30
  4.7559237560715500E-01 a      1411     0    48     1     1
  6.3572330851860326E-01 a      1412     0    48     1     2
 -4.2721884433296115E-01 a      1413     0    48     1     3
  1.9626224758687211E-01 a      1414     0    48     1     4
  3.6749600393750970E-01 a      1415     0    48     1     5
 -9.2676182026964454E-02 a      1416     0    48     1     6
  1.7884892605938224E-01 a      1417     0    48     1     7
  4.8580173213669664E-01 a      1418     0    48     1     8
  5.7581414631683914E-01 a      1419     0    48     1     9
  1.7943499746559805E-01 a      1420     0    48     1    10
 -1.6558215891270106E-01 a      1421     0    48     1    11
 -9.5513375005939441E-02 a      1422     0    48     1    12
  3.2385398877009738E-02 a      1423     0    48     1    13
  4.8598421081486065E-01 a      1424     0    48     1    14
 -8.0693504657714833E-03 a      1425     0    48     1    15
 -8.3778963352845987E-02 a      1426     0    48     1    16
 -6.3353524277543261E-02 a      1427     0    48     1    17
  1.2029570753389304E-01 a      1428     0    48     1    18
 -4.0824660952693337E-01 a      1429     0    48     1    19
  6.2488029387526989E-01 a      1430     0    48     1    20
 -2.4701597563643066E-01 a      1431     0    48     1    21
 -5.8124382153973864E-01 a      1432     0    48     1    22
 -8.3776997923039487E-01 a      1433     0    48     1    23
  5.0117462605182728E-03 a      1434     0    48     1    24
  1.6001314091316277E-03 a      1435     0    48     1    25
 -4.3594039718264765E-01 a      1436     0    48     1    26
 -2.7164320057015384E-01 a      1437     0    48     1    27
 -1.3449034777289337E-01 a      1438     0    48     1    28
  4.8487354581286973E-01 a      1439     0    48     1    29
 -7.7626057047018704E-01 a      1440     0    48     1    30
  4.2138636730347478E-01 a      1441     0    49     1     1
 -6.1015376055078929E-01 a      1442     0    49     1     2
  8.6618590820277475E-01 a      1443     0    49     1     3
  4.2755851139372208E-01 a      1444     0    49     1     4
  1.3497574622085824E+00 a      1445     0    49     1     5
  2.0390858541979195E+00 a      1446     0    49     1     6
  5.8991784786428958E-01 a      1447     0    49     1     7
 -8.2660387639526215E-03 a      1448     0    49     1     8
 -4.0903079122847624E-01 a      1449     0    49     1     9
  1.3487523710424848E-01 a      1450     0    49     1    10
  3.2693158015030555E-01 a      1451     0    49     1    11
  3.4485692770536330E-01 a      1452     0    49     1    12
  1.0364196281633811E+00 a      1453     0    49     1    13
  4.9695948624136943E-01 a      1454     0    49     1    14
  5.6253561267977281E-01 a      1455     0    49     1    15
 -3.3265975074115767E-01 a      1456     0    49     1    16
 -7.9508838651949598E-01 a      1457     0    49     1    17
  4.5442467816006743E-01 a      1458     0    49     1    18
 -1.2647389399883495E+00 a      1459     0    49     1    19
 -6.3877757807678714E-01 a      1460     0    49     1    20
  2.7414782327624970E-01 a      1461     0    49     1    21
  9.3972533281021631E-01 a      1462     0    49     1    22
 -4.4614248412184525E-02 a      1463     0    49     1    23
 -1.2936052642423588E+00 a      1464     0    49     1    24
  1.9438908597398770E+00 a      1465     0    49     1    25
  6.8987462333338245E-01 a      1466     0    49     1    26
  3.9201500906445252E-01 a      1467     0    49     1    27
  7.8390339946611143E-01 a      1468     0    49     1    28
  1.1451380160273366E+00 a      1469     0    49     1    29
 -3.0184315529212324E-01 a      1470     0    49     1    30
  5.3169683630140308E-01 a      1471     0    50     1     1
  8.6392837889175389E-01 a      1472     0    50     1     2
  9.1681313026194022E-01 a      1473     0    50     1     3
 -1.8437050204670886E+00 a      1474     0    50     1     4
 -1.3170676673455846E+00 a      1475     0    50     1     5
 -1.8560151704307999E+00 a      1476     0    50     1     6
 -6.6139398070173006E-01 a      1477     0    50     1     7
  1.4167401901671539E+00 a      1478     0    50     1     8
 -1.3346680698802571E+00 a      1479     0    50     1     9
  4.5918743582018595E-01 a      1480     0    50     1    10
 -3.2121667612873156E-01 a      1481     0    50     1    11
 -2.1005031366449995E+00 a      1482     0    50     1    12
 -1.5105872851667130E+00 a      1483     0    50     1    13
  5.6197403020219827E-01 a      1484     0    50     1    14
 -1.4606446045051846E+00 a      1485     0    50     1    15
  6.8606343580764118E-01 a      1486     0    50     1    16
 -2.7011017436320645E-01 a      1487     0    50     1    17
  4.4902336088795120E-01 a      1488     0    50     1    18
  1.8692048743363843E+00 a      1489     0    50     1    19
  9.9877242997477955E-01 a      1490     0    50     1    20
  8.8611495236989224E-01 a      1491     0    50     1    21
  3.1779753240309777E-01 a      1492     0    50     1    22
  1.8372431434508552E-01 a      1493     0    50     1    23
  1.6481599715934512E+00 a      1494     0    50     1    24
 -2.0389066648966847E+00 a      1495     0    50     1    25
  1.0194077592348902E+00 a      1496     0    50     1    26
  5.9265375881196847E-01 a      1497     0    50     1    27
 -5.3259671406721909E-01 a      1498     0    50     1    28
  2.1461906744729728E+00 a      1499     0    50     1    29
  1.7416978551159961E+00 a      1500     0    50     1    30
  4.3317503635705364E-02 a      1501     0    51     1     1
  1.5816264551841064E-01 a      1502     0    51     1     2
  9.1444667865886536E-02 a      1503     0    51     1     3
  1.9522094547401297E-01 a      1504     0    51     1     4
  2.0057756786052602E-01 a      1505     0    51     1     5
  1.3106303345656820E-01 a      1506     0    51     1     6
  4.6438236854481540E-01 a      1507     0    51     1     7
  2.6983229931342639E-01 a      1508     0    51     1     8
  9.1863097392219553E-02 a      1509     0    51     1     9
  3.0015183236832249E-01 a      1510     0    51     1    10
 -3.6521476144702641E-01 a      1511     0    51     1    11
  1.0263125949043662E-01 a      1512     0    51     1    12
  3.3953597105161999E-02 a      1513     0    51     1    13
  5.0841480425734342E-01 a      1514     0    51     1    14
  7.5244453172980633E-02 a      1515     0    51     1    15
 -1.2680022969803853E-01 a      1516     0    51     1    16
  2.2628939070723799E-02 a      1517     0    51     1    17
 -2.5256052874623169E-01 a      1518     0    51     1    18
 -9.4132464488189668E-02 a      1519     0    51     1    19
  8.7671168008041284E-02 a      1520     0    51     1    20
  1.5815366176249433E-02 a      1521     0    51     1    21
 -3.0399248325297251E-01 a      1522     0    51     1    22
 -2.9243487125334527E-01 a      1523     0    51     1    23
  1.2351316896082289E-01 a      1524     0    51     1    24
  1.1314924991926653E-01 a      1525     0    51     1    25
 -2.1350459588043486E-01 a      1526     0    51     1    26
  4.8262168155927382E-01 a      1527     0    51     1    27
 -4.9955674309649584E-03 a      1528     0    51     1    28
  1.2015024492677910E-01 a      1529     0    51     1    29
 -3.8573112272444876E-01 a      1530     0    51     1    30
 -2.1702127055460055E-01 b      1531     1     1
  2.6109320738635416E-01 b      1532     1     2
  1.4515343582046827E-01 b      1533     1     3
  1.7690015259853234E-01 b      1534     1     4
 -2.8031165647059159E-01 b      1535     1     5
  1.3745958039115318E-02 b      1536     1     6
 -6.6011544101165526E-02 b      1537     1     7
 -7.2841189097361300E-02 b      1538     1     8
  3.2925865133651933E-01 b      1539     1     9
  1.4934581320599852E-01 b      1540     1    10
 -1.3144209835412346E-01 b      1541     1    11
 -3.5800902614760405E-01 b      1542     1    12
 -4.9860468606016098E-04 b      1543     1    13
 -2.0090511960343688E-01 b      1544     1    14
 -1.3078957829593477E-01 b      1545     1    15
 -2.3968364879648235E-01 b      1546     1    16
 -3.9892417453374546E-01 b      1547     1    17
 -3.5192623672223138E-02 b      1548     1    18
 -8.7216109809767225E-02 b      1549     1    19
  5.3172197029233015E-01 b      1550     1    20
 -3.0536840449428337E-01 b      1551     1    21
 -1.6435222251982903E-01 b      1552     1    22
  4.0294959960461507E-01 b      1553     1    23
  3.0515908288984088E-02 b      1554     1    24
  6.9964542355535606E-02 b      1555     1    25
 -7.7513519341829790E-02 b      1556     1    26
  3.1011436558967268E-02 b      1557     1    27
  8.4049313136624906E-02 b      1558     1    28
 -1.6275271913333497E-01 b      1559     1    29
 -5.1578761726616164E-02 b      1560     1    30
  2.9278237959610953E-01 a      1561     1     1     2     1
  4.6006418662998855E-01 a      1562     1     1     2     2
 -4.1658500282259092E-01 a      1563     1     1     2     3
  1.0196851286167287E-01 a      1564     1     1     2     4
  6.4314851252657879E-01 a      1565     1     1     2     5
 -6.6306120946840508E-01 a      1566     1     1     2     6
 -2.7883159547340880E-01 a      1567     1     1     2     7
 -7.6238860338507364E-01 a      1568     1     1     2     8
  1.7123925388142777E-02 a      1569     1     1     2     9
 -2.4320445783152628E-01 a      1570     1     1     2    10
 -4.2451755267314040E-02 a      1571     1     1     2    11
  1.4947987900110385E-01 a      1572     1     1     2    12
  3.7887677791144198E-01 a      1573     1     1     2    13
  1.9098852229359478E-01 a      1574     1     1     2    14
  8.2305410191139017E-02 a      1575     1     1     2    15
 -5.5597446618615098E-01 a      1576     1     1     2    16
  3.9603952665977238E-01 a      1577     1     1     2    17
 -1.7984522173298353E-01 a      1578     1     1     2    18
 -2.9573609891503361E-01 a      1579     1     1     2    19
 -4.6065375833541859E-02 a      1580     1     1     2    20
 -8.5083416767873107E-02 a      1581     1     1     2    21
 -6.3504823424396326E-02 a      1582     1     1     2    22
  4.9567027639634265E-01 a      1583     1     1     2    23
  4.9502608662790576E-02 a      1584     1     1     2    24
  9.5117560815999536E-02 a      1585     1     1     2    25
 -3.5985563477159810E-01 a      1586     1     1     2    26
 -7.8112202266735625E-02 a      1587     1     1     2    27
  4.1065499448714099E-01 a      1588     1     1     2    28
 -7.6027688566479748E-02 a      1589     1     1     2    29
 -1.8664364249932489E-01 a      1590     1     1     2    30
 -6.2535768920555390E-01 a      1591     1     2     2     1
  5.5312882050598899E-01 a      1592     1     2     2     2
 -1.3726228811474195E-01 a      1593     1     2     2     3
  2.0465235484335184E-01 a      1594     1     2     2     4
  3.4000974293443331E-01 a      1595     1     2     2     5
 -3.3258595060018263E-02 a      1596     1     2     2     6
 -6.2332772568558480E-02 a      1597     1     2     2     7
 -4.2109807250911946E-01 a      1598     1     2     2     8
  4.5719879077002090E-02 a      1599     1     2     2     9
  4.0219818239783678E-01 a      1600     1     2     2    10
 -3.4972952583570383E-01 a      1601     1     2     2    11
  5.1679649535350047E-01 a      1602     1     2     2    12
 -3.3953558088212749E-01 a      1603     1     2     2    13
  1.6737791281710884E-01 a      1604     1     2     2    14
  1.4359564124940791E-01 a      1605     1     2     2    15
  2.6610355699944632E-01 a      1606     1     2     2    16
  1.0624105097563276E-01 a      1607     1     2     2    17
 -7.3999244570111933E-01 a      1608     1     2     2    18
 -4.0227255306251003E-01 a      1609     1     2     2    19
  1.0293988736039199E-01 a      1610     1     2     2    20
 -6.8073405640970630E-01 a      1611     1     2     2    21
  1.1099660203271496E-01 a      1612     1     2     2    22
  2.8233151675070278E-01 a      1613     1     2     2    23
 -5.9842578980928340E-01 a      1614     1     2     2    24
 -6.5453209559426762E-01 a      1615     1     2     2    25
 -2.5887771198537762E-01 a      1616     1     2     2    26
  5.1321462698190046E-01 a      1617     1     2     2    27
 -2.5812289572196945E-01 a      1618     1     2     2    28
 -4.3704164542639218E-01 a      1619     1     2     2    29
 -5.4561393503165828E-02 a      1620     1     2     2    30
  5.7905543685816896E-01 a      1621     1     3     2     1
 -5.6328898259894833E-01 a      1622     1     3     2     2
 -4.2293855385131457E-01 a      1623     1     3     2     3
 -3.5375949461493905E-01 a      1624     1     3     2     4
 -8.7616791085347832E-03 a      1625     1     3     2     5
 -1.3462198386042287E-01 a      1626     1     3     2     6
  8.7312831426293835E-01 a      1627     1     3     2     7
 -8.0006796441853142E-02 a      1628     1     3     2     8
  5.1742299500528588E-01 a      1629     1     3     2     9
